%YAML:1.0
my_nn: !!opencv-ml-ann-mlp
   layer_sizes: !!opencv-matrix
      rows: 1
      cols: 3
      dt: i
      data: [ 58, 10, 1 ]
   activation_function: GAUSSIAN
   f_param1: 1.
   f_param2: 1.
   min_val: 5.0000000000000003e-002
   max_val: 1.
   min_val1: 2.0000000000000000e-002
   max_val1: 1.
   training_params:
      train_method: BACKPROP
      dw_scale: 1.0000000000000000e-003
      moment_scale: 1.0000000000000000e-002
      term_criteria: { epsilon:2.2204460492503131e-016, iterations:300 }
   input_scale: [ 8.7659209810873691e+000, -1.1716092595592860e+000,
       6.0490085980788404e+000, -1.3194627814343824e+000,
       5.7030840251396109e+000, -1.3970420263917376e+000,
       6.5518501159145801e+000, -1.3871412414352824e+000,
       7.2500133219261187e+000, -1.3179067661346315e+000,
       5.3222674750732040e+000, -1.2431142722189434e+000,
       6.5559565558889314e+000, -1.0846635446051371e+000,
       6.9892563757165220e+000, -1.2703017940753045e+000,
       7.0143568613874372e+000, -1.3315725228204371e+000,
       7.0919238618318756e+000, -1.2325884572105068e+000,
       6.4419796448388018e+000, -1.1750597149354969e+000,
       6.9547875042028577e+000, -1.3110378634784272e+000,
       6.5585949652151445e+000, -1.3706135425957107e+000,
       6.7510751046108064e+000, -1.3421263551182008e+000,
       6.4650459995238885e+000, -1.2960641365571908e+000,
       4.8545871158706948e+000, -1.0331831300223755e+000,
       8.4924049046471470e+000, -1.3688814388995179e+000,
       6.4513655959725487e+000, -1.2886021019208920e+000,
       6.6133086780368018e+000, -1.3042817199641039e+000,
       5.9599353814106255e+000, -1.3583108141559936e+000,
       6.5899432324267302e+000, -1.3431302821592146e+000,
       7.0974636785995893e+000, -1.3636440835833192e+000,
       6.8574097907226497e+000, -1.2992024148880432e+000,
       6.6027395428088207e+000, -1.3108397382082333e+000,
       7.1182572975033427e+000, -1.2186083957915235e+000,
       8.1200112045600061e+000, -1.1464995107526714e+000,
       6.0459269198615395e+000, -1.3283884026795307e+000,
       6.0539601503902842e+000, -1.3747316071400650e+000,
       6.2487268498241537e+000, -1.2584526449289157e+000,
       7.1080837856554142e+000, -1.2961530757409301e+000,
       6.5238507208826002e+000, -1.3090709865741452e+000,
       6.7757464035273962e+000, -1.2569688593250030e+000,
       7.0730528647759776e+000, -1.2645123059394672e+000,
       6.7243831907048612e+000, -1.1068606963195393e+000,
       5.6947878452004677e+000, -1.2694323844470770e+000,
       5.5875331294400450e+000, -1.3847158041560477e+000,
       6.0981272997797191e+000, -1.3781655012187088e+000,
       6.8088259851668038e+000, -1.2882762127972087e+000,
       6.2817194547290907e+000, -1.3663281666211167e+000,
       5.5873648803193516e+000, -1.1675269468882079e+000,
       5.5415748669082765e+000, -1.2946351768736415e+000,
       4.8527678164138885e+000, -1.2273289399449692e+000,
       7.0910476554959443e+000, -1.2592564619047482e+000,
       6.5481658565142560e+000, -1.2860869703703375e+000,
       7.6367063303613891e+000, -1.3559717223636032e+000,
       6.1658523431059065e+000, -1.3664387876817190e+000,
       6.6843542309546047e+000, -1.3477054724036557e+000,
       6.2307176254332557e+000, -1.2115842868577789e+000,
       7.5606185026920789e+000, -1.2591671288553166e+000,
       6.5842809068792194e+000, -1.3047594028086718e+000,
       7.0823772976085708e+000, -1.3604550308465206e+000,
       7.3773191401614246e+000, -1.2380318027433899e+000,
       6.3155379064625556e+000, -1.3295868987058976e+000,
       7.2037754372387584e+000, -1.3065571328489258e+000,
       5.7043637338485134e+000, -1.3685408709310942e+000,
       4.7318169728783070e+000, -1.4549430954078126e+000,
       6.5558726116721111e+000, -1.3008790260703953e+000,
       7.1095254388827671e+000, -1.2377892074402685e+000 ]
   output_scale: [ 2.1052631578947367e+000, -1.1052631578947367e+000 ]
   inv_output_scale: [ 4.7499999999999998e-001, 5.2500000000000002e-001 ]
   weights:
      - [ -1.7566299909131683e-001, -4.1845862619253826e-002,
          -1.6568210420936619e-002, 2.4150291148114674e-002,
          -3.2438721449589616e-003, -4.8600196897431065e-002,
          -1.1833291572090945e-001, 6.7634589363966505e-002,
          -1.9375990173335983e-001, -1.8213911907528895e-002,
          6.6073108315064299e-002, 5.4233387976359300e-002,
          5.3139226235875851e-002, 2.2624423718979565e-002,
          -9.2974373653502682e-002, 1.5814635021068721e-001,
          4.6690823777712713e-002, -1.0357722683283326e-001,
          4.5549576899137967e-002, 6.9730608918210868e-002,
          -1.5150899431770889e-001, -1.5117171131133128e-001,
          -1.9459014615801403e-002, -2.4447022286732338e-002,
          4.0141165973896234e-002, -2.0437229408232789e-002,
          4.8879814346835325e-002, -9.2838054979260204e-002,
          3.6187114892123735e-002, 8.3740361981723438e-002,
          -1.1314897312103866e-002, -2.4605678100864233e-002,
          3.2669443682584967e-002, 6.3733112720324434e-002,
          1.2886804005254959e-001, -4.6595365261059465e-002,
          -1.0357312550538593e-002, -8.1611749208383683e-002,
          -3.8076703673965346e-003, -1.1618011408328908e-001,
          -3.7985203412693763e-002, 3.5263052210009700e-002,
          7.0388359229681868e-002, 5.7426777385075449e-002,
          -1.1494035147187277e-001, 1.0242378245069836e-002,
          2.4604555976836862e-002, 9.2003765999133982e-003,
          1.3732300325412920e-002, -1.9930715704380478e-001,
          5.6183366905413007e-002, 1.4420671736425398e-002,
          5.9806235948930649e-002, 3.3828016875864605e-002,
          -1.1310535032214009e-001, -2.9284128836496628e-002,
          -1.0475151091662062e-001, 5.1633994895372633e-002,
          1.1475879963978258e-001, -4.3992956704492624e-002,
          -5.1711476490274216e-002, -2.1563129623184060e-001,
          -6.0494642248170950e-002, 1.2354213416355052e-001,
          -5.4118802791197899e-002, -5.7576182354642819e-002,
          1.4453050843079657e-001, 2.2124436650916596e-001,
          -8.2690032616432083e-002, 1.2176093554949900e-001,
          3.5918301519632732e-002, -1.1653941972754420e-002,
          2.7548773520654758e-002, -2.8779873447342137e-003,
          -1.7682715077121429e-002, 7.2754850825198433e-002,
          -1.7259222054833852e-004, -1.1660010440778144e-001,
          3.7374578794260246e-002, -1.4587686967791042e-002,
          1.0312384184315768e-001, 2.7690503055393459e-002,
          5.6330519826789223e-002, -7.4345214438053892e-002,
          -6.0725896563283317e-002, -3.8613918143666033e-003,
          9.1041785293462824e-002, -7.4597278055658689e-002,
          -4.6658892450212736e-002, 2.3258769823402736e-001,
          -1.2290486956572493e-001, 6.1694264249897351e-002,
          -2.7999776144793556e-002, 4.4137623150404093e-002,
          -1.7162432962291748e-002, 1.0325416742340088e-001,
          2.0002732142230945e-002, 4.3642618077830646e-002,
          -3.6858250106549119e-002, 1.3474851526062984e-001,
          1.0155518253535181e-002, 5.1845836765831640e-002,
          1.1903931945407915e-001, -7.5005923536584501e-002,
          2.1100127579446400e-002, -9.6959786258692310e-002,
          -9.0654658415020364e-002, -1.7004292787748135e-001,
          4.0615456907790108e-002, -3.6559334583568706e-002,
          7.0456914621286294e-003, -4.9520981696420413e-002,
          1.3341464156970651e-002, 1.4638685211746409e-003,
          -5.2689582955743990e-002, -2.8083044618151191e-002,
          7.3590824514514971e-002, -1.3121499621316899e-002,
          -3.1287958376096443e-002, -9.5028536195802205e-002,
          -8.4436111217059281e-002, -5.1189146525934065e-002,
          -4.6888974573877105e-002, -4.2707606007514616e-002,
          1.0296381823245250e-001, 1.0797654894042794e-001,
          -3.5267993890782098e-002, -1.5891827951191417e-001,
          -6.1504786728714796e-002, 1.3690409473458717e-001,
          -1.0596533922723896e-002, 2.0900845818378987e-002,
          8.1589033992379260e-003, 4.1075786914584703e-002,
          1.8040937822260811e-001, -6.2261101836508889e-002,
          -6.9652528411278419e-002, 5.9713268679137295e-002,
          9.5582281689941706e-002, 8.8712502563504686e-002,
          -4.8597979963295977e-003, -8.3208968868241806e-002,
          4.1079234984959807e-002, -4.8523706889843705e-002,
          -4.7065132041173387e-002, -3.7259967145198365e-002,
          1.2954844084116618e-001, -2.7394200140262857e-002,
          1.3298980620808490e-001, -1.1989426816725062e-002,
          -2.9455663294784340e-001, -1.1078825306802084e-001,
          1.9265084233281901e-001, 3.3245032768157950e-001,
          5.5839946974953467e-002, 7.0318412367849720e-002,
          -9.2301995067585990e-002, -9.5370845059549597e-003,
          -8.5551698351575868e-003, -1.0671235989302018e-001,
          -2.2872045068211969e-001, -4.6834086551084085e-003,
          -2.6260834633612343e-002, 6.4803850363333831e-002,
          1.4649005444800364e-001, -8.5187812349537581e-002,
          8.6554823592171634e-002, 4.4522423559537790e-002,
          -1.1710903998812398e-001, -4.2880162268142622e-003,
          9.4087618462630418e-002, 6.7577502624255811e-002,
          3.2943446714637788e-002, -4.6627572070355790e-002,
          2.7760253981180909e-002, 5.3590039686325242e-003,
          -1.1954046021166811e-002, -6.5485582474871240e-002,
          1.7226665877019133e-002, 6.4437997881468867e-002,
          7.8312501683637115e-003, -3.0848492415673182e-002,
          -2.9962887211959096e-003, -1.0856277015192701e-002,
          -5.0295665486379858e-003, -2.5168269550491496e-002,
          -5.1159900129628955e-003, 7.4832368166748899e-003,
          -2.6419494028612763e-002, -1.1046358573238350e-003,
          -2.9706878518862245e-001, -3.4892932884842159e-001,
          -6.1810528684438773e-002, 7.2704466597147563e-002,
          9.1804811288716842e-002, 4.6227850007670469e-003,
          6.6536674720485495e-002, 2.0437019183898078e-002,
          2.3780476799116659e-001, 5.0653077332611748e-002,
          1.4105514360091501e-001, 1.0388274415606800e-002,
          2.1249837956261147e-002, -3.2425672618218319e-002,
          -1.2581153707110410e-001, 3.7009010064497946e-003,
          3.0422651473158511e-002, 2.9954129807985640e-002,
          -1.6628397275340795e-002, 2.9212535865477375e-002,
          -1.2282036837264158e-001, -7.7219611441346004e-003,
          -1.0578461154705654e-001, 8.3630798959058381e-003,
          6.1341882128752821e-002, 5.7226452984225932e-003,
          3.3447920956867820e-002, 1.7036603141676265e-002,
          -8.6673298135439891e-002, -7.9563356369842117e-002,
          1.1604841972081248e-001, 5.5158018249956677e-002,
          2.3451105086022540e-002, -4.1909115584465827e-002,
          -2.5345356670145435e-002, -4.4079485065518779e-002,
          1.0524078687008753e-001, 4.2559290033967717e-002,
          1.7230466190417895e-001, -1.0512498562996204e-002,
          5.8377561392159917e-002, -6.0132415112078431e-002,
          9.0705293438197374e-003, 8.3008275185843024e-003,
          7.0960509867523031e-002, -1.0694869890827044e-001,
          -7.1354143908867004e-002, -2.4146474622716119e-002,
          -8.3375238910418190e-002, -2.2227557266840597e-002,
          -3.3470272556425074e-001, -2.6099615682895377e-001,
          -1.9526634828339520e-002, 1.2258758491607633e-001,
          5.1178679166090733e-003, -1.0260406495418777e-002,
          -1.0853066799598726e-001, -1.4548869357970548e-002,
          -4.4373043399576019e-002, -8.7260742959246781e-002,
          1.3178799898889898e-002, 7.0681189038592968e-002,
          5.3332709213471934e-002, -2.1022782693140590e-002,
          -1.8417120657833786e-002, -7.5961092778621217e-002,
          3.3872956982970437e-002, -1.7194043787905705e-002,
          3.8364124046992659e-002, 6.8078442736276890e-002,
          -7.1076844511386364e-002, 5.2440843928707473e-002,
          1.1172333249317910e-002, 6.4371522177176774e-002,
          3.1598335544932160e-003, -1.4335767972758484e-003,
          7.1398591479473889e-002, 1.0403964810518167e-001,
          -4.8749348764138473e-002, 1.1972550316776139e-002,
          6.4079214473138565e-002, 7.6211197204284944e-002,
          5.6671864334166865e-003, -1.7870642263689545e-002,
          3.2722857667206028e-002, 8.7540973609109923e-002,
          1.6160823500651700e-001, -1.0389859161326342e-001,
          -1.7897493057084286e-002, -3.4813786894524308e-002,
          -1.0144734655015443e-001, 9.5840865801005176e-002,
          5.5208218234935151e-002, 6.6698913234170459e-002,
          4.7516669170390713e-002, 7.8967137646757547e-003,
          -1.1986432252247402e-001, 4.6412000633007974e-002,
          -1.1046889186892493e-001, 1.6128010462706405e-001,
          -2.2418715402451017e-001, 1.4669418861353012e-001,
          3.6713451089273715e-002, 3.5483394257214161e-002,
          2.7493892832884566e-002, 1.1696519095499269e-001,
          1.0016060627426009e-001, -1.1715958628546097e-001,
          -5.4279129844572491e-002, -1.4952409169520187e-001,
          1.8550537679278417e-002, 4.2784795571836703e-002,
          1.2267649220491344e-002, -6.1332012278509505e-002,
          2.2534759769991541e-002, -8.0818656231950205e-003,
          -1.2520630513824413e-001, -4.4263902816831895e-002,
          1.3856494147331053e-001, -4.9314766400986670e-002,
          -1.8693544004809423e-001, -7.6788118910157480e-002,
          -4.3210017198392698e-004, -1.1160518070759137e-001,
          -5.7500474054442358e-003, -2.9832343051279384e-002,
          8.6721176903229155e-002, -6.1705856608020734e-002,
          5.5188607125881139e-003, 2.2030697895294316e-001,
          -5.6342156562843040e-002, 1.1603319242142507e-001,
          4.5513483208108593e-002, 2.4395717935958218e-002,
          3.2809715763365915e-002, 2.7087914274657947e-002,
          -8.1865743630082352e-002, -2.8280882296202275e-002,
          6.6985757199129921e-003, -3.5633598808071883e-002,
          -6.4704666874937436e-002, 1.6128055128880815e-003,
          -1.6369278220968536e-002, -3.4209892320222063e-002,
          -1.0875791617508341e-002, 1.7921452448345147e-002,
          4.5844097592722816e-002, -8.3990149982970996e-002,
          -3.0430845625663401e-002, -7.2050433213038376e-002,
          -1.0603770549872651e-001, 9.9000120484324161e-002,
          8.3023756246022103e-004, 7.5835332879964662e-002,
          1.6049290013746935e-002, 7.0170964363557020e-002,
          -3.7754439062902663e-002, 5.2395617561454541e-002,
          -1.0948776597061899e-001, -1.1191926968291040e-001,
          -1.2222139000507487e-001, 5.8403459272544277e-002,
          -6.9377829558078764e-003, 3.3749205155793389e-002,
          4.6626493935105533e-002, 9.3231461437375401e-002,
          -2.7064255780210981e-002, -1.0500835647155217e-001,
          -9.2542761928929906e-002, -6.3104406099279781e-002,
          -2.4213351186502002e-001, -6.8675795374432580e-002,
          -7.1773843060771350e-002, 5.9552060034036583e-002,
          -1.1923246931318511e-001, 9.2117766788815628e-002,
          -7.7020994992000102e-002, 1.1665016108593830e-001,
          -1.4408274155124373e-001, -3.3848768730017853e-002,
          -4.4195499437461150e-002, -2.8784204068722547e-003,
          8.6981339917995504e-002, 1.2947518275993575e-001,
          1.0364383598646945e-001, -2.8340322768610707e-002,
          -7.3593099788578323e-002, 7.2575417583560578e-002,
          3.5157129776712238e-002, 6.3289327111876972e-002,
          -8.2734711391576593e-002, -3.2885721578172350e-003,
          -8.9465374514261828e-002, -3.5989570413034508e-002,
          -3.1884480223698573e-002, 8.4364086821961587e-002,
          1.6816271856997928e-002, -1.1973871811787809e-002,
          -8.3566870945735464e-002, 6.2318556184903090e-002,
          -3.8882392887790557e-001, -5.1618456162454245e-002,
          -2.1095330211839000e-001, 2.3723313677463737e-002,
          2.1035230855945161e-001, 3.2886743657065932e-002,
          -1.4414123807345861e-002, 8.7254888017970433e-002,
          -1.6896028104923713e-001, -1.9840608859091297e-002,
          -2.1208847866760891e-001, 3.1202587198943296e-002,
          -6.2999986287344656e-002, -2.0383340551385194e-002,
          -4.4147204011847678e-002, 1.3918643440883627e-001,
          -3.4363066853751546e-002, 5.3266570237800209e-002,
          1.5719873895603192e-001, -1.0478267560545072e-002,
          -6.5502099447280082e-001, -7.8802422581618209e-002,
          -3.6049949607093612e-001, 1.5201909227441435e-001,
          1.6084401197465351e-001, 1.9973859299513730e-001,
          -7.1163924614075516e-002, 2.1793371313964988e-001,
          2.8980078539590795e-002, -3.4705037481082907e-001,
          -2.8046182935043018e-001, -1.3817395299426627e-001,
          -5.0406580501338845e-002, -5.6801579231656376e-003,
          -6.1114503313993478e-002, 4.6574987892730270e-002,
          2.8747479005295899e-002, -5.2800392311656300e-002,
          -9.1365274727062771e-003, -3.2859686874393113e-002,
          -1.8420523487291868e-002, 1.0155377279292010e-002,
          -3.1130377480210050e-002, -4.6837956604682592e-003,
          1.0366177124711613e-001, -1.1337418306452494e-001,
          1.3324656395016649e-001, 7.0111708936899109e-002,
          8.3925248352214807e-002, -2.5578314383108390e-002,
          7.1970731900248316e-002, 8.2823370212243771e-002,
          2.1510066863947380e-002, -8.9713105058696327e-002,
          -6.5728949737314621e-002, -5.8768457422596294e-002,
          9.4855451841948976e-002, -9.4729818688504164e-002,
          -2.2818185647772941e-002, -1.0112268269140300e-001,
          -1.3357943414515888e-001, -9.5068896785452398e-002,
          -6.2048589916068840e-003, 2.7248690880235359e-002,
          -1.0255314599716058e-002, -2.3373526913522083e-002,
          -6.0055306674449194e-002, 2.8290017260311755e-003,
          -4.7922112817562063e-002, -4.5063600751908718e-002,
          -9.6110325321681928e-002, -8.1193210461637660e-002,
          -2.1163154022299031e-002, -2.8798610151411111e-003,
          5.8038871006076383e-003, 1.1387321647208695e-001,
          -2.5806290570871079e-002, -3.4958897838723010e-002,
          1.6032606923130532e-001, -3.5088087262065852e-002,
          -1.2602904557940128e-001, 3.0344594673775236e-002,
          1.3833080027608068e-003, 4.2281235210699037e-003,
          8.3280001909396675e-002, 3.1398378027588394e-002,
          -7.9448147038403069e-002, -2.4906935816438516e-002,
          -7.5833443756393351e-002, 8.9773779541842041e-002,
          -2.6613293505641100e-001, 2.7918158864950179e-004,
          -1.1197423001994812e-001, -2.9352312086816823e-002,
          1.0592700378820856e-001, -5.1930791490509075e-002,
          1.9297063582931182e-001, 3.3321145695374289e-002,
          -1.7600495880704232e-002, -1.2382285509560477e-001,
          -3.2371138971980470e-003, -6.7534836029805617e-002,
          -3.2272239093574823e-002, -6.1999961040501060e-002,
          -4.4888428171055803e-002, 1.1828060262018556e-002,
          1.4402084723327291e-002, -5.3081946015204190e-003,
          -1.0578269887682855e-001, 2.3128404014356418e-001,
          -1.7729901687815031e-001, 1.6974805444125857e-002,
          -6.1739025756063569e-002, -2.6641201756899748e-002,
          -2.6171228769730033e-003, 3.5859562271382242e-004,
          -8.8451403913477084e-002, 8.7805950967237076e-002,
          -2.9983059250515597e-002, 4.7621122740043827e-002,
          -5.0778308295472574e-001, 1.4510287537695354e-002,
          -8.3631747858728997e-002, 7.5484322285301428e-002,
          5.5061041666317366e-003, 1.4915451085469519e-001,
          1.0635051267463459e-001, 1.6291032051717955e-001,
          -3.2915920783405744e-002, 9.8305452317441935e-002,
          -8.1154363497620494e-003, -7.1762780335477408e-002,
          8.6779707450971317e-003, 4.3087560495808391e-002,
          2.6572233856001024e-002, 2.3322640486130791e-002,
          -9.2307910492668524e-002, 5.9597467196947241e-003,
          -4.8194746187380004e-002, 1.6146285163042981e-001,
          3.1047146681795326e-002, -3.2424070064568475e-002,
          4.9478017587663681e-002, -2.0808579365547676e-002,
          -1.3750606740092575e-001, -4.4259113706992599e-002,
          -3.5411024798021801e-002, 2.0751568803182956e-003,
          -2.2444494081085245e-002, -7.3189032198984719e-002,
          -3.8197034994854155e-002, -2.0503496911616199e-002,
          1.6353760816320412e-002, 4.8580784308452932e-002,
          -5.3424438229265923e-002, 4.7307545126821593e-004,
          3.4197902732265681e-002, 8.3848280136045769e-002,
          -1.8105578229098973e-002, -5.5848068973222156e-002,
          -7.5342989796875104e-001, -1.3491605630815917e-001,
          -1.9243527160584159e-001, 1.9090545244657811e-001,
          1.9763592936475821e-001, 1.0891462187636095e-001,
          1.1392259306263879e-001, 9.1756249484285415e-002,
          -9.7918859164414160e-002, -2.3744739100476217e-001,
          2.8668910890843912e-003, -1.0610295034952503e-002,
          -3.8533612387849900e-002, -1.1392682825753185e-001,
          -7.8930188165471080e-002, 1.2960403964289201e-002,
          5.4362998790144106e-002, -7.3082329999902801e-002,
          -1.2115329625469148e-001, -7.0198427382143574e-002,
          -2.6647155888701751e-001, -9.5552123107856726e-002,
          -8.8539379043174313e-002, -6.6938018856503763e-004,
          -2.1877230390260924e-001, 7.1855493993479486e-002,
          1.5976292296886980e-002, 7.1215639572943454e-002,
          -3.1999490483979445e-002, -3.5884663125413704e-002,
          -2.1708383629442784e-002, 4.3817510944562699e-001,
          -1.1349571791399297e-001, 1.4533025617316492e-001,
          -5.2730191775294533e-001, -6.7351740786405889e-001,
          -7.7798620055698708e-002, -2.7128269605940514e-001,
          2.1266944201108451e-001, 1.6833937127731116e-001 ]
      - [ 2.6072264497465653e-002, 7.5067992293962338e-001,
          -1.3074407307310210e+000, -1.2414222812870463e+000,
          7.7867709356502024e-001, 9.5341499005756114e-001,
          4.7360446513165427e-001, 9.1771996786065724e-001,
          5.4044459993867189e-001, 5.4570677389525124e-001,
          -6.7135146097481246e-001 ]
