%YAML:1.0
my_nn: !!opencv-ml-ann-mlp
   layer_sizes: !!opencv-matrix
      rows: 1
      cols: 3
      dt: i
      data: [ 41, 100, 1 ]
   activation_function: GAUSSIAN
   f_param1: 1.
   f_param2: 1.
   min_val: 5.0000000000000003e-002
   max_val: 1.
   min_val1: 2.0000000000000000e-002
   max_val1: 1.
   training_params:
      train_method: BACKPROP
      dw_scale: 1.0000000000000000e-004
      moment_scale: 1.0000000000000000e-002
      term_criteria: { epsilon:2.2204460492503131e-016, iterations:3000 }
   input_scale: [ 9.0542950332830041e-001, -3.1970711562837733e+000,
       7.0185323896952923e-001, -3.4022208261046378e+000,
       8.7304019788865894e-001, -4.2067066517201983e+000,
       7.5105770702953056e-001, -3.8881072443068541e+000,
       6.8963324107700563e-001, -3.6532372893533878e+000,
       5.8086506404178939e-001, -3.2008102899834161e+000,
       7.1329030160711815e-001, -3.7316484904796954e+000,
       8.0635544908736179e-001, -4.0879238239761762e+000,
       7.7258502305350585e-001, -3.9835812625700822e+000,
       5.4098601398530000e-001, -3.5758598411677740e+000,
       6.7636644165108017e-001, -4.1712744425822530e+000,
       6.5646035414302739e-001, -4.2354068666571507e+000,
       5.4650772568713080e-001, -3.8640685995114867e+000,
       4.2581785540887018e-001, -3.4412712482974035e+000,
       5.4544451306843977e-001, -3.7826364750218744e+000,
       6.7185156493562126e-001, -4.3042328862932999e+000,
       6.4804922945217402e-001, -4.1691189453847359e+000,
       3.8228048420200178e-001, -3.4456397841703956e+000,
       3.9598614648752167e-001, -3.5061844752954170e+000,
       4.4597171629153332e-001, -3.9226285198683213e+000,
       3.8523234923998617e-001, -3.8652304307175385e+000,
       2.9202598676092306e-001, -3.4749651281524381e+000,
       4.3834864522925521e-001, -4.1016452325607231e+000,
       4.4347754871013029e-001, -4.0320799440520272e+000,
       4.3467220136828549e-001, -3.9139489744269422e+000,
       2.8388394543112655e-001, -3.4332986456097800e+000,
       2.9736706131490159e-001, -3.7065390929202024e+000,
       2.8019880015212256e-001, -3.6169398697450750e+000,
       2.3547645561794292e-001, -3.3628038750850022e+000,
       2.5691878065611912e-001, -3.7770369078329598e+000,
       3.0563532474355432e-001, -3.8978989500160872e+000,
       3.0387015942899392e-001, -3.9085233618402118e+000,
       2.9907143702060340e-001, -3.7588262223157125e+000,
       1.7925305218973528e-001, -3.2139835597679052e+000,
       1.9712701851206868e-001, -3.5317110436609993e+000,
       2.0196369063812381e-001, -3.7847044884318080e+000,
       2.0135880096306569e-001, -3.6448022241710469e+000,
       1.7565702925539811e-001, -3.6354011038576104e+000,
       1.8972338801467442e-001, -3.6746836889872965e+000,
       2.0731466358065578e-001, -3.7677305631687532e+000,
       1.7766588779270001e-001, -3.4296743403167627e+000 ]
   output_scale: [ 2.1052631578947367e+000, -1.1052631578947367e+000 ]
   inv_output_scale: [ 4.7499999999999998e-001, 5.2500000000000002e-001 ]
   weights:
      - [ -1.2932315445881156e-002, 1.1602232522955630e-001,
          -1.4808149838777040e-001, -9.2011714394744912e-002,
          -5.2344359173843294e-002, -6.9122614238459168e-002,
          3.7580992417237065e-002, 7.1492394645149473e-003,
          1.5222775956893447e-001, -3.9841770991598260e-002,
          -9.2214424639406184e-002, -2.6022887439457104e-002,
          -7.1293706365407702e-002, 1.5357733294532161e-001,
          -3.0719133940664348e-002, -1.3032510724143401e-001,
          -8.3575412331399979e-002, 8.8808523299495467e-003,
          7.1594643134129721e-002, 5.0979968017629530e-002,
          3.0845421008438630e-002, -1.1089536278290407e-001,
          5.1189772237050998e-002, 2.6223651859388947e-003,
          5.1801926224866519e-002, -1.2149457672416350e-001,
          5.4687138182861255e-003, -5.5378184627415943e-002,
          -5.1870379690903252e-002, 1.7272801778028760e-002,
          6.6534908289357542e-002, 3.5169499815782684e-002,
          1.6335070129495546e-002, -9.4489849232118700e-002,
          1.4779534216942692e-002, 8.1014787598831156e-002,
          -6.6857041786710911e-002, -1.8161489779452944e-001,
          -2.0501416290918485e-002, -3.2515298507318109e-002,
          -3.1979734353640266e-002, -4.1774063242711436e-003,
          -9.6834793672412309e-002, -1.0526346577291590e-002,
          1.4141803644373676e-003, -1.1682082264893527e-001,
          -8.7684157653062200e-002, 6.7784117724117146e-002,
          -1.1471275611284290e-001, -2.5054131064176519e-002,
          2.4932863789302318e-001, 1.0454080274099577e-002,
          6.9327498165924956e-002, -9.8166103856661260e-002,
          -1.6207643817708461e-001, 1.1613956028220322e-002,
          -4.0675907542764886e-002, -1.0071798088485993e-001,
          3.1230340535122400e-002, 5.9616877414972449e-003,
          -4.2669625124541942e-002, 3.4632125762712157e-002,
          1.1489434771406824e-001, -1.8836226041769433e-002,
          -5.2192405991840884e-002, -3.1302018124886549e-003,
          -4.2642152953373438e-002, -5.9528848598045817e-002,
          3.3288280210208437e-002, -2.1603340595340727e-002,
          2.5551897433592263e-002, -8.5918255151521492e-003,
          -5.3798305971431322e-002, -4.0327253434124667e-002,
          -1.0855770648613714e-002, -2.5360400430876767e-002,
          4.1306082170023704e-002, 5.2990438605622386e-002,
          -6.8620036408827334e-003, 5.8278763073174054e-002,
          3.6927704290840482e-002, 2.9131742731948226e-002,
          4.0179234452002256e-002, -3.8206014977627267e-002,
          7.7165181934163440e-003, -1.8562229990057046e-002,
          -4.6539593637453414e-002, -9.7162578747759368e-002,
          -2.3658777486608100e-002, -1.2224640045309018e-001,
          -2.1558666720700871e-002, 2.7655689923546035e-002,
          -2.3953977907282986e-002, -1.5662474486093614e-001,
          4.3832119431636528e-002, -2.8340332819014394e-002,
          3.8117944302644535e-002, -2.1233008239609535e-002,
          6.9991541713150543e-002, -8.9148838201053793e-002,
          1.2744064639668315e-001, -5.1803197740585047e-002,
          -4.1080159820857436e-002, 1.8495183939284329e-002,
          -8.3602469972314408e-002, 1.9652823610128176e-001,
          -4.3682806807974622e-002, 1.1497412050852899e-002,
          -1.4417147752754750e-001, 2.7743314320403434e-001,
          -6.7826684383855460e-002, 8.6696183951695607e-002,
          -4.2293199676141140e-002, 7.9219120931755996e-002,
          -1.3917567574521260e-003, -1.3021059476849121e-002,
          -6.6072232500776875e-003, 1.8070197979225478e-002,
          -1.2174888183805546e-001, -9.9983854417337592e-002,
          3.5155496525812360e-002, -8.2378422869564899e-002,
          6.1893295018698391e-002, -6.7868183672549808e-003,
          4.3419080298133572e-002, 1.0303863800340757e-001,
          4.6932348977539388e-002, -1.7172870535209370e-001,
          -1.0244283274285563e-002, -3.0641150654062213e-002,
          -5.5435845707161473e-002, 6.2642653968946624e-002,
          2.5115266556109617e-002, 4.8891333237100466e-002,
          5.7897696423771156e-002, 4.9925139419619874e-002,
          -3.6097555502907358e-002, 6.8049089206770205e-002,
          4.0085750554290027e-002, 1.5429447232907569e-002,
          -3.8801165082423600e-003, 1.1828201001976130e-001,
          -5.1323927753413733e-002, 1.6234303272937026e-002,
          1.2836427303614029e-001, -8.8106649593240969e-003,
          -7.0026921998554738e-003, -6.1826077488468058e-002,
          -2.7129062778995940e-002, -8.9435882086962848e-002,
          1.8746060188789573e-001, -3.2627954750270111e-002,
          -4.9746209920256586e-002, -1.7750760998599641e-002,
          -1.2136662523724842e-001, 4.1567915271782559e-003,
          -5.0121770733815192e-002, 7.5546219628351563e-002,
          6.2761483680460708e-002, -4.1953724469556551e-002,
          -6.0797972858507618e-002, 1.0814149792422140e-002,
          2.2743829086232414e-001, -1.6968910406916345e-002,
          6.3363612405218026e-002, -3.2508664840364366e-003,
          4.5101227213132922e-002, -6.0041938316442736e-002,
          9.0804272719250331e-002, -1.7723846850202829e-001,
          -5.7838511360686551e-003, 2.9863762007877864e-002,
          -4.2658417594466376e-002, -2.2991401062747725e-002,
          -7.2638103004036203e-004, 3.1440934986076884e-002,
          6.6558568836655910e-002, -3.8002538861503329e-002,
          -1.5395693119294047e-002, -7.2291773817997507e-002,
          -9.7998144817423263e-002, 8.8286343328253233e-002,
          1.6510308094824917e-002, -1.9441490364341591e-003,
          3.8102641602012342e-002, -1.0719286203711394e-001,
          1.5131657237460805e-001, 1.9904649740202399e-002,
          -4.6583619878261227e-002, -1.1424956896538967e-001,
          -9.5361973133860412e-002, 5.5683699844586695e-002,
          -1.9627528301844076e-002, -1.3540474700768634e-001,
          9.7233037069026737e-002, -1.0925680655891855e-003,
          -9.5736198086692578e-002, -4.0144906076482370e-002,
          3.9895402206021821e-002, 2.8209413743373917e-002,
          -5.8373918703801833e-002, -1.9395608910650444e-001,
          -6.3380766319478282e-002, -1.4190700500863742e-002,
          -9.1496025348767624e-003, 1.4752263385910715e-002,
          2.9188989780738746e-002, 4.8569643664048513e-002,
          -4.7438459990254370e-003, 8.9633301073533123e-003,
          2.6679755021957702e-002, -1.3641017884758485e-002,
          4.7999793415085548e-002, -1.1785426232052477e-001,
          -4.1659837529619000e-002, -3.3063661030856645e-002,
          8.4062065638310063e-002, 4.5283050151897875e-002,
          1.0340806949764794e-002, -5.4958568565929809e-002,
          2.5346855645433569e-002, -1.0180405805134467e-001,
          6.5428883419684253e-002, 3.1725993853244823e-002,
          2.6490396159555570e-002, 1.5020393037675758e-001,
          -4.7235581999434978e-002, 1.1313441409611663e-001,
          -1.0278338193439396e-001, 7.7546316897595150e-004,
          1.2669523302016059e-001, -9.5596786080303697e-002,
          -9.2085303292452791e-002, 4.7386464203267628e-002,
          1.3937111756186650e-002, 3.5283208825474179e-002,
          -2.7356671535286422e-002, 2.5677180692727012e-002,
          2.1233159470801562e-002, -3.2737608363149283e-002,
          6.8580737166447315e-003, 6.1827810661456144e-002,
          2.2496847227552040e-002, 8.8828577867404099e-003,
          -2.0864441742476529e-002, -9.4850779421082318e-002,
          -8.7859842125899354e-002, 3.6457889490224354e-002,
          -5.4917198774328449e-002, -1.0528022046562466e-001,
          -5.6557669904975898e-002, -4.1296031656178019e-002,
          3.6146982001953751e-002, -5.0674503338781075e-002,
          1.0099138496432042e-002, 9.7065960054212191e-004,
          -2.5788245113505262e-002, 1.1212084108049510e-001,
          -3.6249508420836206e-002, -6.0417999609824920e-002,
          -6.2497256331551787e-002, -3.3030779301091343e-002,
          -8.3047363086199338e-002, -4.1597991727798093e-002,
          4.4330673610446895e-002, -2.7442291663822865e-002,
          5.1446103206702716e-003, -1.6536690728711907e-002,
          -4.6753152612548421e-002, 5.8263558859995443e-002,
          1.2375881821877982e-002, -2.0117478942936893e-002,
          3.9093141811643105e-002, 9.5294069416329424e-002,
          -2.2124670079994788e-002, -3.5765379495832320e-002,
          8.1883194280514271e-002, -1.1055872838104377e-001,
          -3.3655956751828933e-002, 1.9977239838129299e-002,
          5.3879004807345997e-002, -1.1849725163924884e-002,
          -3.7527595942436827e-002, -6.9270107789322105e-002,
          8.2395895213768902e-002, 4.3034333125843996e-002,
          3.1283569093687062e-002, 3.5112113787648377e-002,
          -1.2445071359256356e-002, -7.1288789784014456e-002,
          -1.2614366767810625e-001, 1.9520539364919312e-001,
          4.7357860529543848e-002, -4.2383486699938251e-002,
          -2.2997075586990517e-002, -3.2402009179037385e-002,
          -1.3601213808921073e-001, 2.1161707849696138e-002,
          -1.5602650371483288e-002, -9.5635586487516477e-003,
          1.4749013657339505e-001, -6.5896812405917771e-002,
          3.7647987765734373e-002, -1.3848052876502762e-002,
          -1.2663014531712283e-001, 8.4034207996170313e-002,
          3.9508751343404647e-002, 1.7398819707365263e-002,
          2.3192116596175316e-002, 7.4741719661528178e-002,
          2.1625829781294653e-002, 2.9569949887387197e-002,
          -3.4056494157084061e-002, 7.9200717374487625e-002,
          2.6277519048883174e-002, 1.8258297381231509e-001,
          -1.3379191598764284e-001, -4.2392292423349791e-003,
          4.8413338931537998e-003, 7.3810962512584899e-002,
          3.7147938575832921e-002, -5.2362629251017853e-002,
          1.3779479804606412e-002, -1.4966289184150269e-001,
          -3.9829325154636407e-002, 9.0577171429242570e-002,
          9.4271453562348909e-002, -1.7185268818985319e-001,
          4.5619108763677203e-002, -3.2145620480922059e-002,
          -4.4379780189876393e-002, 1.1131255623756418e-001,
          2.1156811140715687e-002, -2.6535007624936172e-002,
          -6.7741132196472171e-003, -6.4369471229861239e-002,
          -5.4461704882552461e-002, -5.3024536648472155e-002,
          1.0612248135868847e-002, -4.2045317746528782e-002,
          -6.0406042202751933e-002, -6.9061957513690167e-002,
          7.5079133055380512e-003, -5.2250391297465733e-002,
          6.0820589387077940e-002, 7.7484575041457018e-002,
          -1.2515759259140741e-001, 2.8173201229328301e-002,
          -8.0424255117934398e-002, -1.2585866445881777e-001,
          1.8022482464914902e-001, -7.4716808327031092e-003,
          1.2242366262781322e-001, -3.4532563515051615e-002,
          -1.0391324857815766e-001, 4.4240484670635169e-002,
          -1.0468758126357000e-001, -1.9192588261265839e-002,
          -4.9045012154626096e-002, -2.3917244154003703e-002,
          -3.6160305139469891e-002, -8.7635925232461016e-003,
          1.6728415531484023e-001, -4.1799241363019990e-002,
          1.9446877808778039e-002, 4.6640457237889905e-002,
          -5.5713406799250402e-002, -1.7107200309563883e-001,
          1.2649533681849581e-002, -1.5396180253014893e-001,
          -4.0083912709245030e-002, 6.4628400402943847e-002,
          1.5828268845271009e-002, -4.0675262681353970e-002,
          1.6902406972467181e-002, -3.1121668610217711e-002,
          -1.2264383613743669e-002, -1.1006554184100291e-002,
          -4.7833569775970176e-002, -2.7621856395766930e-002,
          1.7091654000317709e-002, 3.7181250133566698e-002,
          6.8121468944376887e-002, 7.9559010989602358e-002,
          5.4755397080771498e-002, -1.1676387055172685e-001,
          1.5686274202962833e-001, -3.5293178013028177e-002,
          -1.0020428659128722e-002, 4.3522488020320257e-002,
          -5.2856693493434741e-002, -1.5130104322737720e-001,
          9.5384006283422973e-003, -4.2372998907585356e-002,
          1.0745342819162271e-001, 4.7488509622298870e-002,
          -8.2222233558386912e-002, -1.3638142005951238e-002,
          1.5992996933916748e-002, -8.6200711104411146e-002,
          1.9709694568707453e-001, 7.5634160124903229e-003,
          8.3642173963735258e-002, -6.9122973610785572e-003,
          1.0123333790504337e-002, 4.3092537530557605e-002,
          -5.4742116608078595e-003, -1.5756424996974298e-003,
          1.6091971845223343e-002, -4.4280611968464959e-002,
          -1.0852310245009111e-001, 4.7399701321981361e-002,
          -3.3460992984426056e-002, 9.1654608100281545e-002,
          3.7983197686154942e-002, 1.3708682986897330e-001,
          -8.2811908876487275e-002, 1.2414582511004763e-002,
          6.4948097687131334e-002, 1.8001154076766251e-001,
          1.6886492735850762e-002, 4.4338506724011024e-002,
          -6.7254304914511731e-002, -1.3118794205689216e-001,
          -3.0330484751084161e-003, 8.9115282557112138e-002,
          -5.9188034872802775e-002, -1.2460416147347919e-001,
          -6.3397650135092048e-002, 6.6462852885364916e-003,
          6.3455442396464570e-002, 6.6926594646998169e-002,
          5.0630463313187504e-002, 7.4753583862888967e-002,
          1.4135424220658185e-002, 4.1845167951967563e-002,
          -6.3279105327698664e-003, 9.9724346175188897e-002,
          -1.8193155123620752e-002, 1.3678166126638630e-002,
          -3.0370277768251436e-002, -1.5282688487186963e-001,
          4.5712803129876113e-002, -4.5327901913834239e-003,
          9.3663563251822970e-003, -4.6448455621135469e-002,
          -1.3142204257696255e-001, 1.0254947891151102e-001,
          -6.5777876592277004e-002, 4.5735775488328280e-002,
          -8.8588347519463165e-002, 5.6637850912873997e-003,
          1.3076678500497246e-001, -1.0010666167517693e-001,
          5.7551499886402055e-002, 2.4356561233513884e-002,
          -4.5304785078969706e-002, 9.5324515036202082e-002,
          -2.8195307445788805e-003, 3.3733952419651728e-002,
          -4.6000833191786848e-002, 3.4941565576995952e-002,
          1.2922732716691509e-002, -1.6175521590552168e-002,
          1.0061394159217964e-001, 2.2506511160617519e-002,
          -4.3414897068613074e-002, -5.1057331656683531e-002,
          5.6874781353881354e-002, -3.0663257606899259e-002,
          1.5936990377284740e-002, 1.2684023895023617e-002,
          -6.1737742079047281e-002, 4.8388482114802393e-002,
          9.9843909404797190e-002, 4.4018490616331341e-002,
          -2.3586569069946214e-002, 1.3489779006678826e-001,
          2.7404505569336119e-002, -2.8577490636827709e-002,
          3.2989030022736558e-002, -1.3653807720793634e-001,
          -5.3645792897529250e-002, 9.6122789679364690e-002,
          1.7313082873527223e-002, -4.2104979418689466e-002,
          4.9880196839891698e-003, 2.7609502650114937e-001,
          4.2864548939538484e-002, 7.8565915308829830e-003,
          7.0314831331291419e-002, -8.7407501470112184e-002,
          3.8607869626544930e-002, 1.4278165000581890e-003,
          -7.0906065354787454e-002, -7.9685528299360854e-003,
          8.7838698788407429e-002, 5.2647441302110298e-002,
          1.0060595191303327e-001, -5.0299725745607433e-002,
          7.4776537257721987e-002, 2.3014413497086487e-002,
          -4.2807342677094767e-002, -7.2382623763263905e-004,
          5.2390366742102991e-002, -1.4581229480605323e-001,
          -1.6583892268069524e-002, 1.0746559296887620e-002,
          1.3278692461307364e-002, -1.3153026002671040e-002,
          1.2750043179582007e-001, -2.1943116042684813e-002,
          -1.7194148879495372e-002, -9.8441309209520406e-002,
          3.2663421688233267e-002, -3.9333580912649761e-002,
          8.0275103643720314e-002, 1.5328820753439953e-002,
          4.3603232506085068e-002, 6.8966576170381138e-003,
          -3.0060411212124885e-003, -6.3740625936333811e-002,
          1.8144298204016999e-003, 3.2595884835679108e-002,
          -5.3691520263449539e-002, 9.8613177313206152e-002,
          -1.1264633446367750e-001, 1.6808423516096552e-001,
          -5.3577410902179552e-002, 4.1335679552688354e-002,
          3.4542712396023974e-002, -6.8726749066522569e-002,
          3.9000023017735211e-002, 7.1962562228068544e-002,
          1.4626746331187896e-002, 7.6612247295805583e-002,
          3.9575228229702532e-002, -1.8425311174710618e-001,
          -1.2812789416424161e-002, 6.2926649430979156e-002,
          -8.8315440236969953e-002, -9.0281412044934423e-002,
          6.5507727751846476e-002, -2.5840703324728501e-002,
          7.7217154432045715e-002, 4.2897865506257744e-003,
          3.9464297497089039e-002, 5.0476010644046401e-002,
          -5.6692372027535687e-002, 2.7139737804304224e-002,
          -3.0338841525547906e-002, -3.1409451618986180e-002,
          1.8893823663822526e-001, 2.7302319161350913e-001,
          -3.8242429916846891e-002, -1.0049944893691945e-002,
          -6.2261205326643851e-002, -1.8601229488978074e-002,
          -6.3803663051287901e-002, 4.9108061364831958e-002,
          4.9631721185508959e-002, 1.2800527478357859e-001,
          -7.8158926175057278e-002, 6.0749640716559972e-002,
          -1.0846546181951659e-001, -4.8761954067794377e-002,
          -3.7670297949770224e-003, -9.3266018533608771e-003,
          1.3411665786720227e-002, 9.8450253214552811e-003,
          2.0339482028667241e-002, 1.0045864606832525e-001,
          2.5753590053529264e-002, 4.1466508281317600e-002,
          -1.6922024096904623e-001, 2.8331620703141440e-003,
          -9.8864312554825168e-002, -3.2866458516250231e-002,
          -5.1444760674608124e-004, 6.2649942541592191e-003,
          -1.0686378374324414e-001, -1.3585648232251696e-002,
          9.9411094661441116e-002, 5.1746299211624984e-002,
          -4.4599811789928299e-002, -5.0287863089436523e-002,
          8.9810206836650128e-002, -2.1531002740661657e-002,
          9.6679967062591968e-003, 1.2127059568300544e-001,
          2.4172389378232313e-002, 8.9399401658833186e-002,
          6.5618560950904362e-002, 5.1130960018444518e-003,
          6.7787908446594368e-003, 4.7117309777311558e-002,
          4.6122635936431462e-002, -2.7055191036165327e-002,
          3.6468091099902809e-002, -4.0394988124123600e-002,
          9.9672140636477086e-002, -1.5891484293530883e-001,
          -4.3394479623409664e-002, -1.6363008734647761e-002,
          1.4877781657700889e-001, 1.1031983055781268e-001,
          5.8227979619466077e-003, -4.4292284740106557e-003,
          1.5617048009333730e-002, -2.9108102704381816e-001,
          -2.4409025836618761e-002, -2.3070954880410771e-003,
          -9.8425991333785795e-002, 1.2159001993010358e-001,
          -1.0477257610653823e-002, -1.9037666111423907e-002,
          -1.0842703466139905e-001, 1.0975367681153319e-002,
          1.0146343730863079e-001, -2.1592913875800016e-001,
          3.7155429518824591e-002, -7.8332897006512719e-002,
          1.6489778195704716e-002, -1.2824891018007764e-001,
          -1.9321512800433673e-002, -3.6862740322810762e-002,
          -2.9451297845525014e-003, -9.3043113911877223e-002,
          5.9794850705568500e-003, 2.5053360465661945e-001,
          -1.0807341331250511e-001, 5.5141365591417711e-002,
          -8.1849389590152560e-002, 3.4778024443313460e-002,
          1.9448628588737554e-002, 2.5170011196604739e-002,
          1.2189264832483887e-002, 1.0834734573131694e-001,
          -6.3562854680905461e-003, 1.0738335206236441e-001,
          1.4258287031910908e-002, -5.6255034084746448e-002,
          -1.5642384878892586e-003, -5.2724994980114639e-002,
          5.1117441522266868e-002, -9.1967974758808649e-002,
          -2.3125901199868548e-001, -1.4246219207982444e-001,
          -8.1020833937255191e-002, -3.7245421517003427e-002,
          -4.0481394971056725e-002, -1.5736949935665521e-002,
          -2.7704761671703600e-002, -8.1784902190553774e-002,
          4.8026342489665308e-002, 1.7363631426550123e-002,
          3.1418049922659577e-002, 3.5617155031207513e-002,
          -5.7648954703982208e-002, 4.6496666218554791e-002,
          -4.5004674666284862e-002, 9.0808308096305204e-003,
          2.0301668651302431e-002, -6.6331656402439168e-002,
          1.1696766194786365e-001, 2.6451687468495754e-002,
          8.2814891231185461e-003, -5.3619073865494325e-002,
          -2.3180988044758707e-002, -2.5782745880790742e-002,
          -1.5066201438711855e-002, -7.4797864336762651e-002,
          -2.1260663959799201e-002, -1.3203270442248068e-002,
          1.9785817711502285e-001, 2.5094095109945449e-002,
          -9.4277103726220866e-003, 2.2591710288242115e-002,
          2.2926654357474763e-002, 2.9751482709411192e-002,
          7.0693036034090509e-002, -1.9112014626934060e-002,
          2.3320329792975734e-002, -1.9365086344395422e-002,
          -4.8042094574081644e-002, 3.0279099665377261e-002,
          -1.3161613305157117e-002, 4.5562708162599505e-003,
          -2.6687952481578717e-003, -3.3784701215848201e-002,
          -9.4963225072814003e-002, 2.2307624466365330e-002,
          2.6461085267799552e-002, -1.2745523914639020e-001,
          1.4481804302156079e-001, -6.7023473823739407e-003,
          -1.8462201111275292e-001, 4.9969651148311735e-002,
          -7.4985214814987822e-002, -1.3396727556782775e-001,
          7.5547049283779449e-002, 2.6106527547273370e-002,
          3.8700667353352362e-002, 2.8986602143966981e-002,
          3.9191926700778888e-002, -6.6575365790322069e-002,
          1.8549512839140928e-002, -3.1816361330629810e-002,
          3.5496819760729388e-002, 3.5564580027337249e-002,
          -9.3330409430535888e-002, -3.0045919789456640e-002,
          -2.6595463727036094e-002, 1.0509985158378133e-002,
          -1.1034610483689377e-002, 5.9009290304181179e-002,
          1.4885065989639344e-002, 1.3665729272441923e-002,
          -9.2994245299279035e-002, 4.0608606456278163e-003,
          -1.7284297702826714e-002, -7.2879376346067948e-002,
          7.0353612499635607e-002, -1.4128843426103767e-002,
          3.7532195943028576e-002, 1.5072642353740591e-002,
          -5.1364369222560026e-002, -9.1325866754192395e-002,
          -9.4323324068283143e-002, -8.0544292803404097e-002,
          -1.7663900793998621e-001, -1.4609466616158156e-002,
          8.1967747771359636e-002, -6.4318371069132185e-002,
          -1.0832259469933223e-004, -3.2413486569547706e-002,
          -8.1155811391408650e-002, 7.0362907202542554e-002,
          -4.6978772197380832e-003, -1.7941905191443678e-002,
          -1.0361380668482420e-001, -8.6855367521020785e-002,
          -2.0804447343243720e-003, 4.0218910928568906e-002,
          4.3254596385930176e-002, 3.8229482828633865e-002,
          -1.0735836646518651e-001, -1.6138454234870617e-001,
          9.3520382366194768e-002, 2.9644425141902419e-002,
          1.0486682365184143e-001, 3.7221543779657550e-002,
          1.3491549930625596e-001, -4.4864962104829310e-003,
          8.1893607865053925e-002, 1.2305704374446476e-002,
          -9.8607139614232484e-003, -1.3746722158779602e-002,
          -7.3694066519824505e-002, 1.0190809649658093e-001,
          -5.6508677170111023e-002, 9.1214761473240119e-002,
          1.3191278177813842e-001, -3.5477961553846499e-002,
          -3.8142572449553755e-002, 3.2350712373204048e-002,
          -8.8952960756582718e-003, -1.1560812317397517e-001,
          -1.6068633758504151e-002, 1.1400020783540914e-001,
          5.1822947355815878e-002, -1.3894943336952743e-002,
          1.2320259051807102e-002, -8.6376130067129978e-002,
          2.5958953563715598e-002, -2.5397122057174853e-002,
          -3.8542414136651993e-003, -3.5557818893047641e-002,
          -1.5657505164588782e-002, -1.9084450800208895e-002,
          3.3440819807510923e-002, 1.0378760152484832e-001,
          -1.2032433028176382e-002, 8.9145555424609974e-003,
          5.3760956689776285e-003, 9.1898675487248442e-003,
          -1.8609352941020445e-002, 5.4657388865355282e-002,
          1.3091301361021258e-003, -6.7221850922484297e-002,
          -2.1354735441505326e-001, 2.2020777978117068e-002,
          -3.6860058588689674e-002, 4.8190149862502689e-003,
          3.2497307684807657e-003, 1.2503885769904233e-002,
          -1.0361320945317565e-001, 6.8775448342022136e-003,
          6.6219450678204714e-002, 4.4285036151843198e-002,
          2.1651395623777142e-001, -1.9801005919616002e-001,
          -9.8170001073231549e-003, -4.3096139647039629e-002,
          -7.3275450370108922e-002, -1.6449991102674231e-002,
          -2.6441868628891856e-002, 3.4406029564081606e-002,
          1.7703773346783422e-001, -1.6422933471124773e-001,
          -4.8774072689956142e-002, 7.0795852429861167e-002,
          -8.3927666873048982e-003, 1.3290757966519526e-001,
          5.2602878227910078e-002, -2.4933937887367936e-002,
          -2.1652967468946745e-002, 7.6450365569584924e-003,
          -8.6210663831386619e-002, -4.3238341222577532e-002,
          -2.7216556254015825e-002, -4.1634730426479373e-003,
          1.0915720272571530e-001, 6.4326826495753872e-002,
          3.0034768565943386e-002, 1.1952891598857912e-001,
          -7.6612092905787799e-002, -8.4433110807617482e-003,
          -1.3391292283712800e-001, 5.7593784647010399e-002,
          -2.3256691368698351e-001, 2.9602113877220674e-002,
          1.3137196508753739e-002, -1.1651908220135165e-001,
          -1.5967483045550275e-003, 7.3156170533744042e-002,
          6.9453955502840545e-002, -8.8829052103408940e-002,
          4.0259638854473465e-002, 1.2171203960980041e-002,
          6.5778337807544815e-002, 9.8190034909171178e-002,
          3.7159619883416609e-002, 8.3025766876898056e-004,
          1.4670255706261781e-001, -1.0759740196413584e-001,
          -1.3132265647530799e-002, 2.6719472237311515e-002,
          -1.1703780996389777e-001, 1.3624643579334922e-001,
          -2.1807557032152796e-002, -3.6543442074707735e-002,
          3.8380924606423533e-002, -4.4409145302410768e-004,
          -8.5757911200639858e-002, 2.8931810405045510e-003,
          -2.2034288302411376e-001, -1.8058568771680255e-002,
          -3.8438625511638597e-002, 1.9577693258343631e-001,
          -1.0428927302430180e-001, -9.5140105024205945e-002,
          -2.4706288034803407e-002, -9.4448599030996852e-002,
          -5.8707599196951170e-002, -1.4384655671163574e-002,
          3.7735334659576751e-003, 1.6631390724312158e-004,
          -6.0087828681140321e-002, -9.0664222777112877e-002,
          4.7511595716176733e-002, -3.2145777042257226e-002,
          1.0248870916229874e-001, -2.5591748445196100e-001,
          -1.5972946249951455e-003, -5.3816470037465348e-002,
          -1.8769899643075402e-002, 2.3503185982877681e-002,
          -4.7491532804986761e-002, -3.3175630114995878e-002,
          4.4321160899673896e-002, 2.4982970994589350e-003,
          6.2406040735212512e-002, 4.5087163722200591e-002,
          -1.6837970211880368e-002, 8.2339906450353897e-002,
          2.2410666404665002e-002, -1.2901194394076462e-001,
          -4.6293907355554602e-002, -6.5583119837276979e-002,
          -1.0725762379946997e-001, 1.6642735970430755e-001,
          9.1616730962096007e-002, -4.1990281161669210e-002,
          9.6582055525264290e-002, 1.1566358865721006e-002,
          -2.0247418602482559e-001, 8.0613192431564201e-002,
          3.8463234133221814e-002, -6.8734483279961614e-003,
          6.3025827071361867e-002, -4.8236861824348845e-002,
          -5.6240398875263116e-002, 5.7572928121907806e-003,
          -5.3055269142377284e-004, 1.6287589745350797e-001,
          4.1931823718540949e-002, 4.4176970620230120e-002,
          1.6113311025289387e-001, -3.8892735367409309e-002,
          -7.4249469976143498e-002, 8.9188689809495663e-003,
          2.9280567251399662e-002, 5.8803225042933616e-002,
          1.0077588222001163e-001, 1.5705398522675204e-001,
          -8.6668646034126166e-003, -5.6175569854410516e-002,
          -8.3941798278387617e-002, -8.3611621935222924e-002,
          1.7971483325954919e-002, 4.5553097925275676e-002,
          1.9527376227213789e-001, -6.3174731867477726e-002,
          8.9628798707355704e-003, -1.1732132080265826e-002,
          -1.1863564344229718e-001, -6.3754585680725159e-002,
          3.0279413393302442e-003, -9.9720791599480274e-002,
          -4.6198647151996577e-002, 7.8378651233687410e-002,
          -3.8962115463944632e-003, -1.1058657868400940e-001,
          7.9321387399883796e-003, -3.7052032742133464e-002,
          2.1300547371968431e-002, -6.6804144387874492e-002,
          1.6913463596582166e-002, 2.7297922308274075e-002,
          8.7650410839581125e-002, 2.9711249647796870e-002,
          7.8713160809008961e-002, -4.7017874211841386e-002,
          5.7306609445853113e-002, -5.3526334757207132e-002,
          -1.6454982384012520e-001, 5.7569952417354485e-002,
          -5.1755265515075075e-002, -2.7731724607495220e-002,
          -1.8772696409258233e-002, 2.2779105179694403e-002,
          1.0951881570860426e-001, -1.3722595951671479e-001,
          1.5874646064759362e-001, 3.0043929956700931e-002,
          -1.2325630344537737e-001, 1.1079042241628945e-001,
          8.4772089897982544e-002, 1.7861214993868023e-002,
          -5.7766717594140378e-002, -3.0836383787800252e-003,
          -6.8134322121703075e-002, -4.6981835332750209e-002,
          5.3056149875431211e-002, -5.8129634581819316e-003,
          -2.8611431993215445e-003, 1.6111273757435915e-002,
          -6.6814573263508379e-003, 2.4895657635909806e-002,
          -3.8046498030488748e-002, -1.4050702009852568e-002,
          8.8757618517839088e-002, 5.9190765989468692e-003,
          1.1883116658172890e-002, 2.6285493219981818e-004,
          6.6276109131774508e-002, 1.3333645510179262e-001,
          -2.5240600149703682e-002, -3.7744922324341013e-002,
          7.5792492335907846e-002, -1.1299495368761601e-001,
          -1.5148757183359127e-001, -2.5976549670643702e-002,
          -4.4011052544842652e-002, 1.2221665223181164e-002,
          -1.3324128390208079e-001, -2.7047697727650841e-002,
          5.2674270911806917e-002, -7.2112036066090304e-002,
          2.9088017731230702e-002, 2.7555898556454847e-003,
          -4.4139477297639028e-002, -1.3562425730444469e-001,
          -3.3411355876425436e-002, -1.5990803727321513e-002,
          -2.5945244306784343e-001, -7.6446453046269333e-003,
          -8.2677824510460060e-002, -5.1548945380056693e-002,
          8.1357524157395417e-002, 1.6058720044962296e-001,
          1.2299215365882896e-002, -7.4821433319681871e-002,
          6.2095661940474188e-002, -6.3465994024404768e-002,
          1.9250468178598025e-002, 2.6427383320520758e-002,
          -2.2951691977292146e-003, 3.7260656393600738e-002,
          -1.4861341410498502e-001, -2.1512509041420800e-002,
          -6.9769462500224130e-002, -8.2609352509174019e-002,
          3.6935655382692729e-002, 1.7957516082253294e-001,
          1.7255065354184645e-001, -4.1958179647850279e-002,
          2.6327405727291284e-002, -1.5321290103090543e-001,
          -2.2917838976938970e-003, 5.7731537096289400e-002,
          9.2128228321329747e-002, 7.9291700727706402e-002,
          -5.7902680494366629e-002, 1.0767191556147923e-001,
          -5.3290417558253818e-002, 4.6634846297691088e-002,
          1.0302398586882304e-003, 1.6532752890670918e-001,
          5.5012961184554648e-002, -1.1018488667779823e-001,
          -2.9723251080918307e-003, -2.2301777399352790e-001,
          3.0186833678844491e-002, -4.1663021300030884e-002,
          7.6168836497580050e-002, 9.4876500326722037e-003,
          -3.9285814310420823e-002, 4.6201670782815098e-002,
          5.6742590902925230e-002, -2.0198193497952541e-001,
          -3.4453469803227069e-002, 2.0869874655700636e-002,
          8.4407431701539706e-002, 3.2695966325267658e-003,
          -5.7192374585452323e-002, 1.3336431667110826e-001,
          3.5282072897576615e-002, -7.7166713273734214e-002,
          8.6922604707305853e-002, -2.8304058771542163e-002,
          -1.7313075535291229e-002, -5.9110612355213622e-002,
          -4.0213761612389931e-002, 3.9564451084032899e-002,
          8.5186290264053943e-002, 7.2349765167768615e-002,
          -4.2003134494752875e-002, -7.4156092246302069e-002,
          3.9471507436015858e-002, 6.0019006667909887e-002,
          -5.6689777112720385e-002, -5.9190482837408846e-002,
          3.7438157159019061e-002, -2.7531851631457195e-002,
          5.5040716988157224e-003, -9.0413358699003243e-002,
          2.5579016653419395e-002, -3.2836466705737012e-002,
          -3.7045973850365448e-002, 1.6245121974232910e-004,
          -5.7227319100118280e-002, 4.6588397360910888e-002,
          7.2296125179778875e-002, -1.3512843830088475e-002,
          -1.1188228662936529e-001, -1.5923229800561059e-002,
          -2.9748437940284155e-002, -2.1082296264441101e-002,
          5.4061012905442664e-002, -9.1276920038877302e-002,
          -1.0193146775768519e-001, 3.9357292029256502e-002,
          -3.7615034582741554e-003, -3.2474714250119663e-002,
          5.1798803075611327e-002, 1.7696123676094097e-001,
          1.0202741472169875e-001, 5.8839734548268866e-002,
          8.1735460066113166e-002, 2.4769060730337158e-002,
          -3.5106339153026739e-003, -1.1828089865272076e-001,
          5.2888734082769964e-002, 3.5356295099734966e-002,
          7.8746498595586106e-002, 5.3390035906874550e-002,
          -7.5168980383938499e-003, -9.3958744706629321e-002,
          -2.9841621074648102e-002, 1.2479561013835681e-002,
          -7.8767891633301654e-002, -1.3164494405557775e-002,
          9.7634686542909674e-002, -5.8816689019440274e-002,
          3.0029942799423458e-002, -1.0796075475825532e-002,
          6.9966071277943784e-002, -4.2322824034253741e-002,
          1.1580284334523690e-001, 1.5167684302950757e-002,
          2.4361847570464570e-002, 2.2122473244307519e-002,
          1.4037189206290068e-001, 6.4144563355465228e-002,
          3.3817316733101524e-002, -3.6591996185613485e-003,
          8.7925611173988935e-003, 1.2917876525479391e-001,
          6.1863672298721091e-002, -5.9149993668241842e-002,
          -5.5662034973079096e-002, -2.3040049481054821e-002,
          3.8173300008188513e-002, 3.3568850727433135e-003,
          -2.0506045151388642e-002, -2.0680268972717082e-002,
          3.8246770290482172e-002, 3.0095168316537288e-002,
          -6.2155194497303584e-002, -1.9504912719800965e-002,
          -4.0510975204229360e-002, -3.3612438611518587e-002,
          2.7479021647198378e-002, 5.8412885862301075e-002,
          -1.5829292883458868e-001, -8.1476436884064460e-002,
          -1.5408750470026792e-002, -9.7142541804057139e-002,
          -9.7631688170520509e-002, -3.8009652847997406e-002,
          4.8263350676890804e-002, -1.4189496141754663e-002,
          9.1036463902971251e-002, 7.0391543585328301e-002,
          -3.9861980750094034e-002, 2.2483603190637202e-002,
          -5.0544171686049993e-002, -2.0703289367490114e-002,
          1.6743651516090075e-002, 2.5166554132885322e-002,
          -6.7114951265946535e-002, -5.7347480966216183e-002,
          4.9721596438206898e-003, -5.1930717371048395e-002,
          -3.5620963198094872e-002, 1.8647832255743558e-002,
          -1.6981346394149320e-003, 8.4752824345040889e-002,
          -8.8726434644370231e-003, 9.5675401563941109e-002,
          1.1823841341321241e-001, 2.6701800380721985e-003,
          2.2917571950739724e-002, -4.5876875177980565e-002,
          -2.8198835214309746e-002, -8.8571835448059230e-002,
          3.6348418890138838e-002, 5.5448869265647523e-002,
          4.4582239141866591e-002, -7.8245053828764427e-002,
          -5.7567781354109129e-002, 9.4772639031187808e-002,
          -7.2883530497933835e-002, 2.0487051048585954e-003,
          -2.1861671776219723e-002, -4.4613756421829085e-003,
          1.2477070236928515e-002, -7.4350074840734918e-003,
          1.2428019705031358e-001, 7.8021093465842975e-002,
          4.1307816289060800e-002, 5.7373394955395937e-002,
          -5.9905222287321001e-002, -1.3775489134452876e-003,
          -3.9569421279025694e-003, -7.0360980152929992e-002,
          -3.0648665373458564e-004, 2.2361852221093100e-002,
          -4.0895886046747279e-002, 6.5773607178411492e-002,
          -3.2946384570778649e-002, -2.6513116665131318e-002,
          -8.2286400281804381e-002, -2.6073873465332705e-003,
          4.2674057730787182e-002, 4.1453861012837184e-002,
          5.9792309498600225e-002, -6.2500027808361100e-002,
          7.4721274094248905e-002, 5.9979542100978708e-002,
          -3.6769482764730646e-002, 4.9089548769193480e-003,
          -6.5892957438103847e-002, 4.3421141537816108e-002,
          3.9525818936020094e-003, 3.0755255610306641e-002,
          5.4349850472374256e-002, 4.1023780635075995e-002,
          5.8710546656973166e-002, 4.5071920456915250e-002,
          -7.0992572990089070e-002, -1.4374313265588152e-002,
          -1.1273137963271627e-001, -9.9914939992391816e-003,
          2.2709130826833495e-002, -1.5243591358415139e-002,
          4.6906343166302884e-002, -8.7841124642259627e-002,
          7.7716572515540053e-002, 3.6362961583263860e-002,
          -1.2905561603771929e-002, 4.1231398220786412e-002,
          -2.9427123756013408e-004, -3.1001510033446748e-002,
          -1.9431313463610687e-002, -1.3583795280591776e-001,
          4.8554809706781943e-002, -5.1484023084875957e-002,
          -3.6179235177421387e-002, -7.1670339213090142e-002,
          7.3759708216733555e-002, -4.7356714213039809e-002,
          3.7553785053117961e-002, 1.9995792582458793e-001,
          -1.2375949374114939e-001, 1.4401666586016146e-001,
          -1.6932289452416427e-002, 5.6336535255495049e-002,
          -1.9001268053945922e-002, 8.4569188013891572e-002,
          4.6617363483224972e-003, -1.6104934746429756e-002,
          1.2294325177285528e-001, 2.4756116005742252e-002,
          -3.8295921493891236e-003, 2.6171766564962208e-002,
          -7.7229395983676438e-002, 3.0835558031980192e-002,
          8.3860565689528890e-002, 4.4784904278237801e-002,
          1.0920419728824148e-002, -1.1646279925667423e-001,
          -5.7052912011733493e-002, -2.8793964085120059e-002,
          5.5315637439696336e-002, 4.6509889048133843e-002,
          -1.5034478444450685e-002, 5.3433481367825282e-002,
          2.7093550488569387e-002, 2.7701656181507026e-002,
          2.0523183701835349e-001, -2.7144847811399957e-002,
          -6.6444140553987840e-002, 1.2496983055286169e-002,
          4.8956044875261201e-002, -2.9597630287162245e-003,
          1.5934738732660915e-002, 3.5486835105537753e-002,
          -3.3184723565127450e-004, -1.5937381605718070e-002,
          -2.8738138019632202e-002, -6.0520756869137597e-002,
          7.5304014749695308e-002, -4.1036968705724153e-002,
          2.6970845698189395e-002, 1.1471559319649827e-001,
          2.5480025854890894e-002, 4.2373406506216460e-003,
          -1.4320640114930630e-001, -2.1400647539040238e-002,
          5.1330525881078913e-002, -4.0499645917078136e-002,
          -1.3713462843952829e-002, -4.0449768847633218e-002,
          2.1670281157026614e-002, 6.1400058669294114e-002,
          -1.6275262617284982e-002, -6.0994650367005833e-002,
          -6.6008604506745297e-002, 5.7689836072508695e-002,
          3.4524251603464250e-002, 1.8143806851728166e-002,
          3.5188843593718162e-002, 5.9895223085122099e-004,
          -1.1154370222366344e-001, 1.0766456739662599e-002,
          5.8768526307037819e-003, -5.8177991764654640e-003,
          1.0260254485488330e-002, -7.0362875202066256e-003,
          -1.2863229884929775e-001, 7.7476753530331496e-002,
          -1.1288341871486073e-001, -1.7130043717878577e-002,
          4.7338264595209699e-003, -3.8947242690460779e-002,
          -1.2628505208615664e-003, -1.7592323008488375e-001,
          2.8008641027302938e-002, 5.6290520275051499e-002,
          -4.3419883098256187e-002, -3.3279091638664250e-002,
          -1.5694664736297222e-002, 2.6809797027754809e-002,
          -7.8536489083524202e-002, -3.5248813450097262e-002,
          -9.4493368993292318e-002, 4.3817670321934406e-003,
          6.5271952636768004e-003, -5.1159202988734581e-002,
          -7.3466234306666559e-002, 6.2313351380190118e-002,
          -2.1526187259312872e-002, 1.0354254147842047e-001,
          5.7708197262821804e-005, -2.2847801419304781e-001,
          -1.4355169123229986e-002, 2.7177220122470803e-002,
          9.2293923008424872e-002, 3.9624288934787075e-002,
          9.9337299402646698e-002, -2.5141675058104111e-002,
          2.4995166146660115e-003, 1.4784090588696186e-001,
          -6.3327790184955074e-002, 8.0919478394840413e-002,
          4.8364798275585069e-002, 7.5172569675323467e-003,
          9.2880618774533776e-003, 1.1050929205117344e-001,
          -1.4573676033887975e-002, 4.0260522707048539e-003,
          8.2107674733890579e-002, -1.1612135780031231e-002,
          -2.2685826232001716e-001, -1.5562349695703439e-002,
          -6.6489546319701054e-002, -5.0848861593194704e-002,
          -3.5448040422330247e-002, -4.0062589057627031e-002,
          -1.7424424607794547e-001, -3.2802048875602750e-002,
          8.3426007524043472e-002, 3.1077357594910256e-002,
          -6.1149802240613615e-002, 4.0116791868299903e-002,
          -2.3658693458112705e-002, -5.1370584679265915e-003,
          7.1431240217745856e-002, 7.1570905298381463e-002,
          6.7467262891194382e-002, 9.0277963552303123e-002,
          -4.6240387576219157e-002, -7.8885865159413288e-002,
          4.9146956130151680e-002, -1.2997123237521566e-001,
          1.1805522558319002e-003, 6.1474618849879432e-002,
          -7.0843472733049780e-003, -5.8760486223462298e-002,
          8.6045997990361583e-002, -2.1830184781928400e-003,
          1.5501262223932058e-001, -1.0779361716117746e-002,
          5.3636457252166182e-002, -9.4498534560392727e-002,
          1.2170950938885960e-002, -4.2429486318508271e-002,
          6.7769103897281788e-002, -6.8340845590927138e-002,
          -6.2751033568475935e-004, -5.4644889069339194e-003,
          3.6779205410702683e-002, 7.3067149420051547e-002,
          -9.0171076432137912e-003, -5.7083024029908877e-002,
          -7.5531518169025300e-002, -3.1046323442780552e-002,
          -1.9527043507151876e-001, -5.4763734040255183e-002,
          -7.6081990958105250e-002, -6.8698329954424597e-002,
          -5.5165186433893856e-002, -2.9252817413543578e-002,
          -1.3650664391417303e-001, -3.0312341191231242e-002,
          1.0044624887838759e-001, -1.1886294878973254e-001,
          3.6165059672544006e-002, -5.5635254848048828e-002,
          -5.9756547884627061e-003, -6.0054492611906214e-002,
          2.1078989457604787e-002, -4.5437636659587950e-002,
          5.7270414970807162e-002, 1.2802707985220041e-002,
          3.1983674169895797e-003, -1.7402103275290105e-002,
          -6.5774676860648335e-002, 3.8668399162550098e-002,
          5.0307410037589206e-002, 3.0576542240277678e-002,
          -4.9226797832702576e-002, -1.0244857552924465e-001,
          -2.0023567147513004e-002, -5.3149926815649453e-003,
          7.4486100355298138e-002, -3.8162049277524361e-002,
          1.3105936088913953e-002, -1.0858795560637426e-001,
          -3.8123144700153846e-007, -3.7163070160252158e-002,
          1.9527560802293693e-002, -3.5747613311648246e-002,
          -6.8702358288057180e-002, -2.1725931836833903e-001,
          -1.5629587740184858e-001, 1.3260644291686174e-001,
          1.8232531041035044e-001, -8.6060728429293964e-002,
          2.7800872782720386e-002, 7.3349548702665898e-002,
          3.9087990438032641e-002, -2.0847175072834071e-002,
          -8.8351048283305977e-002, -1.0781102835060558e-001,
          -3.2252080064319448e-002, -9.4737742676706746e-002,
          3.7074033063388329e-002, -1.0245542608436738e-001,
          9.0813162917553619e-002, -1.3843914564574299e-002,
          9.4230910565553910e-002, -4.2894098587035731e-002,
          -1.3448655951322384e-002, 1.5332471412827450e-002,
          -1.4810136861862565e-002, -2.3823307004600773e-003,
          -9.4670235873773670e-002, -3.2025507683053379e-002,
          -4.4217552581373054e-002, -1.8446237364011017e-002,
          3.4922244792551763e-003, 6.2190894853014558e-002,
          -6.8449483874002404e-002, 4.2439680026871145e-002,
          9.8885268699831663e-002, -3.6152587018316348e-002,
          -6.6975151708177166e-002, 4.6018154240874985e-002,
          -3.0573441826758047e-002, 3.7331709140118734e-002,
          -3.1289697261718631e-002, 2.7690103839468187e-002,
          4.8486562923455774e-002, 6.5764581120070484e-002,
          8.5372249258770766e-002, 3.9768906211510809e-002,
          4.1732746982820611e-002, 5.3258866596380579e-002,
          1.7131636343367250e-002, 2.2018457231865757e-002,
          -3.7658314030015287e-002, 2.5155342785847579e-002,
          -6.2696270860360115e-002, 4.5587700407161820e-002,
          -1.1431066169801430e-002, -1.2360380633831906e-002,
          1.1397583237887084e-001, -4.3942105692137974e-002,
          4.6742388872320288e-002, -8.7856512757980001e-004,
          4.4390012885174267e-002, 5.0050193124427371e-002,
          4.4359224878502787e-002, 1.1805759430567538e-001,
          -6.1856801607884570e-003, -7.3812684474012125e-002,
          1.2757506063445082e-001, -1.6485566001758007e-002,
          -1.8403498469166363e-002, -3.5174444845519258e-002,
          -3.8090693572425303e-002, -4.8095828855816508e-002,
          5.0693056759051294e-002, 3.0159051124077879e-002,
          -9.2732458113712418e-002, 5.4212628152178172e-002,
          -6.8599709999025538e-002, -9.0602189285232740e-003,
          -2.2941828824121813e-002, 7.1860404707932451e-002,
          5.6565844283440615e-002, 1.2418225658441711e-002,
          4.1310266832846797e-002, 2.4277715999450247e-002,
          -1.3814591802933866e-002, 4.6077568765168539e-002,
          -6.6221072948864333e-003, 8.2703947625532986e-002,
          1.0180857644860342e-001, 2.0795284322104830e-002,
          -6.2437479243252166e-002, 3.6234716059158116e-002,
          6.7226170043793748e-002, -1.8058804965908868e-002,
          -6.7245677755301617e-002, -5.8737790075932862e-002,
          2.7839486686960346e-002, -2.0382599163904558e-002,
          -8.6798108084322603e-002, -1.6141147082546334e-003,
          -8.9313395445239259e-003, 4.3988021033480776e-002,
          -5.1131553828631847e-002, -2.6410781142100232e-002,
          -1.1233379808818766e-001, -1.0040951978420670e-001,
          -1.5134051712471747e-001, -1.3059123664133462e-001,
          -8.0050258822915790e-002, -9.0738858150102540e-003,
          2.5405517882274610e-002, 7.6656761872532383e-002,
          1.3413778055485420e-002, 1.2120984870971468e-001,
          5.5958963425258306e-004, 6.9726519394460165e-003,
          -4.0043423906098559e-002, -4.1063051951734653e-002,
          -2.9734597373009649e-002, -5.1350521776039161e-003,
          -2.1947751122925119e-002, -5.4397455667543650e-002,
          1.0712999759732049e-001, 8.2928863078878604e-002,
          -1.9943350112746873e-002, -9.1214988505017192e-002,
          2.8404203513700328e-002, 2.2086512400431864e-002,
          5.5762650236544815e-003, -6.2493243831795671e-002,
          1.2525219645213662e-001, -4.7701915342734005e-002,
          9.2600203779876530e-002, -2.4859795473358556e-003,
          2.9996762506506972e-002, 1.0591316471105169e-001,
          -3.1534758446358092e-002, -1.1058483138750597e-002,
          -6.1925462356870652e-002, -1.2714135960733416e-002,
          9.9673636753121644e-002, -6.6774496434478053e-002,
          -1.0603195651666513e-002, 2.2793252993387834e-002,
          -5.2104014874601479e-002, 2.4035544750638575e-002,
          -3.1626425249828366e-002, 9.0798531201552457e-002,
          1.5525014299312096e-002, 1.5791559084368101e-001,
          1.7643502774263940e-002, 3.9872160888337088e-002,
          6.8514850238586208e-002, 2.4591074453969432e-003,
          4.2432555254525772e-002, -3.6397420403728661e-002,
          4.0033474070303394e-002, -7.0743799244103345e-002,
          -4.6538648249887980e-002, 1.1170335713467388e-002,
          2.7751037432471315e-002, 3.8303811102605854e-002,
          1.3705505474127869e-002, 2.2733488087941758e-001,
          6.0789255627353087e-002, 1.3498559058688242e-001,
          3.6910995193837663e-002, 6.9838020149708330e-002,
          1.1631971252745973e-002, 5.2776031051985112e-002,
          1.2449645300997116e-001, 5.6526403472413972e-002,
          -4.3551393342093007e-002, 5.1115997292126132e-002,
          -3.6530990605456254e-002, 5.2476874719957579e-002,
          -7.2874933176509574e-002, 4.2827092346116168e-002,
          -2.7041323996275332e-002, -8.6449743874435395e-002,
          2.3768011811783413e-002, 1.3606085776724924e-001,
          3.1655872115642060e-002, 5.2312339323064963e-002,
          1.9427687289360079e-001, -1.3778459419687733e-001,
          -1.5092595990786742e-001, 4.9847980423859413e-002,
          1.0383084350505875e-001, 1.3724102575443420e-001,
          -7.4433116151918777e-002, 5.3426419942960705e-002,
          -8.0396790950353222e-002, 7.7224331014066699e-002,
          5.3515601691083561e-002, -1.0767588884519003e-001,
          -1.5259832967964187e-002, 9.4081445610634355e-003,
          1.0019589036031989e-001, -1.3273262317017641e-002,
          -5.4794112603822236e-003, -8.4897395773856979e-002,
          -8.4815213356940117e-002, -1.1466026627891039e-001,
          1.4638349335287509e-001, 5.9235591030064101e-002,
          -2.8888196990538267e-002, -2.5273382214813730e-002,
          3.3130212821177112e-002, -8.6440324310984654e-002,
          -1.2354149728559598e-002, 1.3953716597264193e-001,
          -2.2429741483092729e-003, 8.0465481954464443e-002,
          4.4926385216557965e-002, -2.2839938273105452e-002,
          -4.2215548137389473e-002, -4.0893316553260103e-002,
          1.1493619959036096e-001, 1.4766365105417215e-002,
          7.3224013440392532e-002, 7.2125200907054363e-002,
          -2.7670545150640782e-002, -2.4394526030434524e-004,
          1.5457312949721335e-002, 1.4619583653800261e-001,
          4.4182194644792061e-002, 6.4065651192105142e-003,
          -1.3724863638576430e-002, 1.1571443954251315e-001,
          -3.9214956893564176e-002, -2.9310092117369749e-002,
          6.7340063419690677e-002, 4.4450522640764926e-002,
          1.6140314129393419e-002, -9.8093290905507127e-002,
          8.1251839523248229e-002, -3.0288287040619158e-002,
          3.0946512611701414e-002, 2.3069912871231962e-004,
          -7.7289994345564009e-002, -2.0164615231868965e-002,
          -3.9862629242650216e-002, -5.7556846572286276e-002,
          -3.6069303162977330e-002, -3.7080512569395638e-002,
          -8.0302716232335380e-003, -5.5446475678934487e-002,
          -2.9537182293796611e-002, -2.2523354881382060e-001,
          -2.7438753093761689e-002, -1.0354474818947967e-002,
          8.0747578107577045e-002, 3.5817945313532461e-002,
          -5.4848433243806670e-003, 6.0882690341976471e-002,
          -4.4564828778309043e-002, 5.9998455954819674e-002,
          -1.8883187917883119e-002, -3.3085632722512394e-002,
          -3.6309515319147403e-002, -3.6729739857411674e-002,
          1.3317816194665136e-001, -5.9252905489091456e-002,
          -1.4723537326413599e-001, -1.2547305461686873e-002,
          -9.2366715261958082e-002, -4.5087102902449536e-002,
          -4.0677824847720444e-002, 3.5229414410651957e-002,
          7.8041194788292995e-002, 3.1485988729921519e-002,
          -8.0419454981864258e-002, 3.3178430925557077e-002,
          -3.3187414482563009e-002, -5.4008947117927329e-002,
          8.7011882480518346e-002, -6.4526671648054007e-003,
          -3.5576912606578429e-002, 1.9686846082910343e-002,
          -4.3159549682097460e-002, 3.5067977236828168e-002,
          -3.5259718280276964e-002, 8.6649162464206599e-003,
          4.5201243437844631e-002, -1.0955069423283074e-001,
          -1.3088394606064457e-001, 1.7527727017081077e-001,
          -6.8903360996894394e-003, -3.3538106471114659e-002,
          -4.0107028377439041e-002, -1.6653917171198861e-002,
          -9.2392271798711470e-002, -5.6762117410284571e-002,
          -3.5983968535587635e-002, 1.5030499609502323e-002,
          2.5530548336501306e-002, -6.3122492464708538e-002,
          8.6544864830004356e-002, 1.1573477495605075e-001,
          -4.6088608448935676e-003, 3.7214561049302007e-002,
          -1.2610032548967740e-001, 1.9017470341485439e-002,
          2.7806700933873978e-002, 2.4513282431069511e-002,
          -4.0203808726230028e-002, 3.5444156395223037e-001,
          -8.2961894288954216e-003, -5.2178899954767266e-002,
          1.3484484946415058e-003, 3.6335970560251667e-002,
          -7.1175121452975471e-002, 6.5618384065309093e-002,
          -4.8256252106099171e-002, -3.6054409493704677e-002,
          9.2891816991694159e-002, -2.7425994053270019e-002,
          -7.1223039589030937e-002, -8.0902928801506943e-002,
          -4.2136930037713079e-002, -8.1361218168873178e-002,
          -3.3478342962592750e-002, 1.8521714092549255e-002,
          3.1986105241091661e-002, 2.7026218559366977e-001,
          5.7589826025881516e-002, -5.2310872194496788e-002,
          -3.3088623099600679e-002, 3.4608064918056618e-002,
          -2.0506370751162406e-001, 3.7054984028056681e-002,
          1.2277342905978400e-002, 4.6037539219837026e-002,
          -4.0010560739024925e-002, 8.1985109534704989e-002,
          8.9412287255762418e-002, -3.7541846268232419e-002,
          -4.1507570481614610e-002, 1.4959974557802992e-002,
          3.1950798631667172e-002, -5.4862112594810497e-002,
          4.1970217357920558e-002, -4.1709640998068348e-003,
          -3.4891637768397044e-002, -8.4147504323146466e-002,
          -4.4751071941230318e-003, -2.9685910381979711e-002,
          9.8570621040511799e-002, -6.8292878794884299e-002,
          -5.9591571477693464e-002, -2.4869139929273677e-002,
          -7.4042089499998617e-002, -6.9547926299874538e-002,
          -4.0773150498349335e-002, 6.3855447049087207e-003,
          6.7969203647760157e-002, -5.7966469147427202e-002,
          -1.5913228302765503e-001, -4.9199724745773138e-002,
          5.1969732790514388e-002, 3.8109341547369675e-002,
          3.7433097184190058e-002, 3.5230087210846181e-002,
          -5.2513977475955681e-002, 2.3984310804631225e-002,
          5.7561160847759599e-002, 5.5507726764226939e-002,
          -1.0217143596438862e-002, 4.4358005946845483e-002,
          5.6191457994575422e-002, -1.4032228125172515e-002,
          -1.3295027289543759e-001, -6.0376719503283556e-002,
          3.3914869036734324e-002, 2.1070438793709650e-002,
          -1.5756200943648456e-002, -1.0434401250425611e-001,
          6.0174217180058347e-003, 2.4366323441812426e-002,
          1.1809976200098712e-001, -1.5364727317432079e-002,
          -2.8009427097474098e-002, 3.7198422963153406e-002,
          6.2994721379025842e-002, -1.6736487749739593e-001,
          2.2282465699108977e-002, -1.6593830442963732e-002,
          4.2829361288264950e-002, -1.4061158268372363e-002,
          -2.6405684600297563e-001, -7.7563586519333413e-002,
          -3.7919775591998210e-002, 7.4900857063911455e-006,
          3.6636426487216420e-002, 8.9700348397700969e-002,
          2.5409867385825371e-002, 2.1508278506416761e-002,
          1.7353497967692624e-001, 8.6128777083401498e-002,
          -8.1016250985344075e-003, 2.2514465651521036e-002,
          6.6293056890325830e-002, 6.8199398685426280e-002,
          1.3265891573898134e-001, 8.3450284791431378e-002,
          -1.0008296349053791e-001, 5.3822796269147696e-002,
          4.4847217566140830e-002, 6.3179120087953552e-002,
          3.4090727010542873e-002, -3.2806610572500478e-002,
          -1.2671745027004866e-001, 7.3075457457663390e-002,
          -2.1947253451452618e-002, -2.2265850765752326e-002,
          2.8613805817256120e-002, -1.7531923545036154e-001,
          1.6233118783893486e-002, 1.9830484140438864e-002,
          -1.7541661769047933e-002, -2.1524145028707663e-002,
          -3.7344580299143018e-002, 7.5738612094894880e-002,
          2.9367193364300600e-002, 1.5654497679632581e-001,
          -5.4117182454847083e-002, 2.5934934586699571e-002,
          2.4082304235651147e-002, -1.6323483387639653e-001,
          -1.7756357342547976e-001, -4.0198013707138922e-002,
          3.1629803246784255e-001, 5.8837270573691425e-002,
          3.1143456064190937e-002, -5.8919706746158311e-002,
          -1.2365616386300853e-001, 1.4414380708509783e-001,
          8.2234287698069106e-002, -7.0845174375295056e-002,
          -1.2182783159507443e-002, -7.1367648294113004e-002,
          4.9411548910556338e-002, -1.3471237271592323e-001,
          6.8068167144900951e-002, -6.1238149024126352e-002,
          -1.0451511739775685e-003, -6.3239237367257686e-002,
          -5.1086654911173300e-003, -1.4461884509481096e-001,
          -7.6127137437349807e-002, -2.6631297080392725e-002,
          -1.6821988065648708e-002, -1.0793664132296776e-001,
          -5.4249821239880251e-002, -5.0288851820800375e-002,
          -7.3691247120868525e-002, 1.1065139038381314e-001,
          -1.2068719450644561e-001, -2.8097030634037130e-002,
          -3.8473579804162321e-002, 7.5994949973133302e-002,
          -3.9425127474029584e-002, -5.5407250853246715e-002,
          -3.5016787473635562e-002, -1.0204034528663034e-001,
          5.2957385011815732e-002, -2.4871967283583128e-002,
          2.0980138812658349e-002, 2.3820433154829439e-002,
          4.3212624841537310e-002, 1.6559409655113400e-003,
          6.8373447801315324e-002, -1.0631011807743302e-002,
          1.5232079352286872e-002, 1.4104904153730778e-002,
          3.3119047149295359e-002, 1.0143116057672562e-002,
          2.4656736691834383e-002, 7.3650697318198968e-002,
          1.0091128557216232e-001, 3.2050317199938581e-002,
          6.2040116891609945e-003, -3.1389252035279848e-002,
          -3.0354786332977080e-003, 1.0968811118908124e-001,
          -7.5591537478195192e-002, -5.9233977208124913e-002,
          5.4097842958987986e-002, 3.4225539804987981e-003,
          -1.9153569891609556e-002, 8.3350485119742398e-002,
          4.1483397608185278e-002, -1.0125593004405886e-002,
          -1.1875940528888304e-002, 1.4037522058419233e-002,
          1.5696303187700093e-002, 4.4058257338981784e-002,
          2.4865659451745094e-003, -5.3437266933950275e-002,
          6.4282672691155646e-002, 1.5177214356472651e-001,
          -5.1288003402057247e-002, -1.0076942424895499e-002,
          -9.0635801914034590e-003, -1.1293183828943720e-001,
          -3.8472340416906670e-002, 2.4219154166522143e-002,
          -1.0429254409738446e-001, -8.4200915685013047e-002,
          -3.4520923801939100e-002, 1.2731068018198774e-002,
          -3.6032661943253544e-003, 1.3190859591096860e-002,
          2.0216565221110386e-002, 1.0448029250188805e-002,
          -4.1008221620871949e-002, -4.2710356847587533e-002,
          -1.2355653399417608e-002, 8.9800693693550260e-003,
          8.2726855670375354e-002, -2.0429858024139241e-002,
          -4.0576931669486720e-002, 4.9314581145541721e-002,
          -3.2676762071864145e-002, -1.8367960185955573e-002,
          -3.1277128675051565e-002, 1.0400519820495033e-002,
          -4.8262443728738988e-002, 1.2349400763892729e-001,
          3.9374732597933455e-002, 2.8349057530000461e-002,
          -8.4861323141064385e-002, 3.3104278174797726e-002,
          -6.3563332777355319e-002, -1.6664392093562200e-002,
          -3.8336718680670533e-002, -3.0006569585157043e-003,
          -7.2412264708749507e-002, 1.1016975554213463e-002,
          8.0672927023576646e-002, -8.1113180146929531e-002,
          -8.1275204888033147e-003, 1.4957786604872474e-002,
          5.5776765137036818e-002, -1.0652446517495071e-001,
          1.9939746011011544e-002, 5.7333421528778961e-002,
          -1.8283858974194319e-002, 9.4190575508926663e-002,
          -2.8922423023605998e-002, -5.4972132162880515e-002,
          -1.4349589206281595e-002, 1.0096544959668706e-001,
          -2.0031875476620727e-002, 3.9539722497969339e-002,
          9.5905875246157846e-002, -2.1665968007583376e-002,
          1.2655849193514812e-001, -4.8585694408564790e-003,
          -4.2889210368339731e-002, 1.7101174850927707e-002,
          -3.0069906560321449e-002, 9.1702139464518162e-002,
          -5.5863180200120141e-002, -7.7106515823830976e-002,
          5.4636800447900667e-002, -8.2312237544706346e-002,
          -8.6932366793234989e-002, 7.3839137359047319e-002,
          5.9978068084607797e-003, 3.8059844671878347e-002,
          8.0499721382753214e-002, 7.5144140660254155e-002,
          8.8713938606778606e-002, -6.4664211837348051e-002,
          2.2795465661750791e-001, -4.0850007336064732e-002,
          -2.1094682356276589e-001, 4.3418622272201314e-002,
          1.5496691807859397e-003, -2.3963546902242450e-002,
          7.0996389759950323e-003, -3.5833231248734512e-002,
          -4.9393148885522944e-003, 2.9763447736221364e-002,
          -1.0910271496729838e-001, -1.0946520556367988e-002,
          5.7018493976015848e-002, 9.8878924946545460e-002,
          -1.3130304739950391e-001, 1.1172450339326177e-001,
          -8.4642888040465200e-002, 6.4650634646098853e-002,
          4.6157817878727372e-002, -6.3377328067008715e-002,
          5.9056607709216556e-003, -6.0302473110374198e-002,
          -8.5182515841387585e-002, -1.7990287290523846e-001,
          -6.2984623703600848e-002, -3.2307983739469038e-003,
          2.0539873350545512e-001, -1.6961206496413275e-001,
          -6.4927454032749812e-002, -6.2953561700418159e-002,
          -1.6512597164143775e-001, 5.7418027369877077e-002,
          6.2448881480958056e-002, -7.5876600980421413e-002,
          4.9603478766551204e-002, 5.6620395908943674e-002,
          -1.1248913181584011e-001, 1.2440117861089969e-002,
          -7.0778618667522641e-003, -5.6863432086330656e-002,
          1.0171658294068951e-001, -7.7845229744348751e-002,
          -5.9195065023324729e-002, 1.1376053628958009e-002,
          -1.6308264529918726e-002, -1.0048934814146371e-002,
          -9.4131616813545923e-003, 1.2246979071128987e-001,
          -4.6173980832551177e-002, 1.0256468293173154e-001,
          -8.8935619978744024e-003, -1.1265432138243289e-002,
          4.0954785906764088e-002, -2.2492331976705879e-001,
          -1.0807489178872076e-001, 2.0692332211859437e-002,
          -1.8436270889021131e-001, 3.7964903322008414e-002,
          -6.3990620722810962e-002, 6.5170675075824094e-002,
          -5.3574227857727356e-002, 1.2972888437128496e-001,
          1.7765604307805805e-001, -8.0402864155960083e-002,
          -4.4297363434743012e-002, 6.7935988973045563e-002,
          2.9508743407803826e-002, -2.0067914234554524e-001,
          2.8595359684145182e-002, -1.4495774671999884e-001,
          1.3406272332219641e-002, 1.1408278585078226e-001,
          7.6168356863331024e-002, 9.4897400631867357e-002,
          2.5440571939220970e-002, 4.3699351002670604e-002,
          4.9445343372677274e-002, 3.1008681194524285e-002,
          3.4418133604645511e-002, 6.8223843538791254e-002,
          -1.4407227364500686e-002, -1.6308325797026672e-002,
          -3.9334629427613982e-002, 5.4720178292030769e-002,
          3.5593578989835031e-003, 2.9513652602247614e-002,
          -1.1505074832445804e-001, -3.7483997596858644e-002,
          9.9101842626497863e-002, 1.4284237335339797e-001,
          -2.3478497264924605e-001, 8.1026171811897599e-002,
          4.7365455999176749e-002, -3.5099186781844378e-002,
          1.0024384317551156e-001, 2.8306104559893710e-002,
          -1.1961067492203650e-001, 4.8832230958149364e-005,
          3.3848198554118247e-002, -1.5960428912898136e-001,
          1.0864647925409872e-001, 9.0512725503877744e-003,
          -2.2316505917513101e-002, 3.6888793777072770e-002,
          -1.7692242795027799e-001, 1.4337719118371786e-001,
          3.7524285314986291e-002, 4.1059441435365683e-002,
          5.7384215274844864e-002, -1.4190147142891338e-001,
          3.4786334956114440e-002, -9.7699228463482307e-002,
          -8.1721308936299614e-002, 1.1625299825996661e-001,
          -1.3555709439267907e-001, 3.8106618720096345e-002,
          5.3518655799201391e-002, -2.7218694519008421e-002,
          -6.9898061427113647e-002, -4.8730377231578623e-002,
          -1.2741819125955964e-002, 1.0150335142256091e-001,
          -8.4569400771778588e-002, 2.7337461018634112e-002,
          -4.1013830615476273e-003, 5.8080797716122678e-002,
          -8.5499254197467539e-002, -7.6222877246853046e-002,
          6.5899908563188087e-002, 1.6933424657869156e-001,
          -9.3086283947224086e-003, -8.8936946927507567e-003,
          7.5536327055446995e-002, -1.2094165557310968e-001,
          3.7936351052478686e-003, 1.4049551797826632e-001,
          -1.1490210870306714e-001, 2.2008004623203548e-001,
          7.3078227755315993e-003, 1.0174579627300577e-002,
          9.2740499205710411e-002, 6.0292012857711547e-002,
          -2.4527642971896319e-002, -1.7839371568863397e-002,
          -1.7594065834770901e-002, 3.9952696302648229e-002,
          -2.0705581890927766e-001, 9.4237760011765009e-002,
          2.6681751238449427e-002, -1.2341198826499651e-002,
          4.9263468502117866e-002, 3.4022043659956490e-003,
          2.0585850556446186e-001, 5.6955734691541957e-002,
          -1.2058391096114872e-001, 4.8561401509211758e-003,
          -1.6989000486109912e-001, 3.0704827543953695e-002,
          -5.5601044539238392e-002, 3.7406292483781522e-002,
          -3.4149409271009971e-003, -7.1719267034844561e-002,
          -3.9401674801040266e-002, 1.5561386498981001e-002,
          -5.4559988121781401e-002, -1.4442901366392230e-002,
          4.6528676985121968e-002, 6.1988729968185628e-002,
          3.1095309524451363e-003, -1.2492789168843298e-001,
          3.4550402812579505e-002, 5.1876408493332068e-002,
          -2.2162122000966091e-002, 3.5109572281481309e-002,
          1.6130271487244935e-001, 4.6737873523239076e-002,
          3.2982172689143092e-003, -1.1008214809584211e-002,
          4.6932974143518803e-004, -4.8915974682241806e-002,
          -5.1105754618884537e-002, 1.2414708228380433e-001,
          6.1686558623369893e-002, 6.2510110261054630e-002,
          3.3168326904427732e-002, -2.6852580225227105e-002,
          -7.1740059557298799e-002, -1.8185481032451314e-001,
          8.7633169108230602e-002, -5.3472164611804159e-002,
          -8.1819984986735345e-002, 6.8290557286947384e-002,
          5.6499047438091893e-002, -6.3540114598155173e-002,
          3.8430227480851162e-002, -3.3297555525847997e-002,
          -2.6495321699653400e-002, 5.5336126798098163e-002,
          -2.9154938975737892e-002, -5.5328449673045572e-002,
          -2.6649403304032661e-003, -2.8612788766460860e-002,
          -9.7224838597682717e-002, -2.5332798717669899e-002,
          8.7240220223627235e-002, 1.1904275145682773e-001,
          3.4884076074318177e-002, -1.5009858923118069e-002,
          1.6705485667661175e-002, 3.3369510389251206e-002,
          -1.0145257998208300e-001, 6.1752163037772437e-002,
          -2.1953684456613073e-001, -1.9108978619517525e-003,
          1.6061574266233389e-001, 8.4122166566987247e-002,
          1.2821947619545472e-002, 7.8885686478984331e-003,
          -6.3708013862919272e-002, -1.7405836005399380e-002,
          4.1683423750703691e-002, -1.0691028610223190e-001,
          1.6604567512498891e-002, 5.5463132610323498e-002,
          9.2646637536677300e-003, 1.7988528496242360e-002,
          -2.3699234223217430e-002, -5.3248465558103732e-002,
          -1.3540948274316466e-002, -3.9931687496866979e-002,
          7.1416175748585831e-002, -4.0364514197062135e-002,
          5.8823992757364489e-002, -4.6417653400148799e-002,
          3.5584287457018686e-002, -5.1639474181911088e-002,
          -1.3376780232620678e-002, 1.2307219038122048e-001,
          2.3020652452535928e-002, -1.2590971333497141e-002,
          8.2122691933115485e-002, -5.8326932529192958e-002,
          2.6896769074469317e-002, -1.3903309228040561e-002,
          -6.7954049253906065e-002, -7.3614015512952116e-002,
          -2.0659541012868179e-002, -8.4913711302059214e-002,
          -1.5678810331207080e-002, -6.4475423036178425e-002,
          3.1451051024134466e-002, 3.4693174276166326e-002,
          1.6569608849475961e-002, 2.1887192002767130e-002,
          -2.8307584407642153e-002, -2.0674243568405231e-002,
          -6.8740653576892449e-002, -8.3194539531513158e-003,
          1.2461343830465434e-001, -6.1517357882521752e-002,
          4.9861412683795250e-002, -1.1794216561688011e-003,
          4.3472435552120520e-002, -1.2248596438740196e-002,
          -4.6817248883823694e-002, -3.5231516063526917e-002,
          1.0516450343083222e-002, -6.4900156483201285e-002,
          -8.5673618545045016e-002, -1.9611336674812078e-002,
          1.5518296439145290e-002, 5.8611608565622718e-002,
          -4.1946713540453907e-002, 2.0795350100942557e-002,
          4.8175210268683273e-002, -1.0181280836341814e-002,
          -4.0468512098717005e-002, 2.2199755257036217e-002,
          -3.3292299676591329e-002, -3.4478757619621762e-002,
          3.1505847003268132e-002, 4.3569943168930682e-002,
          -4.9709758404946382e-002, -3.3332694448076482e-002,
          -4.0647493785212298e-002, 2.8255352160254762e-002,
          -1.1053936969568345e-001, 2.0986400553151451e-002,
          -6.1267218653076112e-002, 6.3347932869074627e-002,
          -1.4182685153334049e-001, -5.3897502113657680e-002,
          7.0180925090411266e-004, 7.4896062433971358e-002,
          -8.1746295145778858e-002, 4.4151109741386876e-002,
          -1.3862546883329424e-001, -1.3474138274669039e-002,
          -2.0005518379237662e-002, -2.7996607747376379e-002,
          -2.2022842160223641e-002, -3.1190943113129480e-002,
          -3.4490153594793523e-002, -1.8440748311388724e-002,
          1.1999210754491489e-001, -8.7836669041405233e-002,
          -7.7046077625683744e-003, -1.0850972523543504e-002,
          3.3858801744188809e-002, -3.4044484188667963e-002,
          7.6474876276302339e-002, 7.3324543919580307e-002,
          1.0618375572036386e-002, -4.5720897793408065e-002,
          -3.9189911200246681e-002, 1.8788369947094000e-001,
          4.1996359413419768e-003, 7.9083112168755243e-002,
          6.1936967348342011e-002, 5.3380648937800514e-002,
          -1.6570795279366675e-002, -3.7400411439263384e-002,
          1.0347579479635555e-001, -1.1247475997591390e-001,
          -1.8443102518683623e-002, 1.1791966340209416e-001,
          4.8400078753292344e-002, -1.6753655373135848e-001,
          -6.0033137153611520e-003, 3.5807466548548890e-002,
          -1.1518052821022130e-001, 1.2320513548694804e-001,
          -1.6940229455519075e-002, 6.7823522165113836e-002,
          3.5435240641464860e-002, -4.6819501274286135e-002,
          -4.1179203944814786e-002, 7.3596255685337300e-002,
          8.3508102373725072e-003, -6.8837801886772729e-002,
          2.8012560057811518e-002, -5.3539373227413457e-002,
          5.3096103113462224e-002, -3.7459100595676663e-002,
          -1.7408574635862121e-003, -7.6635578254166309e-002,
          4.1799416846348393e-002, 2.6885151296509681e-002,
          -2.4230105053597933e-002, 2.7735022739460106e-002,
          -4.7680920929538684e-002, -1.4519586025763240e-002,
          -1.3467786551467420e-001, -4.9166661153780121e-002,
          1.7226301382430362e-001, 7.5761604451187126e-002,
          3.7132321100021543e-002, -2.8707260982719154e-002,
          -1.0967547237515964e-001, 3.5565266137022225e-002,
          -7.5766067413660459e-002, -4.6957547551634712e-002,
          1.1522483886019957e-001, -6.2150372718656262e-002,
          -4.4503468018996040e-003, 7.3100661082550885e-003,
          9.8657748273100788e-003, -5.5681174517502617e-002,
          -9.7608956393357895e-003, 8.3661166871362450e-002,
          -2.5101066947320980e-002, -3.1044773346463640e-003,
          4.2876649003887005e-002, 1.4708318763290597e-002,
          9.8944042720895589e-002, -5.2915598349408094e-002,
          5.8457392658841180e-002, 1.2656864126619488e-001,
          4.0804466978409490e-002, 3.7433330975792878e-002,
          1.5339945137120470e-001, 4.3225469777197836e-003,
          -1.3024955977447691e-001, -3.1584954554984691e-003,
          -4.9097904800556237e-002, 9.7855683306392910e-002,
          -2.0315254893181575e-001, -5.6973743142514639e-002,
          1.8510456819978493e-002, 1.9588891319943688e-001,
          4.9411614538429766e-002, -4.3013408892682313e-002,
          -1.6117407342112335e-002, 1.1121919788214725e-001,
          -5.5270597807605126e-003, -2.5571670187840418e-002,
          -9.3867675131526385e-002, -6.4333111113164546e-002,
          4.0204882954960990e-002, -1.9544137063530745e-003,
          7.4643425453950210e-002, 1.8702060906007310e-003,
          1.6392266947156048e-001, -5.5382321603938779e-002,
          -1.7338084814645080e-001, 6.7544384493561954e-002,
          4.9314347821413224e-002, -1.2516682419140541e-002,
          2.5443528636725304e-002, 1.4183067886202255e-001,
          -2.8124266476383539e-002, 9.3082577499712299e-002,
          -9.8337842093075764e-003, 1.8203967800816015e-001,
          1.2992540399162301e-002, -1.6109826114745587e-001,
          7.6833953148855950e-003, -3.2826403534167312e-002,
          -4.1348462182203477e-002, -9.2356443084247966e-002,
          -9.4333762067724449e-003, -5.0770499331537017e-002,
          -1.5917883023932638e-002, -4.7524704086853366e-002,
          -4.8403129677789196e-002, 2.7939393608439264e-002,
          -5.9361482576234227e-002, -4.7476552540532636e-003,
          9.4290044754194197e-002, -5.0824966269135956e-002,
          -1.7625051506988402e-002, 1.2242500434871577e-001,
          3.2050134513528700e-002, -2.2412163329205460e-002,
          1.3028144182690575e-002, -8.1929579295551141e-003,
          -7.6480237561031519e-002, 8.7970943555689393e-002,
          -5.5876693380412359e-002, -4.0764245226828880e-002,
          3.9593109835649051e-002, 2.8323299880964431e-001,
          -4.5705656485472847e-002, 3.6607895468955723e-002,
          5.6550960710725871e-002, -7.1305707823261247e-002,
          -2.0271790977218826e-001, 6.8722932583462001e-002,
          -1.1694825002375519e-002, -6.2542362349001120e-004,
          1.6738895089090869e-001, -3.5088201639123682e-003,
          -4.8490187178916681e-003, 7.7515476291405302e-002,
          -6.5927718936697646e-002, 8.1597734087726324e-003,
          -3.9386332622548335e-002, -9.2302351026473869e-002,
          1.1753184947511328e-001, -1.1987459307354523e-001,
          -1.0642949405407424e-001, -1.1328107112830177e-001,
          4.5465222368372783e-002, 4.5472401560511149e-003,
          1.2044485750716748e-001, 2.5313064887071583e-002,
          1.9194783428267148e-003, 1.5203334474776645e-001,
          -7.7948438303495531e-003, 8.3956186293932936e-002,
          3.1464934936409586e-003, 4.0094858957485886e-002,
          -8.4430557894072458e-002, -7.5647909324352475e-002,
          2.6044203915207311e-002, 3.0130639994116706e-002,
          -9.0513177990941163e-002, 1.6964680484009526e-001,
          -2.4509618676821568e-002, -8.8884547696079244e-002,
          4.1003899806643235e-002, -3.9240655744884764e-002,
          1.7815146647566504e-002, -1.9589998872552600e-002,
          -4.9604192377200658e-002, -2.6371420145212210e-002,
          -1.9861764060650181e-001, 2.2894595914027846e-003,
          -2.2272838527124569e-002, -6.4611387179205074e-002,
          -3.4907801516484933e-002, 1.0068171608341957e-001,
          -1.4072993158958937e-002, -8.5877876245388160e-002,
          1.3489891407699845e-003, -1.9123854691426672e-002,
          3.6575140641298791e-002, -5.1678073565771726e-002,
          -1.0367945504113874e-001, -5.8996031090120284e-002,
          3.3290704998865481e-002, -1.0490461059298570e-001,
          -1.3463228115832387e-001, 4.5291213384076818e-003,
          3.8870353949089886e-002, -8.3197180754363831e-002,
          5.2744263478655212e-002, 1.8439567584242433e-002,
          1.1059705714386824e-001, -6.7333809947221518e-002,
          -2.2320236008881687e-002, 1.4230223536155556e-001,
          1.0166955983199838e-001, 7.8674896998075033e-002,
          -1.0572810313695401e-001, 5.0647691014619849e-002,
          -2.2356935403249198e-003, 3.5775378176491463e-003,
          -5.1674978020315773e-002, 7.8755524879533578e-002,
          1.8893614520866745e-002, -6.6128549336304285e-002,
          4.8869485271617753e-002, -1.1280372416383438e-001,
          -3.9600797293504797e-002, -2.3353098525333682e-002,
          7.5230648949372148e-002, -1.6339864517348054e-001,
          2.4263142700071894e-002, -9.1665228879197324e-003,
          5.2381078435984628e-002, 1.2417180087288272e-001,
          2.2838834659908144e-002, -5.7985643041647883e-002,
          7.2887595303957704e-003, -7.9908060102980003e-002,
          3.0442869678761478e-002, 5.3469521147201703e-003,
          4.2491126633551222e-002, 3.0073138832762769e-004,
          6.0735345494579408e-002, 9.4966259963653973e-002,
          -8.6816884027968194e-002, -4.0219887117015672e-003,
          1.4547790761163001e-001, -2.7754085562560541e-002,
          1.3031501183473743e-001, 6.2949812509905931e-002,
          -8.8187166031363493e-002, 4.4969105917194885e-002,
          9.8256390752146830e-002, -2.3230128732539074e-002,
          -3.0562676788658420e-002, -2.4972907826984413e-003,
          -2.0621927517743478e-002, 6.1449045338794308e-003,
          -2.6956349610527584e-002, 1.6631283377132106e-001,
          6.0393275513193220e-002, 3.1205884337760177e-002,
          1.1575311135530638e-002, 1.0017387537086749e-001,
          1.4963642896059715e-001, -4.4399348013513210e-002,
          7.1847526554811109e-002, 1.8669268713102819e-002,
          -4.4591525572327600e-003, 1.0505532259664628e-001,
          -3.6012434311907371e-002, 2.2217665670751506e-004,
          -3.8610641940394299e-003, -7.8840976295354220e-002,
          -3.0455944537531286e-002, 7.5300650112316736e-002,
          1.0402475777111215e-002, 1.6540110975583153e-002,
          -2.1776644719219977e-003, 3.0403038738332902e-002,
          3.5298869394389268e-002, -9.8199820929200602e-003,
          -9.9724246158624588e-002, -4.9778613946117552e-002,
          9.3910225446072388e-006, -1.0581028558682726e-002,
          -2.6225983216774103e-002, 1.2993821827143004e-002,
          -8.6770069455564119e-003, 1.3183313433919016e-002,
          4.6156879582048135e-003, -1.0938593871911971e-001,
          1.5704243450104717e-002, 2.3514996982991764e-002,
          3.6194491821618054e-002, -2.7013223801538137e-002,
          4.3161692409321661e-002, -2.2448784171573449e-002,
          6.4938146175234746e-002, -2.1626960525253106e-002,
          5.0296507951048480e-002, -1.4094500360031781e-001,
          -2.5459482176544982e-002, -1.0202116423300649e-001,
          1.0376905697225591e-001, 4.3220706868784091e-002,
          8.3079018509234964e-002, 1.8748210399853779e-001,
          -1.8096794400047689e-002, -3.8864996283114933e-002,
          2.1435893176860846e-002, -3.4248047110690544e-002,
          -1.1522757412509235e-001, 9.5398415749975742e-003,
          -6.2537259533773579e-002, -4.6162535531656015e-002,
          -1.7684549537865486e-002, 1.9540362726062288e-001,
          1.0484912121885726e-002, 5.3041477769976385e-002,
          -3.1484369651884794e-002, -1.1405417993339262e-001,
          -2.8854954161285879e-002, 1.8395249911992462e-001,
          -4.9696588253874796e-002, -6.5959306673703602e-003,
          4.3931039948841275e-002, 7.2352053482040296e-002,
          -1.1794336171591215e-001, 9.2865036959668523e-002,
          3.3528416644166607e-002, 6.5987112374671905e-002,
          -1.0750817162635244e-001, 7.7493556948911121e-002,
          -4.5059192406356974e-002, -1.8986052891481107e-002,
          1.6433767836553839e-002, 7.5644255066373081e-002,
          -7.0044934035529513e-002, -6.6468701452132614e-002,
          2.7676215653682796e-003, -2.1986168822316608e-002,
          -2.0102698639749547e-002, 5.1737096362007663e-002,
          1.8117295181555850e-003, 4.3764537320328759e-003,
          -2.7253726859543366e-002, 1.2099823852457038e-002,
          -1.1652224035176893e-001, -3.0537975232112397e-002,
          6.2366178634047011e-002, 6.0486973731030610e-002,
          -1.7689986193372633e-003, -4.2448548444467687e-002,
          4.9259438694186447e-002, -1.6026705178069822e-002,
          3.0787595750532224e-002, -2.0610242954552983e-002,
          -4.2098214525095198e-002, -3.1010352659614736e-002,
          -9.5599149423501104e-002, -4.7575200391622788e-002,
          2.6952909106325740e-002, -7.4533418893685296e-002,
          -8.3293235385875325e-002, -2.7410386328150044e-002,
          1.1351086314871014e-001, -4.6664140810275555e-002,
          -3.7541077556145191e-002, -3.0632549057842101e-002,
          2.8450239799726187e-002, -1.0873363260759680e-001,
          2.1127161222756447e-002, 7.2289195087010844e-002,
          -8.3351255195608417e-002, 1.4979631307273584e-002,
          1.3006480161639286e-002, -3.2516238926595532e-002,
          8.9239339409626250e-002, -3.4789143124822626e-002,
          2.4927714621181263e-003, 2.9293024158717658e-002,
          -1.2736407968089264e-001, -7.8393847612816522e-002,
          -5.0638316314977248e-002, 1.3162565519481639e-002,
          -2.8736515783731185e-002, 4.0703355418885978e-002,
          -4.0247143172463494e-002, -7.4646711575653106e-003,
          5.8031608313386850e-002, -1.0060216270726539e-001,
          1.0386487730792417e-001, -8.8591548427887939e-002,
          -2.1519529585008714e-002, 4.9194912921731795e-003,
          5.8829696307379838e-002, 3.2898737771931683e-002,
          -8.6783139521318664e-003, -5.8460888861039548e-002,
          -7.2488168872982608e-002, -6.7758252572851290e-003,
          5.8405002809398955e-002, -7.2249153400233440e-002,
          -2.9719399952727363e-002, -6.9601309590606834e-003,
          8.0112750554938494e-002, 1.0216667587728791e-002,
          2.5425527132286515e-002, -7.0127648624213361e-003,
          1.2759483639521685e-001, 1.6450410960218953e-001,
          -4.1326847050631114e-003, -4.7663742608980590e-002,
          -1.9138946582907124e-001, 1.8724110294227406e-001,
          6.9849135630632428e-002, -2.8456495160993869e-002,
          3.1220712406455835e-002, -3.6044076189884734e-002,
          -2.9726289753708623e-002, 1.7617010757074131e-002,
          1.3865540744146924e-002, -7.3791119256244861e-002,
          -7.3504111382796000e-002, -9.2887062485283792e-002,
          -6.1225136233635992e-002, 3.4746910683504460e-002,
          -8.6512796844714787e-002, -5.7281935154181896e-002,
          3.5320590708600198e-002, -1.5881994830536111e-001,
          -4.9600839670702085e-002, -1.0673203683379026e-001,
          1.1579921173488596e-003, -1.8988241861814449e-002,
          1.0044528063380706e-002, -3.8304899985149916e-002,
          -9.3098987307496106e-002, 1.2285583455943774e-001,
          -4.5918897743314674e-002, 6.0238007027344697e-003,
          7.3133035440814675e-002, 1.9483373651382058e-001,
          7.9729810589644873e-002, 2.6210116823950348e-002,
          1.6906824720237590e-001, -2.5614356400769575e-002,
          -7.9831201004460881e-002, 6.9610169750492570e-002,
          8.2030248098971456e-002, -1.2509354640559844e-001,
          -2.3151953313598966e-002, 7.7619541371640255e-003,
          -2.3395425793468986e-002, -1.4481152974409451e-002,
          1.4896885530392159e-001, 6.5849299653297170e-003,
          -5.1855394478058557e-002, 1.3133173996862496e-001,
          6.7362657560792114e-003, 5.4967942115924633e-003,
          2.3758285194785383e-002, -1.0355422572804268e-001,
          9.9819445053105943e-002, 7.1799946433577684e-003,
          3.6548126023929740e-002, 5.8198392709315705e-002,
          2.4067849402504543e-004, 2.0043222058669885e-001,
          4.7266322548904519e-002, 8.1168848493283666e-002,
          3.5653280912727882e-002, 7.4350377283995489e-002,
          -4.6646214866093445e-002, 8.5933956722168171e-003,
          9.5691237983656599e-002, 3.5101429450608214e-002,
          4.4593789340750305e-002, 1.7322966822501097e-002,
          -5.4652916532325659e-003, -4.9220866209116344e-002,
          -1.3446127465335725e-001, 3.7244492403356019e-002,
          -3.5130921994948072e-003, 8.2129739204957319e-003,
          -7.4714831462581066e-002, -7.6607297015561529e-002,
          -8.9834115712242146e-002, 2.8809504344395821e-002,
          -6.3061222943538775e-002, 2.4384313990538677e-002,
          1.1218287290393718e-001, 1.3607049474252217e-001,
          -1.4730528324719053e-002, 1.1665754001806437e-001,
          5.9240094886529010e-002, -9.0377813716498306e-003,
          2.4820677499533882e-002, 5.8127587502686338e-002,
          -2.1704412425297380e-002, -8.1857756330886489e-002,
          1.0802703408479709e-001, -1.2303329669666742e-001,
          -5.0992341125593955e-002, 1.3031887633075074e-002,
          -3.0154479893581727e-002, 1.2425774405284110e-001,
          -2.2987942250331052e-002, -2.7318034560658379e-002,
          2.0444356634661034e-001, 8.4277254407193511e-002,
          -4.9000166367219287e-002, 8.3051310570311544e-003,
          -4.4370758785006363e-003, 3.5491651009710690e-001,
          1.4854493007120386e-002, 5.8044872405582766e-002,
          -3.3381694293258218e-001, -4.2081977778323676e-002,
          3.8627277934693442e-002, 1.2852298396680292e-001,
          -1.1118512285586832e-002, 5.4341446897054051e-002,
          1.8760448583672831e-001, 6.6880953701796503e-002,
          3.3245279145638428e-002, 7.9575461731096517e-002,
          2.4260767927991998e-002, -5.1274718622908520e-002,
          6.7100669298293586e-002, 1.1638435282177943e-001,
          -1.8836704306845781e-001, 1.6572112154112587e-001,
          -3.6833736751747136e-002, 2.0176923626764608e-002,
          4.3964364871645546e-002, -1.6916842082907207e-001,
          -5.1053109756701756e-002, 9.0218101489847102e-002,
          5.5833772663620978e-003, -8.0234805514649260e-002,
          -9.2131751887283023e-002, 9.5698582452292930e-002,
          9.9750450044282624e-002, -4.9502713842777303e-002,
          2.4344827269897975e-002, -8.6834633359478122e-002,
          -3.7511269334042044e-002, -5.2199503717229374e-002,
          -1.8861596289966674e-002, -9.5398511447576953e-002,
          1.0474443985184111e-002, -3.6118663390489907e-002,
          3.0181135650520271e-002, 3.1086448378087016e-002,
          5.2289363122430321e-002, -5.1575713252964579e-003,
          -1.2983683619847905e-001, -6.0331145506765910e-002,
          2.3640662386669994e-002, 5.4958542222205645e-003,
          -1.9988757632328567e-002, -2.1696927490739489e-002,
          6.3015995985626377e-002, -3.8739026956396513e-002,
          5.5176777570750055e-002, 2.1620892085271416e-003,
          3.7802738214770815e-003, 7.3035073119165239e-002,
          2.3333289583958531e-002, -7.7806760207799934e-003,
          1.6486618603100454e-004, -3.0596324864628290e-002,
          -4.4476791718517178e-002, 6.8656814153835136e-002,
          -2.7426014531690902e-002, -4.7536025045409991e-002,
          -3.6698245482507864e-002, 3.1729024008298634e-002,
          -2.1524158087444758e-002, 5.5586054308882004e-003,
          -3.2164745091943885e-002, 2.0949267197702065e-001,
          -4.7556164394594862e-002, -5.1349631657260197e-002,
          5.6824630174585375e-002, -6.2405713904795733e-002,
          -2.0258088433720695e-002, -1.6827332102249248e-001,
          -5.3889873497603685e-002, 1.3387567049213411e-001,
          8.8344066290036213e-003, -7.7359933742397885e-003,
          1.1174041805142174e-001, -8.5580420348545100e-002,
          4.0496838296919691e-002, -3.8395565157466668e-003,
          -7.3706096759030656e-002, -6.4291479318702743e-002,
          1.4020223243450926e-002, -3.8849266626261744e-002,
          7.5680264499844899e-002, -1.7168657200871290e-001,
          2.0668701857554922e-001, -4.3942387587194653e-002,
          1.6368786386967225e-002, -1.1651070804461405e-002,
          -2.4150257090732759e-002, -1.5468809878485836e-002,
          1.0754149990522244e-001, -1.1982502818705539e-001,
          6.2474196046364221e-002, 7.9612801483699855e-002,
          3.1301210937299033e-002, 1.1885413339580468e-001,
          -1.5231491619808527e-001, -3.5545453638534265e-002,
          -1.9122135288810332e-001, 2.5806815575955409e-002,
          1.9057663409061891e-002, -9.7191215420785904e-002,
          -1.4537842141852499e-002, 5.1606794783678002e-002,
          -1.4852648299645689e-003, -7.9230871902581157e-002,
          -4.5331310648092656e-002, 1.5770186058709582e-001,
          -4.6693202423320729e-002, -3.4663003604490213e-002,
          7.5188799169582751e-002, 1.6332505569121716e-001,
          2.0931323302354296e-001, 2.4843707730269560e-002,
          1.5946478909286955e-002, 1.3818509852951379e-002,
          -3.7673226164543570e-002, 2.2536512763702590e-001,
          -4.7633937854783877e-002, 1.2111233253137665e-001,
          2.6075772375312778e-002, -2.7805105908644427e-002,
          -6.3450432787701433e-002, 7.0198619145850891e-002,
          -7.3110633985643658e-002, 2.2951493451930885e-002,
          2.2148796218022123e-002, 9.5218033493644230e-002,
          8.8418986770343752e-002, 2.0095269212022643e-001,
          -5.2938686593064360e-002, 1.1196980521027013e-001,
          6.0271597012561198e-002, -3.7396498201447505e-002,
          7.7691456431343148e-002, -1.0590311634538586e-001,
          -1.0279720397771326e-001, 5.6193770501756148e-002,
          1.4673563696824485e-001, 1.0546738011214715e-002,
          3.0544005224173273e-002, 1.1302198652041452e-001,
          -8.5589450176241880e-002, 4.7560193631568007e-002,
          -5.0314010317808508e-002, 1.9259782991175749e-002,
          -9.2675417396841264e-002, 2.2370381723361147e-002,
          6.1156877627445696e-003, 3.7880352528672841e-002,
          2.5692433508366419e-002, 1.2746693044257959e-001,
          4.0290572561315359e-002, 9.6024998094647845e-002,
          -1.1038994120221845e-002, -3.0780892132357986e-002,
          8.2376262350720597e-002, -3.0033819299148907e-002,
          1.7232907479212550e-002, 8.9422652516189999e-002,
          3.6822269516903663e-002, 2.7111756644334847e-002,
          3.1229249545190033e-002, -3.8185972701672351e-002,
          -1.8964253187159988e-001, -1.6747790217224785e-002,
          5.3240676707229234e-002, 1.0726295988266568e-001,
          -2.6025347054755477e-001, 1.5071077460220153e-001,
          -7.2879815214836163e-002, -2.8599318928598846e-002,
          2.7182572648980856e-003, -8.8088598990747835e-002,
          1.6110621739671066e-001, -4.2138624519142347e-002,
          -7.4154988538190622e-002, -1.9796783081554789e-002,
          -1.7526831565392940e-002, 4.2270563926083429e-002,
          5.9583763377747442e-002, -8.6561246595033461e-002,
          -6.6774823476329528e-002, 8.6274260334410907e-002,
          -6.1392695169178689e-002, 6.6461604722332618e-002,
          5.3106193370290773e-002, -5.7132636042790765e-002,
          -3.1135017038547558e-002, 3.4820784310064995e-002,
          1.0447442138148041e-001, 1.9496855115921752e-002,
          7.9728403404203618e-002, -8.2112161833308855e-002,
          -6.6919586839144701e-002, 3.2419527982837745e-002,
          -1.0380549892163872e-001, 1.4438956857771856e-001,
          3.2709345594837687e-002, -4.3107164192830831e-002,
          -5.5859692721833491e-002, -8.1518638532007054e-002,
          4.4064579608034386e-002, 5.0751136388038812e-002,
          5.6178611313669462e-002, 4.1652508113666178e-002,
          2.5498390951692991e-002, 1.8467463457241548e-001,
          -1.4171966326134756e-002, -3.1447153661868718e-002,
          -2.5631900132978197e-002, -1.2356842509193573e-001,
          1.0188025346152260e-001, -1.1579466392873169e-001,
          -6.7789695189706012e-002, -1.2680083045833379e-001,
          8.3640725963921685e-003, -1.0797719298795148e-001,
          -4.4685549049234982e-002, 2.4580149883591723e-002,
          -2.7515949070371876e-002, -4.7990551939095058e-002,
          6.8910032157767184e-002, -1.5681761623411922e-002,
          -1.0520969636566786e-001, -9.0390588706446059e-003,
          1.4208614509029696e-001, 8.6521138870490413e-002,
          -7.5393227094679091e-002, 1.1479649071319713e-001,
          -6.5645274794282019e-002, 1.4107396111592069e-001,
          1.5254286482617338e-001, 1.8879758226927692e-002,
          4.8340360040761345e-002, -3.1332414173762084e-002,
          -3.5123828845945469e-002, 3.7256030701050123e-002,
          5.5197393215028888e-002, -6.7988504973076444e-002,
          3.8147666834221904e-002, -8.6112263193299718e-002,
          1.8275900127900865e-002, -3.8393065298879751e-002,
          7.3858728341702790e-002, -4.2473470830830869e-002,
          -4.8917219398762736e-002, 1.4439118256033553e-002,
          -4.5864831880793287e-003, -1.6062179252912583e-002,
          3.8763173701711596e-003, 6.1452823399040799e-003,
          -2.5312077703115717e-002, -4.9501863588844494e-002,
          -1.4311866201748469e-001, 3.1633813970197442e-003,
          -4.4632203617343234e-002, 6.2669767002204183e-002,
          -1.1740389709439501e-002, 4.8430182596763134e-002,
          -4.1278188154254672e-002, -8.4130440651482841e-003,
          2.7519869331234154e-002, -5.5749530386709600e-002,
          -7.4294266657267710e-002, -1.9137937011429875e-002,
          -8.7536286431029856e-002, -1.1744285823733704e-001,
          1.6012481309357628e-002, 3.4223876070603496e-002,
          1.1672378792093395e-001, 1.0076215422156584e-001,
          -9.5385378286191300e-002, -1.2956001594700947e-001,
          5.8851605757782623e-002, -4.2284783461884988e-003,
          -1.6677408805249039e-002, -2.4500231150735709e-002,
          -1.2703462249326575e-001, 1.6173369373750461e-002,
          -3.7237271558932666e-002, -1.0858825377520065e-002,
          -1.4225428219309944e-001, 1.4932438969705428e-001,
          3.4690072380706677e-002, -5.2528967515999038e-002,
          -3.4863513608077733e-002, -2.4654556437859305e-002,
          4.8109473720224845e-002, 4.0617109407224114e-002,
          2.9747688904223610e-002, -4.0138383359615351e-002,
          4.5195402916155064e-002, 2.4884956205845802e-002,
          1.9374864568327335e-002, 3.7591598232762126e-002,
          -1.1293321377000128e-001, 7.9579578137041987e-002,
          2.9403477831613640e-002, -1.2010616651057355e-003,
          4.3961624540707289e-002, -1.1905226798805299e-001,
          -3.2288457424620720e-002, -2.3269827865450600e-002,
          -1.9703281244693446e-002, -5.5643277906377554e-002,
          4.5282989531480605e-002, 1.4838858328020715e-001,
          -1.1232241252476962e-002, 6.1604445833664173e-002,
          1.7010672915632245e-002, 6.5244520246554805e-002,
          3.8846219169713481e-002, -3.4660779735115085e-003,
          -1.8847105944743769e-002, -3.5078905922141267e-002,
          2.1037254252160284e-002, 1.1607911158421562e-001,
          -8.8337554365211637e-002, 6.6919712147658530e-002,
          2.5943915862864049e-002, 2.2812159897725774e-002,
          -2.0800431549007938e-002, -1.4192560175918972e-001,
          -7.9618180082563023e-002, 1.4326752667173486e-002,
          2.8513222756037498e-003, -3.0021228436397367e-002,
          -6.5076134342562333e-002, -1.4216168140088335e-002,
          2.3332800396093104e-002, 1.0467040103897493e-002,
          -1.1161369126873824e-001, -1.6109790942937758e-002,
          1.0367885006276481e-001, 3.9001027259429381e-002,
          -1.6768565525782406e-002, -1.7953926003613008e-002,
          1.8812387349728059e-002, 9.3284294276476568e-002,
          -2.4754739380416411e-002, -5.2993393809523753e-002,
          2.0005737590786204e-002, 1.2145571703394807e-001,
          -1.5097822436349059e-001, 8.6018599068198642e-002,
          -4.4784385856892171e-002, -6.9873831267039440e-003,
          -2.4622097369753376e-002, -1.7798382439016047e-001,
          -2.5624468600831164e-002, -1.8230517057852164e-001,
          -1.7179078149400038e-002, 7.1864058070831821e-002,
          -2.8984609052570137e-003, -1.0090007177277374e-003,
          1.0867371854614766e-001, -3.1726967434402405e-002,
