%YAML:1.0
my_nn: !!opencv-ml-ann-mlp
   layer_sizes: !!opencv-matrix
      rows: 1
      cols: 3
      dt: i
      data: [ 41, 6, 1 ]
   activation_function: SIGMOID_SYM
   f_param1: 6.6666666666666663e-001
   f_param2: 1.7159000000000000e+000
   min_val: -9.4999999999999996e-001
   max_val: 9.4999999999999996e-001
   min_val1: -9.7999999999999998e-001
   max_val1: 9.7999999999999998e-001
   training_params:
      train_method: BACKPROP
      dw_scale: 1.0000000000000000e-003
      moment_scale: 1.0000000000000000e-002
      term_criteria: { epsilon:2.2204460492503131e-016, iterations:3000 }
   input_scale: [ 9.0542950332830041e-001, -3.1970711562837733e+000,
       7.0185323896952923e-001, -3.4022208261046378e+000,
       8.7304019788865894e-001, -4.2067066517201983e+000,
       7.5105770702953056e-001, -3.8881072443068541e+000,
       6.8963324107700563e-001, -3.6532372893533878e+000,
       5.8086506404178939e-001, -3.2008102899834161e+000,
       7.1329030160711815e-001, -3.7316484904796954e+000,
       8.0635544908736179e-001, -4.0879238239761762e+000,
       7.7258502305350585e-001, -3.9835812625700822e+000,
       5.4098601398530000e-001, -3.5758598411677740e+000,
       6.7636644165108017e-001, -4.1712744425822530e+000,
       6.5646035414302739e-001, -4.2354068666571507e+000,
       5.4650772568713080e-001, -3.8640685995114867e+000,
       4.2581785540887018e-001, -3.4412712482974035e+000,
       5.4544451306843977e-001, -3.7826364750218744e+000,
       6.7185156493562126e-001, -4.3042328862932999e+000,
       6.4804922945217402e-001, -4.1691189453847359e+000,
       3.8228048420200178e-001, -3.4456397841703956e+000,
       3.9598614648752167e-001, -3.5061844752954170e+000,
       4.4597171629153332e-001, -3.9226285198683213e+000,
       3.8523234923998617e-001, -3.8652304307175385e+000,
       2.9202598676092306e-001, -3.4749651281524381e+000,
       4.3834864522925521e-001, -4.1016452325607231e+000,
       4.4347754871013029e-001, -4.0320799440520272e+000,
       4.3467220136828549e-001, -3.9139489744269422e+000,
       2.8388394543112655e-001, -3.4332986456097800e+000,
       2.9736706131490159e-001, -3.7065390929202024e+000,
       2.8019880015212256e-001, -3.6169398697450750e+000,
       2.3547645561794292e-001, -3.3628038750850022e+000,
       2.5691878065611912e-001, -3.7770369078329598e+000,
       3.0563532474355432e-001, -3.8978989500160872e+000,
       3.0387015942899392e-001, -3.9085233618402118e+000,
       2.9907143702060340e-001, -3.7588262223157125e+000,
       1.7925305218973528e-001, -3.2139835597679052e+000,
       1.9712701851206868e-001, -3.5317110436609993e+000,
       2.0196369063812381e-001, -3.7847044884318080e+000,
       2.0135880096306569e-001, -3.6448022241710469e+000,
       1.7565702925539811e-001, -3.6354011038576104e+000,
       1.8972338801467442e-001, -3.6746836889872965e+000,
       2.0731466358065578e-001, -3.7677305631687532e+000,
       1.7766588779270001e-001, -3.4296743403167627e+000 ]
   output_scale: [ 1.0526315789473684e+000, 0. ]
   inv_output_scale: [ 9.4999999999999996e-001, 0. ]
   weights:
      - [ 2.1258750762270327e-002, 4.5229415590889645e-002,
          -1.5762484404260532e-001, -3.3365828283202986e-001,
          7.0031891738439489e-002, 4.4343721718784607e-001,
          -3.5033821752224847e-001, -7.8632883398507614e-001,
          -2.8638443434524735e-001, -1.5129528448543603e+000,
          1.4368608378407580e-001, -1.4433949935478177e-001,
          1.0086298335259527e+000, -7.4657049498404549e-001,
          -2.4726184443925497e-001, 5.9238890616964912e-002,
          1.3148100849335484e-001, 1.7598840191789611e-001,
          1.5250310654262314e-001, -4.7826334664969000e-001,
          -5.3560753152684581e-001, -6.1851531322778097e-001,
          7.4703923336946004e-002, 4.8935638680557725e-001,
          9.1700165608473772e-001, -1.2378142148280440e+000,
          -2.5084542450627034e-001, -7.4086692434571541e-002,
          -6.2543942643526218e-001, -3.7637989190829363e-001,
          4.0507577905139153e-001, -3.5918828064610400e-002,
          9.4426856029749184e-001, 1.0383599579289675e-001,
          -1.3314133983748849e-001, -3.6872167032670733e-001,
          1.4882429877838150e+000, 3.0097458268270433e-001,
          -1.4728135239338016e+000, 3.8349347918202920e-001,
          -2.8057193237899924e-001, 3.6063316688091090e-001,
          8.0994767610564578e-001, -2.6434946503803758e-001,
          -8.5651886693870216e-001, -1.1832218863433906e-001,
          5.1305187452766388e-001, 6.5458890967408900e-001,
          5.3305934588917803e-001, -3.4241242747996248e-001,
          -8.7957472860317032e-001, -3.6617204854943258e-001,
          -7.3140273400488476e-001, 1.7273408320634176e-001,
          1.9946659295185423e-001, -4.3573317895557739e-002,
          -6.6164178245175259e-002, -1.3337859155361781e-001,
          -1.2040631288979264e+000, -8.5913979841494015e-001,
          1.0122617970228969e+000, -3.7659267400023838e-001,
          -5.1076945689671904e-001, 3.6822287432804529e-001,
          -1.7011024304206379e-001, -1.4561924748696242e-001,
          3.2896757676297500e-001, -2.4455090816671060e-001,
          -2.5028072296067233e-001, -2.7289430808567861e-001,
          9.8144243908686261e-003, -2.2461248343251849e-001,
          1.9785383744315729e-001, 4.7392767748121212e-001,
          -5.6629835125687800e-001, -2.1545850272612403e-002,
          1.4589473776624029e-001, -2.0182945626636395e-001,
          1.4057919328602604e+000, -6.2872810767239262e-001,
          -1.2411313610992329e+000, 5.5448159241513606e-001,
          -5.1520995997068020e-001, 3.7665742234640714e-001,
          8.1730085734239277e-001, -3.7095896923319938e-001,
          -2.7078107680854152e-001, -2.8982774525407501e-001,
          6.5122070788752229e-001, 1.0821547601434207e-001,
          7.1600427738443839e-001, 1.9172502574866501e-001,
          -1.8325626908047266e-001, 4.1184649464799267e-001,
          2.2104402445307170e-001, -1.4033526404637475e-001,
          7.7448302724613372e-001, 7.4224128006826373e-001,
          -5.0546125016048049e-001, 5.5958407804250399e-001,
          5.7176300948970769e-002, 2.0873987338060362e-001,
          9.2961006685229142e-001, 4.8354385065257233e-001,
          3.5102508717661400e-002, 3.5723434341403576e-001,
          8.5077320863271230e-002, 2.7556150060139012e-001,
          1.1049163843772907e+000, 6.7146902679511467e-001,
          -6.6351245144738324e-001, 8.0342747849668106e-001,
          1.0590098007764992e+000, 1.9316060460756075e+000,
          -1.9223524507922815e-001, -1.3519523071389772e-001,
          6.8135431594295814e-001, -3.1974605409227252e-001,
          2.9897800692327378e-002, -5.9335451702444131e-001,
          7.7919021218496601e-002, -1.1493692127998949e+000,
          -1.2468756964882164e+000, -1.2290023519736497e+000,
          1.5350819941690649e-001, 4.0470927492812292e-001,
          3.4093924256065322e-001, -1.9317774686475824e+000,
          -2.1619023143490619e+000, -1.3196364452101188e+000,
          -2.8038041291825577e-001, -8.3459804423611297e-003,
          7.4294116618989736e-001, -3.9577125540998748e-001,
          -3.3029996254399174e-001, 2.8043557105038708e-001,
          -4.0078186904440916e-001, -2.9885113455067108e-001,
          3.9894262651926510e-001, 6.1816723867262258e-001,
          -1.5668503698473293e-001, 4.5464740111835600e-001,
          1.3932658676598475e-001, 3.7860449985826911e-001,
          -1.0190835241300461e-001, -6.1196885483925645e-001,
          4.8107562238333887e-002, -1.1215523812860144e+000,
          -5.3849304353755255e-002, -6.0018674731488120e-001,
          7.8056796876086820e-001, -7.7114889978076118e-001,
          -3.7076368434518786e-001, -3.9325445482345939e-001,
          -3.1495038590005653e-001, -1.5112942461852899e-001,
          2.4635821681816736e-001, 6.0141433616399975e-001,
          2.4761439419935188e-001, 3.4497497320576909e-001,
          -1.4377602197096245e-001, -4.9622428083627768e-001,
          -1.3146216090744026e-001, -8.1078670194123115e-001,
          -2.6305726834694854e-001, -5.0536077659976708e-001,
          -2.0257344305375966e-001, -8.3923214679775704e-001,
          -7.4499004127209045e-001, -1.0948079562305901e+000,
          -1.2263577255683664e+000, -1.9350222311810472e+000,
          -8.8802589824163100e-002, -5.0687716307870156e-001,
          6.9606359121889760e-001, 2.1617774442611901e-001,
          -8.7708243350648696e-001, 2.9972699010338472e-001,
          7.2175461202549362e-002, -2.2163759838370634e-001,
          1.2470949794619149e-001, 5.3597435462962673e-001,
          -1.3316063059969174e-001, 4.1988894040932212e-001,
          3.7604490292455794e-001, -8.5877291083893775e-002,
          3.5527794171052723e-001, -5.5390884269019103e-001,
          -4.6750035351172720e-001, -4.4775287381429407e-001,
          1.8935791637809557e-001, 3.8006418748557702e-001,
          8.0029704968189985e-001, 5.3913388980662713e-001,
          -3.3767711483376767e-001, 4.3054551385051104e-001,
          1.5106892705499262e-002, 6.5849328539125274e-001,
          1.3021702930776505e-001, -1.4912749286679372e-002,
          -7.9288556993126513e-001, -4.8965687149350351e-001,
          -1.8357356959343426e-002, -2.1162488185239348e-001,
          3.1681801062022182e-002, -4.6652665967389156e-001,
          5.8979424050108753e-002, -7.4248743128207539e-001,
          -1.4490723775243081e-001, -5.3714801612037044e-001,
          -1.2106724576649044e-001, -2.7118599780338998e-002,
          8.3254938165603720e-001, -2.2803589962591744e-001,
          -2.2021008728193830e-002, 5.9663005278419265e-002,
          5.8910214570247033e-001, -4.3214350690383665e-002,
          2.2292977937792435e-001, 4.6976219631018629e-001,
          3.4346995489125876e-001, -8.8496648533281638e-002,
          6.1936071199414200e-001, -1.0711334863595841e+000,
          -1.4102620653138964e+000, -3.7182549575515583e-001,
          4.9694401926651194e-001, 2.6558043069190485e-001,
          1.5309476042588199e-001, -1.5731775220882549e+000,
          -5.3696125869211431e-001, -9.5266782459702881e-001,
          2.2411532210199075e-001, 4.5458335843143316e-001,
          6.4802814642607243e-001, -5.8508789647963383e-002,
          -5.5454979159230533e-001, 6.6304287304293075e-001,
          -9.8639167474653108e-002, 2.8099734792559489e-001,
          8.7639446197844317e-001, 1.4247724621620225e-001,
          -1.3620511527317853e+000, 9.3509006826547683e-002,
          -2.6670237568631100e-001, 8.5544437539057883e-001,
          8.2662086890139519e-001, 7.2170957701808813e-001,
          -2.5888013674223966e+000, 2.4779623310374705e+000,
          2.0759280211164448e+000, -2.7533529878957435e+000 ]
      - [ 2.1811396745882134e-002, -6.9735398440196816e-001,
          5.8441493372811126e-001, 1.0146594550233712e+000,
          6.0474784117458291e-001, -6.8642257211491198e-001,
          -1.0441827473403871e+000 ]
