%YAML:1.0
my_nn: !!opencv-ml-ann-mlp
   layer_sizes: !!opencv-matrix
      rows: 1
      cols: 3
      dt: i
      data: [ 58, 5, 1 ]
   activation_function: GAUSSIAN
   f_param1: 1.
   f_param2: 1.
   min_val: 5.0000000000000003e-002
   max_val: 1.
   min_val1: 2.0000000000000000e-002
   max_val1: 1.
   training_params:
      train_method: BACKPROP
      dw_scale: 1.0000000000000000e-003
      moment_scale: 1.0000000000000000e-002
      term_criteria: { epsilon:2.2204460492503131e-016, iterations:500 }
   input_scale: [ 1.0284031323738212e+001, -6.2195776103520628e-001,
       5.9902167883097102e+000, -6.8108159343841601e-001,
       6.3781923282336894e+000, -6.6817441875569983e-001,
       6.7944794239819997e+000, -6.7986213989986810e-001,
       8.2139380058713112e+000, -6.6778295790919573e-001,
       6.2907642581680907e+000, -6.5788393814404811e-001,
       7.3272305119251326e+000, -5.5253630810396848e-001,
       7.5526998333270585e+000, -6.7654769210298771e-001,
       7.0422526130002785e+000, -6.8141108876147272e-001,
       9.4094247775765965e+000, -6.6470085929934353e-001,
       7.2395100128178997e+000, -6.0597878435542785e-001,
       7.4289984749792390e+000, -6.7443859965716224e-001,
       6.6049258496849390e+000, -6.8076143206586470e-001,
       6.7663113292977739e+000, -6.8705037112743395e-001,
       6.9424457430942077e+000, -6.7054217450049136e-001,
       9.5685954661794188e+000, -6.7051444023268125e-001,
       1.0378317553028301e+001, -6.8469801012090270e-001,
       6.3458213778101102e+000, -6.8535050308003653e-001,
       6.6603799330983664e+000, -6.5969027072696074e-001,
       7.0578158138834937e+000, -6.7020692715072316e-001,
       6.2861755549130027e+000, -6.8819983252620631e-001,
       7.5312889657971054e+000, -6.8191881309791469e-001,
       7.0007887611196580e+000, -6.8110143932465028e-001,
       6.7127420279498118e+000, -6.8189170573617397e-001,
       1.0779424849116577e+001, -6.5192924577882450e-001,
       1.0019873350273418e+001, -6.3723225771537517e-001,
       6.6058169801587097e+000, -6.7238671033047093e-001,
       6.0461066854650971e+000, -6.8021389301499480e-001,
       7.9212231053441995e+000, -6.7007340096302959e-001,
       9.3102951209332865e+000, -6.7211073432748492e-001,
       7.0897349552914193e+000, -6.7963961831162545e-001,
       8.2384689707169549e+000, -6.6444612465220099e-001,
       7.9060545574408430e+000, -6.5846045118707075e-001,
       7.5381818871772062e+000, -5.7298235879609694e-001,
       7.2159775957838210e+000, -6.7196870307587386e-001,
       5.8467073834099077e+000, -6.7916973297298666e-001,
       7.0776571447142596e+000, -6.7937221711991158e-001,
       7.6736185211134043e+000, -6.8028457193728542e-001,
       6.5387131911786041e+000, -6.8108399757586802e-001,
       8.1388498358051002e+000, -6.6591757169408317e-001,
       6.5489787461868030e+000, -6.7342653168643229e-001,
       9.2237284132407709e+000, -6.7783744292426040e-001,
       9.3765554333081091e+000, -6.7115097772820287e-001,
       6.7658864406854056e+000, -6.6624347113252225e-001,
       7.7719414447410653e+000, -6.9160740507034257e-001,
       6.7400447372115595e+000, -6.7880682065227183e-001,
       7.1570627703498113e+000, -6.7151707057169074e-001,
       8.1816304606025163e+000, -6.6265047079406103e-001,
       9.8392240561931281e+000, -6.7504461019840090e-001,
       6.9154755445594658e+000, -6.7176117380135358e-001,
       8.3811306341336600e+000, -6.8365914349982004e-001,
       1.1935948255646558e+001, -6.6473750623893213e-001,
       6.5132788449194710e+000, -6.7359945021588086e-001,
       7.6110205298439881e+000, -6.7400246097081096e-001,
       5.9627529455918564e+000, -6.8481310278043273e-001,
       7.5055154457965649e+000, -6.6787600620185050e-001,
       6.7148276571330809e+000, -6.7819958125949675e-001,
       8.6136929056574303e+000, -6.1976137949208110e-001 ]
   output_scale: [ 2.1052631578947367e+000, -1.1052631578947367e+000 ]
   inv_output_scale: [ 4.7499999999999998e-001, 5.2500000000000002e-001 ]
   weights:
      - [ -2.2261315392529130e-001, 4.3609750674762368e-003,
          2.8179322045949882e-002, -4.4311041267375548e-002,
          4.2857089976197506e-002, -1.9935387267217139e-001,
          -7.4913910547468121e-003, 2.1423108977087883e-002,
          -1.1612362355289613e-002, -2.7140013106995852e-003,
          -1.8310696875962007e-001, -5.4465747211852850e-002,
          -1.4243898275645700e-002, -3.7236319249725015e-002,
          2.3639362865067147e-002, -2.2599423239725902e-001,
          -1.5935662282934176e-002, 2.3875541510458093e-002,
          -3.5619091348670952e-002, 2.9352998788173153e-002,
          -2.0083768196648977e-001, 2.4809922639372935e-003,
          -1.3398177396037492e-002, -4.2853926473913825e-002,
          3.8531266504465131e-002, -1.8517836276114147e-001,
          4.0534671786015492e-003, -3.5822055941053567e-002,
          -8.4530160537416854e-003, 6.7697370730780476e-003,
          -1.4884845389975618e-001, 2.2219730598938874e-002,
          -5.3040984311541174e-002, 1.3219245576999217e-002,
          2.3231179183419808e-002, -2.2369937913343621e-001,
          -4.3958962529624904e-002, 1.4883778843931385e-002,
          -4.5372765216671655e-002, 8.4321298149526488e-003,
          -2.2655628098557265e-001, -1.7438545966464197e-002,
          -2.8041720642638896e-002, -2.3640602522839380e-002,
          5.3069189346663772e-003, -1.9332831201653561e-001,
          -1.2988874037195786e-002, 7.4339698774869211e-003,
          -1.9818421300820684e-002, 1.1381770181903898e-002,
          -1.6660914476159813e-001, 3.4521869570358923e-002,
          -3.6140617052168783e-002, 1.7339100657947842e-002,
          -7.7921411656918195e-003, -2.4161627467379931e-001,
          -3.2597987821087200e-002, -8.3413340384597186e-003,
          -3.6269132260775050e-002, 1.9058912723235542e-002,
          -2.1152685182300734e-001, -3.4406970344960715e-002,
          -2.4693731538330387e-002, -4.3018474363841257e-002,
          2.0024174075734126e-002, -2.2673399138246819e-001,
          -2.5590638704029667e-002, 2.6057930403353233e-002,
          -1.3308644434393391e-002, -6.7244349908959786e-003,
          -2.3268217859454579e-001, -9.8490494815701417e-003,
          -1.6206717512729705e-002, -3.4441457060241855e-002,
          3.4560570085395773e-002, -1.9774490474062359e-001,
          -2.5775393896535593e-002, 2.9748033269896928e-002,
          -3.9142537512952595e-002, 2.4831420973083579e-002,
          -2.2344926832636289e-001, -3.6534283897219341e-002,
          -2.1626277614784927e-002, -6.2657944431125087e-002,
          2.5864961264808927e-002, -2.5159331111574468e-001,
          -5.7632722482877589e-002, 1.9926460972949749e-002,
          -4.4346293362476329e-002, -7.0910988369226810e-003,
          -2.0066225115918712e-001, -1.0037554330238353e-002,
          -1.7322028197633083e-002, -3.8326761156855127e-002,
          2.9613369442077757e-002, -2.3721677008721323e-001,
          1.4443477366764379e-002, -1.5891872484822590e-002,
          -1.7385638477601512e-002, 2.1782147437926419e-002,
          -1.9889940416009463e-001, -4.2310501282500496e-002,
          2.2449641260186292e-002, -4.3106932586028178e-002,
          6.6528386083080692e-003, -2.3968974935185175e-001,
          -8.3890276471270439e-002, 5.0380378135019145e-002,
          -6.5031213726651230e-002, -3.7202382301638284e-003,
          -1.9138882776352323e-001, -4.1386142135695948e-002,
          -4.3658462915314123e-003, -4.2639739238563706e-002,
          2.3658809140174992e-003, -2.1568113842908437e-001,
          -5.5066044814206523e-002, 3.4621971082403835e-002,
          -6.0620333198721760e-002, 2.5749563822636920e-002,
          -1.8615720843120864e-001, -3.6479209446572479e-002,
          -2.9739066253035878e-002, -1.8521414515564112e-002,
          -5.6226867294479942e-003, -1.7400605990262316e-001,
          -6.4945188560015304e-003, 2.7541240176778038e-002,
          -2.5161084446019891e-002, 1.3125813144315917e-002,
          -1.9351111659020362e-001, -7.0131548190811840e-002,
          5.0904049885380810e-002, -7.6320455240697777e-002,
          2.3248365964332472e-002, -2.0698474882528059e-001,
          -6.1600198358301481e-002, 2.9070223600692471e-002,
          -7.5012426003264771e-002, 2.8667731482886531e-002,
          -1.9911661484118148e-001, -3.9456862063534943e-002,
          4.3579258171398377e-002, -4.4951613748143993e-002,
          4.4059925670205738e-003, -1.9553985552129646e-001,
          -3.2355617413038870e-002, 2.5021848441825142e-002,
          -3.9667955261180769e-002, 1.3103608211267411e-002,
          -1.9510133045175687e-001, -3.4312770316407094e-002,
          -6.4510154788648966e-003, -4.4235388615063029e-002,
          3.3687922453298748e-002, -2.3380775004121793e-001,
          -5.4274039229110912e-003, -2.5950602937428306e-003,
          -5.1199601336878224e-002, 3.9257937322186340e-002,
          -2.2047092246566868e-001, -4.6764798442812568e-003,
          -2.7375327404844552e-002, -4.6990214053841947e-002,
          3.1967680637977003e-002, -1.4887389920253452e-001,
          -1.4214804166420864e-002, -3.1413764572032585e-002,
          -2.3841922649922971e-002, -1.3984373785941846e-002,
          -2.3185538776298595e-001, -1.7702986600145798e-002,
          1.3823907068738220e-002, -8.0891151511917215e-003,
          -6.0199466005560658e-003, -2.4374252230288862e-001,
          -4.6083360573763756e-002, -1.3324139352988486e-002,
          -5.3843461234407392e-002, 1.9786839566376193e-002,
          -2.4852268284185805e-001, -5.1468903613628630e-002,
          -7.5696902906483053e-003, -2.6720190532762485e-002,
          -3.6475663016005766e-003, -2.3001616871541899e-001,
          -1.3327809517935107e-002, -1.0533645454394907e-002,
          -4.0944429826035203e-002, 3.5050806375709224e-002,
          -2.2150422892900193e-001, -7.4264427924640650e-003,
          4.5370781948786071e-003, -3.0802762466734857e-002,
          2.7909258177047057e-002, -2.3013992244706910e-001,
          -1.7939490777428718e-003, -2.5544743793208542e-002,
          -2.7639583495854575e-002, 1.4843907692604260e-002,
          -2.3045849708637822e-001, -3.3438781329036944e-002,
          2.8392968858650669e-002, -5.7119118355799824e-002,
          2.1111499527255124e-002, -2.0234259332443905e-001,
          -4.4298017427403830e-002, -7.0925743000330626e-003,
          -4.5262592518710072e-002, 2.4041443620895504e-002,
          -2.0417327798682849e-001, -3.0307632784240274e-002,
          -1.2086712719282432e-002, -6.5725841269277429e-003,
          -1.0045510817953181e-003, -2.3414496220353936e-001,
          -1.1656725144917025e-003, -6.7673390721941055e-003,
          -3.6282791406894367e-002, 2.0548796204097490e-002,
          -2.4765730404429029e-001, -1.4120945351240616e-002,
          1.6715414907496576e-002, -2.9830342524854704e-002,
          -2.8074283650717101e-003, -2.5555676898927782e-001,
          -4.8963728471117532e-002, 5.7213962690147975e-003,
          -4.6299604470281912e-002, -8.4781966793851492e-003,
          -2.0145845192653930e-001, -6.2211408182275260e-002,
          -4.7377285661398504e-003, -5.1672695795074268e-002,
          1.6447920000801203e-003, -1.8215431566522647e-001,
          -3.1110411935418626e-002, 1.1316150891490415e-003,
          -5.7072286479135578e-002, 3.4708672319633156e-002,
          -2.3483206542760504e-001, -2.7024780188730769e-002,
          5.1575888505914949e-002, -4.6220565748026306e-002,
          6.2236392067271636e-003, -2.3649293865453419e-001,
          -4.3879804167790540e-002, 1.0462952793739034e-003,
          -2.1815114985926962e-002, -1.1663452695301094e-002,
          -2.3414343069782703e-001, -4.9616108900080474e-002,
          -2.4013807848678098e-002, -5.1005851533747121e-002,
          3.0243157750996071e-002, -2.5366268773586292e-001,
          -7.8876393143170104e-002, 2.7717866386085969e-002,
          -8.0263693121303520e-002, 3.7152822812899486e-002,
          -2.2981555685011004e-001, -4.5940187873477221e-002,
          -4.4800778068066647e-003, -2.4307326073149636e-002,
          2.4726122746549718e-003, -2.5736791899774603e-001,
          -4.8300195334166442e-002, 5.2315440314646671e-003,
          -3.0435383430145450e-002, -8.1731639792786328e-003,
          -2.3607872986810238e-001, -3.1504335542734262e-002,
          1.8986317733150224e-002, -2.8899381442665045e-002,
          -6.3658510271066811e-003, -2.0497209043614409e-001,
          -3.9449435810210355e-002, -1.1927736136529825e-002,
          -2.1259004118441834e-002, -5.6033569812982791e-003,
          -2.1450561193781004e-001, -5.7325212384853462e-002,
          -2.8088291647338612e-003, -3.5555219583876162e-002,
          -7.5027514806568392e-003, -1.9823715750237261e-001,
          3.1034911405578406e-002, -3.5464569714189036e-002,
          7.0369645012375295e-003, 1.6544121157317619e-002,
          -7.3278344977254328e-002, -1.1161939070042839e+000,
          1.8848510350979585e-002, 1.4643953412780131e-001,
          2.6822300802854554e-001 ]
      - [ 6.0976394585740737e-002, 1.5657330362203967e+000,
          2.4346144465908179e-001, -3.5713727135864887e-001,
          2.6585798490326668e-001, -2.9518470536484337e-001 ]
