%YAML:1.0
my_svm: !!opencv-ml-svm
   svm_type: C_SVC
   kernel: { type:RBF, gamma:1. }
   C: 10.
   term_criteria: { epsilon:2.2204460492503131e-016, iterations:1000000 }
   var_all: 58
   var_count: 58
   class_count: 2
   class_labels: !!opencv-matrix
      rows: 1
      cols: 2
      dt: i
      data: [ -1, 1 ]
   sv_total: 3021
   support_vectors:
      - [ 3.73367101e-001, 1.06771499e-001, 8.01119730e-002,
          2.93388397e-001, 3.73367101e-001, 5.33324420e-001,
          9.73207116e-001, 9.34417471e-002, 3.46707493e-001,
          9.99866724e-001, 8.93228471e-001, 2.67928597e-002,
          4.01226282e-002, 4.01226282e-002, 5.86643577e-001,
          8.79898727e-001, 2.67928597e-002, 1.60090595e-001,
          2.93388397e-001, 7.86590219e-001, 9.34417471e-002,
          1.46760896e-001, 3.20048004e-001, 1.33431107e-001,
          1.60090595e-001, 1.86750203e-001, 2.00080007e-001,
          1.06771499e-001, 2.93388397e-001, 4.53345805e-001,
          2.67928597e-002, 3.86696905e-001, 7.46600926e-001,
          3.60037297e-001, 2.93388397e-001, 1.34630799e-002,
          2.00080007e-001, 7.59930670e-001, 2.66728908e-001,
          1.60090595e-001, 5.34524098e-002, 1.86750203e-001,
          1.46760896e-001, 1.33297799e-004, 6.79952025e-001,
          1.60090595e-001, 1.33431107e-001, 2.93388397e-001,
          1.73420399e-001, 8.01119730e-002, 2.26739496e-001,
          2.80058712e-001, 9.34417471e-002, 2.13409796e-001,
          2.26739496e-001, 1.60090595e-001, 6.67821914e-002,
          9.99866724e-001 ]
      - [ 8.20985079e-001, 1.15870297e-001, 6.32498413e-002,
          3.68448704e-001, 1.79014906e-001, 3.15828204e-001,
          8.20985079e-001, 1.68490797e-001, 1.36918500e-001,
          6.10503078e-001, 7.57840514e-001, 1.47442594e-001,
          9.48221385e-002, 1.06293401e-002, 3.15828204e-001,
          7.68364608e-001, 4.22016382e-002, 1.15870297e-001,
          8.42980370e-002, 7.15744078e-001, 1.36918500e-001,
          2.00063094e-001, 1.57966703e-001, 1.36918500e-001,
          9.99894798e-001, 5.47358513e-001, 9.48221385e-002,
          6.32498413e-002, 2.84255892e-001, 2.73731798e-001,
          6.32498413e-002, 4.52641487e-001, 9.68322515e-001,
          6.10503078e-001, 3.36876392e-001, 9.48221385e-002,
          3.16775404e-002, 2.84255892e-001, 3.78972799e-001,
          2.52683610e-001, 1.47442594e-001, 1.57966703e-001,
          1.36918500e-001, 6.84171796e-001, 2.84255892e-001,
          1.05241001e-004, 9.48221385e-002, 7.78888702e-001,
          6.32498413e-002, 5.27257398e-002, 1.79014906e-001,
          5.68406701e-001, 1.57966703e-001, 1.79014906e-001,
          4.22016382e-002, 2.42159501e-001, 1.05346203e-001,
          8.73605609e-001 ]
      - [ 2.60201603e-001, 2.11429000e-001, 8.21004715e-003,
          2.68330395e-001, 6.51113614e-002, 2.84587890e-001,
          8.04828525e-001, 2.68330395e-001, 5.69825992e-002,
          3.57746691e-001, 9.99918699e-001, 1.95171505e-001,
          1.30141407e-001, 2.27686599e-001, 4.88538407e-002,
          5.85352004e-001, 5.69825992e-002, 2.03300297e-001,
          7.32401237e-002, 3.65875512e-001, 4.07250896e-002,
          5.69825992e-002, 2.43944094e-001, 8.13688785e-002,
          2.35815302e-001, 6.51113614e-002, 1.62656501e-001,
          3.25963311e-002, 1.46399006e-001, 3.00845414e-001,
          2.03300297e-001, 4.30905491e-001, 8.37343514e-001,
          5.52836895e-001, 1.70785204e-001, 6.51113614e-002,
          8.21004715e-003, 1.38270199e-001, 2.11429000e-001,
          2.84587890e-001, 1.87042803e-001, 8.21004715e-003,
          9.76264030e-002, 5.44708192e-001, 1.05755202e-001,
          8.21004715e-003, 4.07250896e-002, 3.65875512e-001,
          8.94976407e-002, 4.88538407e-002, 1.54527694e-001,
          3.08974206e-001, 1.05755202e-001, 2.35815302e-001,
          8.12876024e-005, 4.88538407e-002, 1.70785204e-001,
          7.96699703e-001 ]
      - [ 1.28059506e-001, 1.04063302e-001, 1.84050605e-001,
          1.20060802e-001, 2.08046705e-001, 4.16013390e-001,
          7.75955796e-001, 7.20684677e-002, 1.76051795e-001,
          4.72004503e-001, 8.47944319e-001, 8.80659074e-002,
          5.60710318e-002, 2.56038994e-001, 2.56038994e-001,
          5.19996822e-001, 1.04063302e-001, 6.40697479e-002,
          1.20060802e-001, 9.75923896e-001, 2.64037788e-001,
          8.80659074e-002, 2.80035198e-001, 1.28059506e-001,
          5.11998117e-001, 7.20684677e-002, 2.40041599e-001,
          7.99871996e-005, 3.28027487e-001, 3.52023691e-001,
          4.80723083e-002, 1.68053105e-001, 7.75955796e-001,
          4.64005798e-001, 2.80035198e-001, 1.20060802e-001,
          8.00671875e-002, 1.68053105e-001, 4.00735885e-002,
          1.68053105e-001, 5.60710318e-002, 1.36058196e-001,
          2.48040304e-001, 6.40697479e-002, 4.00735885e-002,
          2.40761507e-002, 1.12062097e-001, 8.47944319e-001,
          7.99871996e-005, 1.12062097e-001, 1.60054401e-001,
          2.88033903e-001, 3.20748687e-002, 2.32042894e-001,
          1.60774309e-002, 1.76051795e-001, 9.60646272e-002,
          9.99920011e-001 ]
      - [ 7.95229077e-001, 1.10297598e-001, 1.02424800e-001,
          3.14989805e-001, 1.73279807e-001, 3.62226397e-001,
          8.03101897e-001, 1.49661496e-001, 1.33915901e-001,
          4.33081388e-001, 8.81829619e-001, 2.20516503e-001,
          7.09337071e-002, 7.87277604e-005, 4.25208598e-001,
          5.90536892e-001, 3.15698311e-002, 1.33915901e-001,
          8.66792575e-002, 5.03936410e-001, 5.51881604e-002,
          8.66792575e-002, 2.36970596e-002, 1.26043096e-001,
          2.59880304e-001, 6.30609393e-002, 8.66792575e-002,
          2.36970596e-002, 1.96898103e-001, 2.67753094e-001,
          2.59880304e-001, 3.38608086e-001, 8.66084099e-001,
          4.48826998e-001, 1.81152597e-001, 7.88064897e-002,
          1.26043096e-001, 7.88064897e-002, 3.14989805e-001,
          2.59880304e-001, 1.26043096e-001, 7.95150362e-003,
          2.04770893e-001, 4.33081388e-001, 1.10297598e-001,
          6.30609393e-002, 8.66792575e-002, 4.17335898e-001,
          9.45520401e-002, 1.49661496e-001, 1.96898103e-001,
          1.73279807e-001, 1.81152597e-001, 1.73279807e-001,
          7.87277604e-005, 3.94426100e-002, 5.51881604e-002,
          9.99921322e-001 ]
      - [ 5.56260906e-002, 8.01460072e-003, 7.94318393e-002,
          2.77812988e-001, 1.74654797e-001, 2.85748303e-001,
          8.25345218e-001, 7.94318393e-002, 8.73670802e-002,
          3.09554011e-001, 8.65021408e-001, 1.90525293e-001,
          7.94318393e-002, 3.18203494e-002, 3.33359808e-001,
          5.55546701e-001, 4.76908386e-002, 7.93524814e-005,
          8.01460072e-003, 3.88906509e-001, 8.01460072e-003,
          6.35613427e-002, 1.66719601e-001, 9.53023285e-002,
          3.88906509e-001, 7.93524814e-005, 1.03237599e-001,
          8.01460072e-003, 4.76908386e-002, 2.85748303e-001,
          3.97555903e-002, 3.41295004e-001, 8.49150896e-001,
          5.47611475e-001, 2.14331105e-001, 7.93524814e-005,
          1.11172803e-001, 8.73670802e-002, 2.85748303e-001,
          1.66719601e-001, 1.27043307e-001, 8.01460072e-003,
          1.19108103e-001, 5.00000000e-001, 1.03237599e-001,
          1.19108103e-001, 1.59498509e-002, 3.57165486e-001,
          7.93524814e-005, 1.27043307e-001, 5.56260906e-002,
          4.84129488e-001, 8.01460072e-003, 1.82590097e-001,
          6.35613427e-002, 1.11172803e-001, 8.01460072e-003,
          9.99920607e-001 ]
      - [ 3.13460708e-001, 7.53618916e-003, 2.99209096e-002,
          8.96134898e-002, 3.35845411e-001, 3.28383803e-001,
          5.74615717e-001, 2.99209096e-002, 1.94075495e-001,
          3.65691692e-001, 9.10386503e-001, 5.97672015e-002,
          4.48440500e-002, 5.23056313e-002, 3.95538002e-001,
          4.55230594e-001, 2.16460198e-001, 1.86613902e-001,
          5.97672015e-002, 4.47768986e-001, 2.99209096e-002,
          5.23056313e-002, 1.94075495e-001, 4.48440500e-002,
          1.19459800e-001, 1.19459800e-001, 1.41844496e-001,
          5.23056313e-002, 1.04536600e-001, 1.64229199e-001,
          2.99209096e-002, 2.46306494e-001, 6.11923575e-001,
          3.88076395e-001, 2.23921806e-001, 4.48440500e-002,
          7.46903419e-002, 3.28383803e-001, 7.46157311e-005,
          7.46903419e-002, 8.21519196e-002, 1.64229199e-001,
          5.23056313e-002, 1.49977598e-002, 2.61229694e-001,
          2.99209096e-002, 4.48440500e-002, 7.53618916e-003,
          4.48440500e-002, 8.21519196e-002, 2.31383398e-001,
          1.86613902e-001, 7.53618916e-003, 1.94075495e-001,
          7.46157311e-005, 1.19459800e-001, 1.64229199e-001,
          9.99925375e-001 ]
      - [ 3.75039101e-001, 7.82567933e-002, 6.26366809e-002,
          1.71977505e-001, 6.56201184e-001, 5.00000000e-001,
          6.71821296e-001, 2.50078112e-001, 2.81318307e-001,
          6.87441409e-001, 9.99843776e-001, 1.56201204e-004,
          7.82567933e-002, 3.43798786e-001, 8.43642592e-001,
          8.74882817e-001, 1.71977505e-001, 1.71977505e-001,
          1.25117198e-001, 9.37363327e-001, 2.50078112e-001,
          1.87597603e-001, 3.43798786e-001, 1.57763194e-002,
          4.84379888e-001, 3.43798786e-001, 3.90659213e-001,
          1.87597603e-001, 1.25117198e-001, 5.78100622e-001,
          1.57763194e-002, 9.38769132e-002, 4.53139603e-001,
          2.03217700e-001, 3.75039101e-001, 1.25117198e-001,
          2.50078112e-001, 9.21743214e-001, 1.71977505e-001,
          4.70165610e-002, 3.13964412e-002, 2.65698195e-001,
          1.87597603e-001, 9.37363327e-001, 2.50078112e-001,
          4.53139603e-001, 3.13964412e-002, 1.56357393e-001,
          2.96938509e-001, 6.26366809e-002, 1.56357393e-001,
          2.03217700e-001, 1.56357393e-001, 3.59418899e-001,
          3.12558591e-001, 1.57763194e-002, 6.26366809e-002,
          9.21743214e-001 ]
      - [ 1.36473805e-001, 9.10330191e-002, 6.07391708e-002,
          1.52983898e-002, 7.57497728e-001, 6.06028497e-001,
          7.27203906e-001, 2.42502302e-001, 3.93971503e-001,
          5.15146911e-001, 8.48379314e-001, 1.81914598e-001,
          1.81914598e-001, 2.42502302e-001, 6.51469290e-001,
          8.78673077e-001, 9.10330191e-002, 4.55922410e-002,
          3.48530710e-001, 9.99848485e-001, 6.07391708e-002,
          1.52983898e-002, 3.04453205e-002, 7.58861005e-002,
          4.24265414e-001, 2.57649213e-001, 2.72796094e-001,
          4.55922410e-002, 2.27355301e-001, 9.39260781e-001,
          2.12208405e-001, 2.57649213e-001, 5.00000000e-001,
          1.06179900e-001, 2.27355301e-001, 1.06179900e-001,
          3.78824592e-001, 8.48379314e-001, 3.18236887e-001,
          2.27355301e-001, 1.51469299e-004, 1.36473805e-001,
          6.07391708e-002, 1.81914598e-001, 6.66616201e-001,
          1.97061494e-001, 1.51620701e-001, 4.55922410e-002,
          1.66767597e-001, 7.58861005e-002, 4.69706088e-001,
          3.93971503e-001, 6.07391708e-002, 1.81914598e-001,
          1.52983898e-002, 5.00000000e-001, 1.21326901e-001,
          6.21175408e-001 ]
      - [ 3.44881088e-001, 3.44881088e-001, 1.55291304e-001,
          4.31058288e-001, 4.82764602e-001, 1.38055801e-001,
          3.62116486e-001, 4.13822800e-001, 1.74077898e-002,
          5.68941712e-001, 9.99827623e-001, 3.10410202e-001,
          2.24233001e-001, 3.79351914e-001, 4.48293686e-001,
          4.31058288e-001, 8.63495320e-002, 2.58703887e-001,
          4.13822800e-001, 3.44881088e-001, 6.91140965e-002,
          5.18786609e-002, 1.89762205e-001, 3.10410202e-001,
          3.62116486e-001, 1.03584997e-001, 6.91140965e-002,
          3.46432291e-002, 2.75939286e-001, 2.93174803e-001,
          1.20820403e-001, 5.51706314e-001, 7.06825197e-001,
          2.06997603e-001, 2.58703887e-001, 1.72526702e-001,
          8.63495320e-002, 1.72354397e-004, 5.68941712e-001,
          3.27645600e-001, 2.41468504e-001, 1.20820403e-001,
          1.72526702e-001, 2.06997603e-001, 2.06997603e-001,
          1.20820403e-001, 1.38055801e-001, 2.93174803e-001,
          1.38055801e-001, 8.63495320e-002, 3.46432291e-002,
          1.38055801e-001, 5.18786609e-002, 2.41468504e-001,
          6.91140965e-002, 3.10410202e-001, 1.03584997e-001,
          4.13822800e-001 ]
      - [ 3.96858096e-001, 2.06442401e-001, 1.90574393e-001,
          2.38178402e-001, 8.88765514e-001, 5.55537879e-001,
          9.99841273e-001, 6.36305884e-002, 7.94985667e-002,
          8.09425592e-001, 9.99841273e-001, 2.38178402e-001,
          1.58679803e-004, 3.18946391e-002, 4.12726104e-001,
          7.93557584e-001, 1.27102494e-001, 6.36305884e-002,
          6.36305884e-002, 9.83973324e-001, 1.11234501e-001,
          1.27102494e-001, 4.77626212e-002, 3.17518204e-001,
          1.58838496e-001, 3.80990207e-001, 2.22310394e-001,
          1.42970502e-001, 2.54046291e-001, 2.69914299e-001,
          1.90574393e-001, 4.28594112e-001, 3.49254191e-001,
          4.44462091e-001, 2.38178402e-001, 2.38178402e-001,
          3.49254191e-001, 7.45953679e-001, 5.07933974e-001,
          2.38178402e-001, 1.60266608e-002, 3.17518204e-001,
          2.85782307e-001, 6.36305884e-002, 4.92065996e-001,
          1.58838496e-001, 4.77626212e-002, 3.49254191e-001,
          3.18946391e-002, 1.27102494e-001, 2.54046291e-001,
          3.80990207e-001, 1.11234501e-001, 3.17518204e-001,
          7.94985667e-002, 1.58838496e-001, 7.94985667e-002,
          8.41161489e-001 ]
      - [ 2.75900692e-001, 3.45630087e-002, 8.70539621e-003,
          1.12135798e-001, 2.50043094e-001, 2.75900692e-001,
          6.72384083e-001, 1.12135798e-001, 9.48974267e-002,
          5.43096006e-001, 9.82675374e-001, 1.98327899e-001,
          7.76590183e-002, 1.89708695e-001, 2.32804701e-001,
          4.31046396e-001, 8.70539621e-003, 8.62782300e-002,
          1.46612704e-001, 9.99913812e-001, 4.31822091e-002,
          6.04206212e-002, 1.37993395e-001, 6.90398216e-002,
          4.31822091e-002, 3.10377508e-001, 2.15566307e-001,
          8.70539621e-003, 1.55231893e-001, 2.67281502e-001,
          1.12135798e-001, 6.90398216e-002, 6.72384083e-001,
          4.56903994e-001, 2.15566307e-001, 1.12135798e-001,
          2.59438008e-002, 2.41423905e-001, 1.98327899e-001,
          8.61920416e-005, 1.29374206e-001, 6.90398216e-002,
          9.48974267e-002, 4.05188799e-001, 1.20755002e-001,
          8.62782300e-002, 1.55231893e-001, 2.84519911e-001,
          6.90398216e-002, 1.03516601e-001, 1.63851097e-001,
          8.62782300e-002, 4.31822091e-002, 2.58662313e-001,
          1.46612704e-001, 7.76590183e-002, 1.12135798e-001,
          9.56817806e-001 ]
      - [ 2.26518303e-001, 2.45379105e-001, 3.01961511e-001,
          7.56318420e-002, 1.32214293e-001, 1.69935897e-001,
          5.67710288e-002, 1.88608101e-004, 1.88608101e-004,
          2.07657501e-001, 2.07657501e-001, 9.44926366e-002,
          9.44926366e-002, 1.13353498e-001, 6.41456127e-001,
          5.84873617e-001, 3.79102193e-002, 1.88796699e-001,
          1.88608101e-004, 2.45379105e-001, 1.51075095e-001,
          2.26518303e-001, 1.69935897e-001, 1.13353498e-001,
          4.71708804e-001, 1.69935897e-001, 3.77404809e-001,
          1.90494191e-002, 5.67710288e-002, 1.13353498e-001,
          5.67710288e-002, 3.01961511e-001, 5.67710288e-002,
          2.45379105e-001, 9.44926366e-002, 1.13353498e-001,
          5.67710288e-002, 6.60316885e-001, 9.99811411e-001,
          3.20822299e-001, 3.79102193e-002, 1.51075095e-001,
          3.20822299e-001, 6.22595191e-001, 1.90494191e-002,
          9.44926366e-002, 1.51075095e-001, 4.33987200e-001,
          2.26518303e-001, 5.67710288e-002, 3.79102193e-002,
          3.01961511e-001, 2.26518303e-001, 5.67710288e-002,
          2.64239907e-001, 3.77404809e-001, 7.56318420e-002,
          5.67710288e-002 ]
      - [ 9.40675497e-001, 1.33387595e-001, 7.40631003e-005,
          1.85231805e-001, 1.85231805e-001, 2.66701192e-001,
          6.74048305e-001, 2.00044394e-001, 1.40793994e-001,
          5.33328414e-001, 8.66612375e-001, 1.63012907e-001,
          7.48037314e-003, 3.33357990e-001, 8.66612375e-001,
          4.22233701e-001, 8.89497921e-002, 7.40631003e-005,
          1.33387595e-001, 9.99925911e-001, 1.70419201e-001,
          2.96992995e-002, 2.81513810e-001, 8.89497921e-002,
          1.48866801e-002, 2.66701192e-001, 1.11168697e-001,
          2.96992995e-002, 2.29669705e-001, 3.11139107e-001,
          9.63561013e-002, 2.88920194e-001, 7.55517721e-001,
          3.11139107e-001, 1.33387595e-001, 8.15434828e-002,
          2.00044394e-001, 3.40764314e-001, 3.48170608e-001,
          1.70419201e-001, 5.93245402e-002, 7.40631003e-005,
          5.19182310e-002, 5.33328414e-001, 2.22929902e-002,
          1.77825496e-001, 1.48866801e-002, 3.25951695e-001,
          1.33387595e-001, 1.48866801e-002, 1.63012907e-001,
          8.15434828e-002, 8.15434828e-002, 2.44482294e-001,
          2.22929902e-002, 4.45119217e-002, 1.48866801e-002,
          7.33298779e-001 ]
      - [ 5.05049527e-001, 5.05958386e-002, 1.41486600e-001,
          2.52575189e-001, 2.62674212e-001, 3.63663912e-001,
          7.57523715e-001, 8.08927491e-002, 3.03978994e-002,
          4.34356689e-001, 9.99899030e-001, 2.62674212e-001,
          1.31387606e-001, 7.07937777e-002, 2.72773206e-001,
          3.73762906e-001, 3.03978994e-002, 5.05958386e-002,
          4.04968709e-002, 7.47424781e-001, 8.08927491e-002,
          5.05958386e-002, 1.91981405e-001, 1.01999603e-002,
          3.13169092e-001, 2.62674212e-001, 5.05958386e-002,
          1.01999603e-002, 1.91981405e-001, 3.63663912e-001,
          4.04968709e-002, 1.61684498e-001, 8.18117619e-001,
          4.04059798e-001, 7.07937777e-002, 3.03978994e-002,
          4.04059798e-001, 1.91981405e-001, 6.76732004e-001,
          1.41486600e-001, 1.21288598e-001, 1.01090699e-001,
          5.65643311e-001, 1.21288598e-001, 1.00989702e-004,
          1.41486600e-001, 1.41486600e-001, 9.09917206e-002,
          2.52575189e-001, 3.03978994e-002, 2.12179393e-001,
          1.91981405e-001, 1.81882396e-001, 1.61684498e-001,
          3.03978994e-002, 2.02080399e-001, 1.61684498e-001,
          4.94950503e-001 ]
      - [ 3.14338803e-001, 3.42902005e-001, 3.14338803e-001,
          4.29877192e-002, 1.44244498e-002, 1.42816294e-004,
          7.71350980e-001, 1.85804099e-001, 1.28677502e-001,
          6.14253104e-001, 1.42959207e-001, 1.28677502e-001,
          5.72693497e-002, 4.29877192e-002, 9.42730606e-001,
          8.28477621e-001, 3.85746896e-001, 5.72693497e-002,
          1.42816294e-004, 4.57155108e-001, 4.29877192e-002,
          7.15509877e-002, 1.44244498e-002, 4.29877192e-002,
          7.57069409e-001, 5.71408212e-001, 1.28677502e-001,
          1.14395902e-001, 2.85775512e-001, 3.14338803e-001,
          4.29877192e-002, 2.87060793e-002, 8.28477621e-001,
          5.42844892e-001, 2.57212192e-001, 1.44244498e-002,
          1.28677502e-001, 2.00085700e-001, 9.99857187e-001,
          2.00085700e-001, 2.87060793e-002, 1.85804099e-001,
          1.14395902e-001, 2.71493912e-001, 4.29877192e-002,
          4.29877192e-002, 7.15509877e-002, 7.28506088e-001,
          2.87060793e-002, 7.15509877e-002, 3.28620404e-001,
          4.71436709e-001, 3.14338803e-001, 4.29877192e-002,
          5.72693497e-002, 5.42844892e-001, 1.28677502e-001,
          4.29877192e-002 ]
      - [ 2.22299397e-001, 1.80644304e-001, 4.17939499e-002,
          2.77839512e-001, 5.27770102e-001, 3.61149698e-001,
          9.16550994e-001, 1.40238795e-002, 4.17939499e-002,
          6.52735412e-001, 9.99861121e-001, 1.40238795e-002,
          6.95640072e-002, 8.47125828e-001, 7.22160518e-001,
          7.77700603e-001, 1.38989195e-001, 9.73340720e-002,
          4.17939499e-002, 9.44320977e-001, 4.86115009e-001,
          1.40238795e-002, 4.17939499e-002, 6.95640072e-002,
          5.00000000e-001, 3.05609614e-001, 1.80644304e-001,
          1.38850301e-004, 1.94529295e-001, 4.02804792e-001,
          3.88919711e-001, 1.25104100e-001, 1.25104100e-001,
          4.86115009e-001, 2.77839512e-001, 2.50069410e-001,
          3.05609614e-001, 9.99861121e-001, 8.88780892e-001,
          1.94529295e-001, 5.56789786e-002, 1.38850301e-004,
          4.17939499e-002, 1.66759193e-001, 5.00000000e-001,
          6.95640072e-002, 6.95640072e-002, 9.73340720e-002,
          8.34490433e-002, 1.38989195e-001, 1.40238795e-002,
          5.97195208e-001, 1.66759193e-001, 4.17939499e-002,
          1.52874202e-001, 3.47264588e-001, 5.56789786e-002,
          1.25104100e-001 ]
      - [ 1.53798799e-004, 3.09135709e-002, 2.92371601e-001,
          1.69332504e-001, 1.69332504e-001, 6.16733283e-002,
          5.53829610e-001, 4.61550295e-001, 9.24331024e-002,
          1.53952599e-001, 5.07689893e-001, 9.24331024e-002,
          4.62934487e-002, 1.69332504e-001, 9.99846220e-001,
          4.76930201e-001, 3.53891104e-001, 1.55336801e-002,
          1.55336801e-002, 9.99846220e-001, 3.69271010e-001,
          3.09135709e-002, 1.69332504e-001, 4.62934487e-002,
          5.53829610e-001, 6.76868677e-001, 1.69332504e-001,
          4.62934487e-002, 3.69271010e-001, 3.53891104e-001,
          4.62934487e-002, 1.55336801e-002, 4.46170390e-001,
          5.07689893e-001, 1.55336801e-002, 1.55336801e-002,
          1.55336801e-002, 1.53798799e-004, 5.84589422e-001,
          3.09135709e-002, 1.23192899e-001, 1.07813001e-001,
          7.70532116e-002, 1.84712395e-001, 1.84712395e-001,
          3.09135709e-002, 1.55336801e-002, 2.46231899e-001,
          1.84712395e-001, 4.62934487e-002, 1.38572693e-001,
          3.07751507e-001, 2.00092301e-001, 6.16733283e-002,
          7.70532116e-002, 3.53891104e-001, 1.55336801e-002,
          2.46231899e-001 ]
      - [ 5.61626971e-001, 2.46644795e-001, 3.56203794e-001,
          8.23062211e-002, 7.80745029e-001, 1.50780603e-001,
          6.30101323e-001, 5.49164601e-002, 1.36948802e-004,
          3.01424295e-001, 6.71185970e-001, 1.36948802e-004,
          1.37085706e-001, 1.36948802e-004, 5.20542324e-001,
          5.06847382e-001, 1.64475501e-001, 5.49164601e-002,
          2.19255000e-001, 9.99863088e-001, 2.75267102e-002,
          1.23390898e-001, 1.09696001e-001, 1.50780603e-001,
          1.50780603e-001, 3.56203794e-001, 3.15119088e-001,
          1.38318297e-002, 2.19255000e-001, 2.32949898e-001,
          2.19255000e-001, 6.30101323e-001, 4.52067912e-001,
          3.69898707e-001, 6.86113387e-002, 1.38318297e-002,
          2.75267102e-002, 6.16406500e-001, 4.24678206e-001,
          4.38372999e-001, 1.09696001e-001, 1.09696001e-001,
          1.78170398e-001, 1.36948802e-004, 4.93152589e-001,
          9.60011035e-002, 1.37085706e-001, 3.56203794e-001,
          4.12215814e-002, 4.12215814e-002, 2.60339588e-001,
          2.19255000e-001, 1.36948802e-004, 9.60011035e-002,
          1.36948802e-004, 2.74034500e-001, 1.36948802e-004,
          8.76609087e-001 ]
      - [ 2.85755098e-001, 7.62711912e-002, 6.67491928e-002,
          7.62711912e-002, 4.28584993e-001, 2.38145098e-001,
          6.57112896e-001, 1.52447194e-001, 1.52447194e-001,
          2.95277089e-001, 5.99981010e-001, 9.52199625e-005,
          3.81832011e-002, 1.42925203e-001, 2.38145098e-001,
          4.19063002e-001, 8.57931823e-002, 6.67491928e-002,
          1.33403197e-001, 9.99904811e-001, 1.42925203e-001,
          9.61721595e-003, 4.77051996e-002, 9.61721595e-003,
          1.23881198e-001, 3.23843092e-001, 3.81832011e-002,
          1.91392098e-002, 2.19101101e-001, 2.85755098e-001,
          1.71491101e-001, 4.66672987e-001, 4.76195008e-001,
          3.14321101e-001, 5.72271906e-002, 1.91392098e-002,
          1.04837202e-001, 7.23766923e-001, 9.14206803e-001,
          3.90496999e-001, 9.53151807e-002, 1.04837202e-001,
          4.77051996e-002, 2.28623107e-001, 3.23843092e-001,
          2.66711086e-001, 2.86612101e-002, 1.33403197e-001,
          1.91392098e-002, 5.72271906e-002, 2.57189095e-001,
          2.00057104e-001, 1.91392098e-002, 1.04837202e-001,
          4.77051996e-002, 2.09579095e-001, 9.53151807e-002,
          2.85755098e-001 ]
      - [ 4.35197204e-001, 1.57470807e-001, 2.78652105e-002,
          3.71227600e-002, 4.35197204e-001, 3.14849108e-001,
          5.09257495e-001, 5.56378402e-002, 3.71227600e-002,
          2.13016093e-001, 5.83317876e-001, 4.63803001e-002,
          1.86076704e-002, 9.25754503e-005, 3.33364189e-001,
          4.16682094e-001, 9.35012009e-003, 6.48953915e-002,
          6.48953915e-002, 9.99907374e-001, 2.78652105e-002,
          6.48953915e-002, 5.56378402e-002, 6.48953915e-002,
          4.63803001e-002, 1.20440699e-001, 1.11183099e-001,
          2.78652105e-002, 1.57470807e-001, 2.68561393e-001,
          3.24106604e-001, 1.57470807e-001, 4.07424599e-001,
          2.03758597e-001, 2.78652105e-002, 1.20440699e-001,
          1.86076704e-002, 7.22181082e-001, 7.68468797e-001,
          2.40788698e-001, 7.41529316e-002, 4.63803001e-002,
          1.01925597e-001, 2.22273707e-001, 4.72227395e-001,
          2.59303808e-001, 2.78652105e-002, 1.38955697e-001,
          1.85243502e-001, 5.56378402e-002, 3.05591613e-001,
          2.22273707e-001, 2.78652105e-002, 1.38955697e-001,
          2.78652105e-002, 5.56378402e-002, 6.48953915e-002,
          4.62969810e-001 ]
      - [ 5.18513918e-001, 3.08689207e-001, 1.24660600e-002,
          1.60577595e-001, 3.82744998e-001, 2.46976107e-001,
          8.27079713e-001, 1.24660600e-002, 1.24660600e-002,
          2.71661311e-001, 6.54282928e-001, 4.94939499e-002,
          1.85262904e-001, 2.46976107e-001, 1.48234993e-001,
          4.56800789e-001, 2.48086900e-002, 3.71513218e-002,
          1.60577595e-001, 8.39422405e-001, 2.22290799e-001,
          2.48086900e-002, 8.65218490e-002, 4.94939499e-002,
          1.60577595e-001, 1.23426304e-004, 1.97605506e-001,
          1.23549700e-001, 2.09948197e-001, 2.34633401e-001,
          1.72920302e-001, 2.34633401e-001, 5.06171286e-001,
          3.45717102e-001, 1.48234993e-001, 1.23426304e-004,
          9.88644809e-002, 9.99876618e-001, 6.41940296e-001,
          3.21031809e-001, 3.71513218e-002, 7.41792172e-002,
          1.85262904e-001, 8.65218490e-002, 5.80227077e-001,
          1.35892406e-001, 6.18365817e-002, 2.84003913e-001,
          3.71513218e-002, 2.09948197e-001, 1.48234993e-001,
          2.96346605e-001, 2.48086900e-002, 2.34633401e-001,
          1.48234993e-001, 1.11207098e-001, 4.94939499e-002,
          5.67884505e-001 ]
      - [ 7.40681291e-001, 2.22290799e-001, 9.88644809e-002,
          3.21031809e-001, 2.22290799e-001, 5.18513918e-001,
          5.55541813e-001, 6.18365817e-002, 8.65218490e-002,
          2.46976107e-001, 5.80227077e-001, 4.94939499e-002,
          2.34633401e-001, 3.45717102e-001, 2.46976107e-001,
          4.56800789e-001, 4.94939499e-002, 2.48086900e-002,
          7.41792172e-002, 9.50505972e-001, 6.18365817e-002,
          3.71513218e-002, 1.24660600e-002, 1.48234993e-001,
          1.11207098e-001, 1.35892406e-001, 1.97605506e-001,
          6.18365817e-002, 1.11207098e-001, 2.34633401e-001,
          7.41792172e-002, 4.19772893e-001, 9.88644809e-002,
          2.96346605e-001, 1.85262904e-001, 6.18365817e-002,
          4.94939499e-002, 9.87533927e-001, 9.99876618e-001,
          1.24660600e-002, 1.23426304e-004, 2.48086900e-002,
          1.35892406e-001, 1.85262904e-001, 5.55541813e-001,
          1.60577595e-001, 3.71513218e-002, 2.34633401e-001,
          1.60577595e-001, 4.94939499e-002, 2.96346605e-001,
          2.22290799e-001, 1.48234993e-001, 2.84003913e-001,
          1.23549700e-001, 6.18365817e-002, 3.71513218e-002,
          5.30856609e-001 ]
      - [ 8.09938014e-001, 3.80023986e-001, 2.10058004e-001,
          2.50050008e-001, 4.50010002e-001, 3.90022010e-001,
          4.70005989e-001, 5.00899814e-002, 1.20076001e-001,
          3.60027999e-001, 6.19975984e-001, 1.00979796e-002,
          2.00959798e-002, 8.19935977e-001, 6.79964006e-001,
          4.90002006e-001, 1.00979796e-002, 6.00879788e-002,
          8.00839812e-002, 9.00819823e-002, 2.80043989e-001,
          2.20055997e-001, 1.00079998e-001, 2.30054006e-001,
          5.00000000e-001, 2.10058004e-001, 9.99800031e-005,
          8.00839812e-002, 9.99800031e-005, 8.00839812e-002,
          1.00079998e-001, 2.30054006e-001, 1.00079998e-001,
          3.40032011e-001, 2.60048002e-001, 1.10078000e-001,
          3.10038000e-001, 5.99979997e-001, 5.39991975e-001,
          9.00819823e-002, 1.20076001e-001, 1.60068005e-001,
          2.00059995e-001, 4.00020003e-001, 5.00000000e-001,
          3.00939791e-002, 1.70065999e-001, 9.99899983e-001,
          5.00899814e-002, 1.60068005e-001, 2.70045996e-001,
          2.80043989e-001, 1.00979796e-002, 8.00839812e-002,
          1.00979796e-002, 1.60068005e-001, 9.99800031e-005,
          2.90042013e-001 ]
      - [ 9.76302922e-001, 1.33915901e-001, 9.45520401e-002,
          9.45520401e-002, 3.07116985e-001, 1.89025402e-001,
          5.43300271e-001, 1.49661496e-001, 6.30609393e-002,
          3.22862506e-001, 5.74791372e-001, 6.30609393e-002,
          7.95150362e-003, 5.03936410e-001, 7.63737977e-001,
          3.85844707e-001, 2.36970596e-002, 3.15698311e-002,
          7.87277604e-005, 7.88064897e-002, 1.96898103e-001,
          1.65407002e-001, 8.66792575e-002, 2.36970596e-002,
          4.25208598e-001, 2.99244195e-001, 7.95150362e-003,
          7.09337071e-002, 1.02424800e-001, 9.45520401e-002,
          1.33915901e-001, 2.52007604e-001, 1.58242807e-002,
          3.54353607e-001, 2.67753094e-001, 1.26043096e-001,
          2.36970596e-002, 6.69264674e-001, 9.99921322e-001,
          1.33915901e-001, 3.94426100e-002, 1.58242807e-002,
          2.20516503e-001, 2.59880304e-001, 3.22862506e-001,
          7.87277604e-005, 1.18170403e-001, 8.26720178e-001,
          7.95150362e-003, 8.66792575e-002, 1.57534197e-001,
          1.81152597e-001, 1.58242807e-002, 6.30609393e-002,
          7.09337071e-002, 7.88064897e-002, 4.73153815e-002,
          1.57534197e-001 ]
      - [ 1.59129605e-001, 1.19361401e-001, 1.07999101e-001,
          5.68117284e-005, 2.84115404e-001, 1.53448507e-001,
          1.93216696e-001, 2.27815006e-002, 1.30723804e-001,
          2.89796591e-001, 1.87535495e-001, 2.84626707e-002,
          2.84626707e-002, 7.95932263e-002, 2.04578996e-001,
          3.57970715e-001, 1.70491993e-001, 8.52743983e-002,
          7.39120618e-002, 5.85217595e-001, 1.36405006e-001,
          3.41438502e-002, 8.52743983e-002, 1.19361401e-001,
          4.26144809e-001, 6.24985814e-001, 9.09555703e-002,
          4.55061905e-002, 1.71003304e-002, 7.95932263e-002,
          1.30723804e-001, 1.30723804e-001, 1.19361401e-001,
          5.11873700e-002, 1.64810807e-001, 1.47767305e-001,
          1.30723804e-001, 5.56811690e-001, 9.99943197e-001,
          2.84626707e-002, 5.68117284e-005, 9.09555703e-002,
          2.32984900e-001, 4.94318813e-001, 2.50028402e-001,
          5.11873700e-002, 1.07999101e-001, 2.32984900e-001,
          6.82308823e-002, 9.09555703e-002, 8.52743983e-002,
          2.67071903e-001, 1.14191603e-002, 5.11873700e-002,
          5.11873700e-002, 1.70491993e-001, 3.98250185e-002,
          1.53448507e-001 ]
      - [ 1.17796898e-001, 4.70599800e-001, 3.33398700e-001,
          7.05801606e-001, 7.45001972e-001, 9.41003501e-001,
          9.99804020e-001, 5.49000382e-001, 1.56997293e-001,
          2.15797707e-001, 6.66601300e-001, 2.35397905e-001,
          2.15797707e-001, 8.62602890e-001, 1.17796898e-001,
          9.80203807e-001, 5.89964688e-002, 3.72599006e-001,
          3.93963195e-002, 5.09800076e-001, 3.52998793e-001,
          1.96197599e-001, 3.13798487e-001, 3.92199099e-001,
          4.90199894e-001, 4.90199894e-001, 2.74598211e-001,
          1.37397096e-001, 5.09800076e-001, 6.07800901e-001,
          1.17796898e-001, 4.31399494e-001, 2.15797707e-001,
          9.01803195e-001, 3.52998793e-001, 5.89964688e-002,
          1.96001594e-004, 3.72599006e-001, 3.92199099e-001,
          9.81967896e-002, 4.11799312e-001, 4.70599800e-001,
          6.66601300e-001, 2.54997998e-001, 7.85966292e-002,
          1.97961591e-002, 3.92199099e-001, 6.07800901e-001,
          1.37397096e-001, 3.93963195e-002, 6.66601300e-001,
          7.05801606e-001, 5.89964688e-002, 9.81967896e-002,
          1.97961591e-002, 2.74598211e-001, 5.89964688e-002,
          1.56997293e-001 ]
      - [ 1.38989195e-001, 1.66759193e-001, 1.94529295e-001,
          4.58344907e-001, 4.72229898e-001, 8.34490433e-002,
          8.19355726e-001, 6.95640072e-002, 2.50069410e-001,
          5.56789786e-002, 3.19494605e-001, 1.38989195e-001,
          4.17939499e-002, 8.19355726e-001, 7.77700603e-001,
          5.13885021e-001, 1.11219101e-001, 2.79089101e-002,
          1.52874202e-001, 4.02804792e-001, 3.05609614e-001,
          1.40238795e-002, 3.05609614e-001, 1.52874202e-001,
          4.02804792e-001, 1.94529295e-001, 3.61149698e-001,
          1.38850301e-004, 1.11219101e-001, 5.00000000e-001,
          1.38850301e-004, 2.77839512e-001, 5.13885021e-001,
          3.88919711e-001, 2.91724503e-001, 1.25104100e-001,
          2.08414301e-001, 2.79089101e-002, 9.99861121e-001,
          2.77839512e-001, 2.36184403e-001, 2.50069410e-001,
          5.55540085e-001, 5.56789786e-002, 1.38989195e-001,
          6.95640072e-002, 1.25104100e-001, 1.52874202e-001,
          3.88919711e-001, 4.17939499e-002, 2.91724503e-001,
          3.47264588e-001, 4.17939499e-002, 1.38989195e-001,
          1.11219101e-001, 4.30574805e-001, 1.52874202e-001,
          2.63954490e-001 ]
      - [ 9.99871790e-001, 2.94924408e-001, 2.05203801e-001,
          3.33376110e-001, 6.53806686e-001, 4.23096597e-001,
          8.46065104e-001, 1.28172294e-004, 3.33376110e-001,
          7.70315304e-002, 3.46193314e-001, 1.28300399e-001,
          2.30838194e-001, 6.66623890e-001, 2.57626195e-002,
          4.87182796e-001, 1.28300399e-001, 1.53934896e-001,
          2.57626195e-002, 2.18021005e-001, 1.66752100e-001,
          1.29453996e-002, 1.41117707e-001, 1.66752100e-001,
          3.97462189e-001, 1.02665998e-001, 2.30838194e-001,
          1.28300399e-001, 2.05203801e-001, 3.20558786e-001,
          5.13970815e-002, 3.07741612e-001, 5.13970815e-002,
          5.38451672e-001, 2.30838194e-001, 1.29453996e-002,
          2.43655503e-001, 6.92258418e-001, 8.98487568e-002,
          1.41117707e-001, 1.02665998e-001, 8.98487568e-002,
          4.35913891e-001, 1.79569304e-001, 3.07741612e-001,
          7.70315304e-002, 2.18021005e-001, 6.15355015e-001,
          3.85798514e-002, 1.29453996e-002, 1.53934896e-001,
          3.07741612e-001, 1.28172294e-004, 1.79569304e-001,
          2.57626195e-002, 1.29453996e-002, 6.42142966e-002,
          1.79569304e-001 ]
      - [ 9.99909878e-001, 2.79318988e-001, 9.01639313e-002,
          1.81048494e-002, 4.23437208e-001, 5.41343912e-002,
          3.42370689e-001, 3.61196212e-002, 1.17186099e-001,
          3.69392902e-001, 6.03584886e-001, 1.89245194e-001,
          9.00738596e-005, 4.41451997e-001, 2.25274697e-001,
          9.01639313e-002, 1.35200903e-001, 9.00738596e-005,
          2.61304289e-001, 4.14429814e-001, 3.61196212e-002,
          6.31417781e-002, 1.26193494e-001, 1.81048494e-002,
          5.13511121e-001, 7.20681012e-001, 9.91713181e-002,
          7.21491575e-002, 3.61196212e-002, 2.71122307e-002,
          1.81048494e-002, 1.89245194e-001, 2.07259998e-001,
          1.35200903e-001, 1.26193494e-001, 2.61304289e-001,
          9.09745973e-003, 5.22518516e-001, 3.61196212e-002,
          3.24355990e-001, 4.51270007e-002, 4.51270007e-002,
          4.14429814e-001, 9.27850783e-001, 5.41343912e-002,
          2.71122307e-002, 2.34282106e-001, 6.21599674e-001,
          2.25274697e-001, 5.41343912e-002, 6.31417781e-002,
          2.61304289e-001, 8.11565518e-002, 1.17186099e-001,
          7.21491575e-002, 1.98252603e-001, 1.98252603e-001,
          7.02666223e-001 ]
      - [ 7.56344497e-001, 3.84644985e-001, 1.41117707e-001,
          2.82107204e-001, 4.61548299e-001, 1.41117707e-001,
          3.20558786e-001, 2.57626195e-002, 1.28172294e-004,
          6.42142966e-002, 5.38451672e-001, 2.30838194e-001,
          2.18021005e-001, 8.98487568e-002, 3.07741612e-001,
          1.02665998e-001, 1.28300399e-001, 6.42142966e-002,
          1.92386597e-001, 9.74237382e-001, 1.02665998e-001,
          2.57626195e-002, 2.18021005e-001, 3.84644985e-001,
          6.53806686e-001, 7.30710089e-001, 1.79569304e-001,
          1.02665998e-001, 1.15483202e-001, 3.84644985e-001,
          3.85798514e-002, 3.59010488e-001, 4.74365503e-001,
          2.56472707e-001, 1.41117707e-001, 2.69289911e-001,
          3.07741612e-001, 9.99871790e-001, 5.12817204e-001,
          5.00000000e-001, 5.13970815e-002, 2.57626195e-002,
          7.05075622e-001, 1.53934896e-001, 1.66752100e-001,
          5.13970815e-002, 3.20558786e-001, 4.74365503e-001,
          4.35913891e-001, 2.82107204e-001, 1.79569304e-001,
          5.38451672e-001, 1.92386597e-001, 1.28300399e-001,
          5.13970815e-002, 2.94924408e-001, 1.66752100e-001,
          4.35913891e-001 ]
      - [ 9.06612515e-001, 2.00039998e-001, 7.33902082e-002,
          2.00639907e-002, 3.53352904e-001, 1.60045296e-001,
          1.60045296e-001, 1.26716405e-001, 4.67270985e-002,
          5.33928797e-002, 3.13358188e-001, 3.33955511e-002,
          6.73243590e-003, 4.60005313e-001, 2.66697794e-001,
          1.53379500e-001, 1.00053303e-001, 6.73243590e-003,
          1.00053303e-001, 2.00039998e-001, 1.20050699e-001,
          1.60045296e-001, 2.00639907e-002, 8.67217705e-002,
          2.53366202e-001, 1.73376903e-001, 6.66577835e-005,
          2.67297700e-002, 3.33955511e-002, 2.06705794e-001,
          1.60045296e-001, 1.80042699e-001, 3.33955511e-002,
          1.20050699e-001, 1.00053303e-001, 1.86708406e-001,
          8.67217705e-002, 9.99933302e-001, 7.66631126e-001,
          3.06692392e-001, 2.67297700e-002, 4.00613286e-002,
          2.60031998e-001, 3.93347591e-001, 3.66684407e-001,
          6.73243590e-003, 1.93374202e-001, 1.66711107e-001,
          1.46713793e-001, 1.00053303e-001, 3.33955511e-002,
          2.86695093e-001, 6.66577835e-005, 1.33982096e-002,
          6.00586608e-002, 8.00559893e-002, 1.26716405e-001,
          2.53366202e-001 ]
      - [ 2.57649213e-001, 1.81914598e-001, 2.72796094e-001,
          5.00000000e-001, 4.54559207e-001, 5.60587704e-001,
          9.84701574e-001, 1.52983898e-002, 9.10330191e-002,
          6.66616201e-001, 9.99848485e-001, 1.51620701e-001,
          7.58861005e-002, 2.27355301e-001, 4.84853089e-001,
          7.87791610e-001, 4.55922410e-002, 3.33383799e-001,
          7.58861005e-002, 1.06179900e-001, 3.04453205e-002,
          1.51469299e-004, 1.36473805e-001, 1.81914598e-001,
          5.45440793e-001, 5.00000000e-001, 9.10330191e-002,
          1.52983898e-002, 1.81914598e-001, 2.72796094e-001,
          1.21326901e-001, 7.58861005e-002, 6.36322320e-001,
          6.21175408e-001, 2.27355301e-001, 6.07391708e-002,
          1.97061494e-001, 7.27203906e-001, 4.09118414e-001,
          1.06179900e-001, 1.51620701e-001, 1.06179900e-001,
          2.27355301e-001, 5.60587704e-001, 4.24265414e-001,
          3.04453205e-002, 1.52983898e-002, 3.33383799e-001,
          6.07391708e-002, 7.58861005e-002, 2.27355301e-001,
          5.45440793e-001, 1.06179900e-001, 6.07391708e-002,
          1.52983898e-002, 1.51469299e-004, 1.21326901e-001,
          3.78824592e-001 ]
      - [ 9.09834579e-002, 1.36429697e-001, 2.73586605e-002,
          1.00072697e-001, 1.18251197e-001, 1.00072697e-001,
          6.18160307e-001, 6.37156889e-002, 7.28049427e-002,
          2.36411601e-001, 5.63624799e-001, 5.46264313e-002,
          8.18941966e-002, 1.00072697e-001, 3.00036401e-001,
          3.45482588e-001, 2.72768587e-001, 1.82694104e-002,
          9.18014906e-003, 8.18941966e-002, 4.55371812e-002,
          7.28049427e-002, 7.28049427e-002, 9.18014906e-003,
          2.27322295e-001, 3.72750401e-001, 1.00072697e-001,
          2.73586605e-002, 1.45519003e-001, 9.09834579e-002,
          1.45519003e-001, 2.90947109e-001, 2.27322295e-001,
          5.72714090e-001, 9.09834579e-002, 7.28049427e-002,
          2.73586605e-002, 5.46264313e-002, 5.63624799e-001,
          2.73586605e-002, 6.37156889e-002, 1.00072697e-001,
          1.72786802e-001, 9.99909103e-001, 9.18014906e-003,
          5.46264313e-002, 1.81876004e-001, 6.36338770e-001,
          1.90965295e-001, 9.18014906e-003, 9.08925576e-005,
          1.72786802e-001, 9.18014906e-003, 1.82694104e-002,
          1.82694104e-002, 3.27304095e-001, 1.36429697e-001,
          5.09089291e-001 ]
      - [ 5.99971414e-001, 2.00085700e-001, 1.71522394e-001,
          3.71465296e-001, 1.71522394e-001, 4.28591788e-001,
          8.99885714e-001, 3.28620404e-001, 1.14395902e-001,
          9.99857187e-001, 9.99857187e-001, 2.00085700e-001,
          2.87060793e-002, 6.85661197e-001, 6.57097995e-001,
          9.42730606e-001, 4.29877192e-002, 1.85804099e-001,
          3.28620404e-001, 2.42930606e-001, 5.71408212e-001,
          2.87060793e-002, 2.14367300e-001, 1.44244498e-002,
          8.58326182e-002, 2.28649005e-001, 5.72693497e-002,
          1.44244498e-002, 1.71522394e-001, 3.28620404e-001,
          1.42816294e-004, 3.42902005e-001, 8.85604084e-001,
          4.28591788e-001, 2.00085700e-001, 1.57240793e-001,
          1.42816294e-004, 6.71379626e-001, 3.71465296e-001,
          1.71522394e-001, 1.00114301e-001, 1.44244498e-002,
          2.87060793e-002, 4.28591788e-001, 5.28563321e-001,
          1.00114301e-001, 1.42959207e-001, 2.85775512e-001,
          5.72693497e-002, 1.57240793e-001, 2.00085700e-001,
          1.71522394e-001, 2.87060793e-002, 3.14338803e-001,
          1.00114301e-001, 2.28649005e-001, 1.00114301e-001,
          7.85632730e-001 ]
      - [ 8.73605609e-001, 1.57966703e-001, 2.21111298e-001,
          1.26394406e-001, 7.37739429e-002, 2.94779986e-001,
          1.05241001e-004, 3.16775404e-002, 1.89539000e-001,
          6.31551325e-001, 6.10503078e-001, 1.79014906e-001,
          1.05346203e-001, 1.26394406e-001, 9.68322515e-001,
          5.99978983e-001, 1.68490797e-001, 1.47442594e-001,
          1.79014906e-001, 9.99894798e-001, 1.57966703e-001,
          1.15870297e-001, 2.21111298e-001, 7.37739429e-002,
          1.05346203e-001, 1.79014906e-001, 3.05304110e-001,
          1.05241001e-004, 2.42159501e-001, 1.15870297e-001,
          5.27257398e-002, 4.84213799e-001, 6.10503078e-001,
          2.31635407e-001, 1.47442594e-001, 7.37739429e-002,
          1.06293401e-002, 2.31635407e-001, 8.10460985e-001,
          2.31635407e-001, 8.42980370e-002, 4.22016382e-002,
          1.05346203e-001, 5.57882607e-001, 1.06293401e-002,
          5.27257398e-002, 1.26394406e-001, 3.26352298e-001,
          8.42980370e-002, 1.15870297e-001, 4.22016382e-002,
          2.84255892e-001, 1.05346203e-001, 1.68490797e-001,
          6.32498413e-002, 2.63207704e-001, 1.79014906e-001,
          8.10460985e-001 ]
      - [ 5.77911973e-001, 5.84989004e-002, 1.62381500e-001,
          1.94844797e-001, 6.49915636e-002, 2.79249400e-001,
          5.38955986e-001, 3.90209109e-002, 9.74548832e-002,
          5.00000000e-001, 8.44111204e-001, 2.07830206e-001,
          1.23425499e-001, 1.81859493e-001, 6.29853308e-001,
          4.48058695e-001, 1.95429195e-002, 5.20062298e-002,
          2.40293503e-001, 7.46721208e-001, 9.09622088e-002,
          2.60355808e-002, 2.33800799e-001, 5.84989004e-002,
          1.49396196e-001, 3.57161403e-001, 3.24698091e-001,
          6.49915636e-002, 9.74548832e-002, 3.11712801e-001,
          1.30502498e-002, 1.55888796e-001, 6.68809175e-001,
          2.85742104e-001, 7.79768899e-002, 9.09622088e-002,
          6.49915636e-002, 1.16932899e-001, 3.25282402e-002,
          8.44695494e-002, 6.49266294e-005, 7.79768899e-002,
          9.74548832e-002, 4.67536688e-001, 8.44695494e-002,
          7.14842230e-002, 5.84989004e-002, 3.70146692e-001,
          1.29918203e-001, 2.60355808e-002, 2.14322805e-001,
          4.55135703e-002, 6.49266294e-005, 2.01337501e-001,
          1.30502498e-002, 1.30502498e-002, 1.42903507e-001,
          9.99935091e-001 ]
      - [ 3.63661200e-001, 1.81876004e-001, 1.81876004e-001,
          8.18941966e-002, 2.90947109e-001, 3.27304095e-001,
          3.18214893e-001, 5.46264313e-002, 1.00072697e-001,
          8.18941966e-002, 3.63661200e-001, 2.73586605e-002,
          4.55371812e-002, 6.09071076e-001, 9.99909103e-001,
          3.45482588e-001, 1.27340496e-001, 8.18941966e-002,
          4.55371812e-002, 8.18123996e-001, 2.54590094e-001,
          9.18014906e-003, 7.28049427e-002, 1.18251197e-001,
          2.81857789e-001, 1.63697496e-001, 1.36429697e-001,
          4.55371812e-002, 2.45500803e-001, 2.36411601e-001,
          2.18233004e-001, 3.36393386e-001, 9.08925576e-005,
          2.54590094e-001, 1.81876004e-001, 1.90965295e-001,
          1.81876004e-001, 4.54553694e-001, 4.54553694e-001,
          8.18941966e-002, 6.37156889e-002, 1.36429697e-001,
          4.36375201e-001, 2.72768587e-001, 9.18014906e-003,
          9.08925576e-005, 2.18233004e-001, 1.45519003e-001,
          1.63697496e-001, 4.55371812e-002, 3.00036401e-001,
          1.63697496e-001, 1.36429697e-001, 9.18014906e-003,
          1.09162003e-001, 3.00036401e-001, 9.09834579e-002,
          5.09089291e-001 ]
      - [ 3.82629097e-001, 2.61693597e-002, 2.43522897e-001,
          1.82663903e-001, 1.91358000e-001, 2.52216995e-001,
          9.57224816e-002, 5.22517785e-002, 1.13110803e-001,
          1.56581506e-001, 5.22517785e-002, 1.91358000e-001,
          1.30499005e-001, 6.26065016e-001, 9.99913096e-001,
          2.08746299e-001, 4.35576402e-002, 8.69413998e-005,
          8.69413998e-005, 8.34724426e-001, 3.13075989e-001,
          5.22517785e-002, 5.22517785e-002, 1.39193207e-001,
          2.78299391e-001, 3.48635018e-002, 1.82663903e-001,
          8.69413998e-005, 2.00052202e-001, 3.13075989e-001,
          3.48635018e-002, 1.30499005e-001, 7.83341974e-002,
          3.65240812e-001, 1.65275604e-001, 8.70283395e-002,
          2.69605309e-001, 9.57224816e-002, 1.91358000e-001,
          5.22517785e-002, 1.65275604e-001, 1.82663903e-001,
          4.17405695e-001, 3.82629097e-001, 2.69605309e-001,
          5.22517785e-002, 1.56581506e-001, 2.08746299e-001,
          1.30499005e-001, 8.69413998e-005, 3.65240812e-001,
          2.00052202e-001, 6.96400627e-002, 4.35576402e-002,
          3.48635018e-002, 3.56546700e-001, 1.74752194e-002,
          3.65240812e-001 ]
      - [ 9.47041288e-002, 2.71548200e-002, 1.35098599e-004,
          4.06646915e-002, 1.75763294e-001, 2.71548200e-002,
          9.86355007e-001, 2.70332307e-001, 1.21723898e-001,
          3.10861886e-001, 6.89138114e-001, 2.71548200e-002,
          4.06646915e-002, 1.89273193e-001, 7.83707082e-001,
          5.27019680e-001, 2.16292903e-001, 2.71548200e-002,
          1.21723898e-001, 6.62118316e-001, 2.71548200e-002,
          2.71548200e-002, 9.47041288e-002, 4.06646915e-002,
          5.67549288e-001, 3.78411204e-001, 8.11942667e-002,
          1.35098599e-004, 2.02783003e-001, 3.91921103e-001,
          1.89273193e-001, 3.37881714e-001, 2.56822497e-001,
          9.99864876e-001, 9.47041288e-002, 1.21723898e-001,
          1.35098599e-004, 8.11942667e-002, 6.89138114e-001,
          9.47041288e-002, 4.06646915e-002, 1.21723898e-001,
          1.35098599e-004, 5.40529609e-001, 1.21723898e-001,
          4.06646915e-002, 1.89273193e-001, 2.70332307e-001,
          2.71548200e-002, 4.06646915e-002, 5.41745499e-002,
          5.00000000e-001, 1.35233700e-001, 2.71548200e-002,
          1.35098599e-004, 2.70332307e-001, 2.29802802e-001,
          1.21723898e-001 ]
      - [ 3.88093114e-001, 2.99910493e-002, 1.04595602e-001,
          5.98328896e-002, 8.20799828e-001, 5.96985996e-001,
          8.35720718e-001, 5.98328896e-002, 4.92539495e-001,
          7.61116087e-001, 8.80483389e-001, 2.83646703e-001,
          1.50701301e-002, 1.94121197e-001, 2.83646703e-001,
          9.84929919e-001, 4.49119695e-002, 4.49119695e-002,
          4.49119695e-002, 9.99850810e-001, 1.50701301e-002,
          1.19516604e-001, 4.49119695e-002, 8.96747187e-002,
          1.64279297e-001, 1.49209198e-004, 2.23963007e-001,
          8.96747187e-002, 5.98328896e-002, 4.77618605e-001,
          4.49119695e-002, 1.79200202e-001, 2.38883898e-001,
          3.28409404e-001, 2.98567593e-001, 2.23963007e-001,
          1.49358407e-001, 6.26827776e-001, 7.61116087e-001,
          1.34437501e-001, 1.50701301e-002, 1.79200202e-001,
          8.96747187e-002, 2.99910493e-002, 3.13488513e-001,
          2.83646703e-001, 1.34437501e-001, 7.47537985e-002,
          5.98328896e-002, 4.49119695e-002, 4.62697715e-001,
          7.47537985e-002, 1.04595602e-001, 2.23963007e-001,
          1.94121197e-001, 1.50701301e-002, 5.98328896e-002,
          3.43330294e-001 ]
      - [ 7.04514503e-001, 1.59142599e-001, 1.06120303e-001,
          2.27995794e-002, 2.12164804e-001, 3.03060114e-001,
          1.21269502e-001, 1.97015598e-001, 1.28844097e-001,
          4.46977705e-001, 7.65035581e-003, 4.55234088e-002,
          3.79487984e-002, 4.09104705e-001, 8.02984416e-001,
          5.07574618e-001, 1.66717201e-001, 1.52249699e-002,
          1.21269502e-001, 9.99924302e-001, 2.80336291e-001,
          3.79487984e-002, 1.36418700e-001, 5.30980192e-002,
          2.42463306e-001, 4.69701588e-001, 3.79487984e-002,
          2.27995794e-002, 2.34888703e-001, 6.36343002e-001,
          2.19739407e-001, 1.97015598e-001, 7.49962091e-001,
          7.57461021e-005, 1.74291804e-001, 7.58218467e-002,
          3.03741898e-002, 3.03741898e-002, 4.31828499e-001,
          8.33964571e-002, 3.03741898e-002, 1.43993303e-001,
          7.57461021e-005, 6.06044471e-001, 7.65035581e-003,
          2.19739407e-001, 1.52249699e-002, 5.30980192e-002,
          1.06120303e-001, 3.79487984e-002, 4.09104705e-001,
          2.12164804e-001, 1.36418700e-001, 4.55234088e-002,
          9.85456705e-002, 3.03060114e-001, 5.30980192e-002,
          1.89440995e-001 ]
      - [ 5.41166782e-001, 5.89273088e-002, 8.24511871e-002,
          4.71653715e-002, 9.42131281e-002, 9.42131281e-002,
          3.54034305e-002, 3.52975786e-001, 4.71653715e-002,
          6.47024214e-001, 1.88308597e-001, 9.42131281e-002,
          3.54034305e-002, 3.29451889e-001, 9.52834606e-001,
          5.76452613e-001, 1.29498899e-001, 9.42131281e-002,
          4.71653715e-002, 5.64690709e-001, 1.05975099e-001,
          1.18795596e-002, 1.41260907e-001, 1.17619398e-004,
          2.23594397e-001, 5.89273088e-002, 1.17737003e-001,
          9.42131281e-002, 4.35309291e-001, 1.88308597e-001,
          7.06892535e-002, 3.52975786e-001, 1.17619398e-004,
          2.35356405e-001, 7.06892535e-002, 5.89273088e-002,
          1.05975099e-001, 1.17619398e-004, 9.99882400e-001,
          1.64784804e-001, 1.17619398e-004, 7.06892535e-002,
          8.24511871e-002, 2.23594397e-001, 1.05975099e-001,
          8.24511871e-002, 1.17619398e-004, 4.23547387e-001,
          4.71653715e-002, 5.89273088e-002, 3.88261586e-001,
          1.64784804e-001, 4.71653715e-002, 1.17619398e-004,
          5.89273088e-002, 3.76499593e-001, 2.36415006e-002,
          3.88261586e-001 ]
      - [ 8.42072487e-001, 3.83216888e-002, 1.44005399e-002,
          1.43574804e-001, 1.91847701e-002, 1.48359001e-001,
          3.87570590e-001, 9.57324728e-002, 8.61639977e-002,
          4.21060205e-001, 6.12429380e-001, 1.38790503e-001,
          4.78901491e-002, 2.10554004e-001, 5.11960626e-001,
          3.25375587e-001, 7.18113109e-002, 8.13797712e-002,
          2.05769807e-001, 5.69371402e-001, 8.13797712e-002,
          4.78423099e-005, 1.57927498e-001, 2.39690002e-002,
          1.91847701e-002, 3.15807104e-001, 2.15338200e-001,
          3.35374586e-002, 1.67495906e-001, 1.72280207e-001,
          8.13797712e-002, 2.44043604e-001, 3.87570590e-001,
          2.48827904e-001, 7.18113109e-002, 1.00516699e-001,
          9.61630512e-003, 1.10085197e-001, 5.59802890e-001,
          1.48359001e-001, 4.31059189e-002, 4.83207311e-003,
          3.35374586e-002, 3.20591301e-001, 3.83216888e-002,
          9.61630512e-003, 9.09482315e-002, 1.77064404e-001,
          7.18113109e-002, 7.18113109e-002, 1.14869401e-001,
          1.91847701e-002, 2.39690002e-002, 1.57927498e-001,
          7.18113109e-002, 1.14869401e-001, 1.14869401e-001,
          9.99952197e-001 ]
      - [ 7.10792601e-001, 4.83016111e-002, 3.85569692e-001,
          1.08528100e-001, 1.44663900e-001, 1.32618606e-001,
          4.83016111e-002, 1.32618606e-001, 1.80799797e-001,
          3.25343311e-001, 1.21657401e-002, 8.44374821e-002,
          8.44374821e-002, 6.03469014e-002, 9.99879479e-001,
          3.97614986e-001, 4.69886810e-001, 1.21657401e-002,
          2.89207399e-001, 5.30113220e-001, 2.42110305e-002,
          1.21657401e-002, 1.21657401e-002, 1.56709194e-001,
          3.49433899e-001, 7.23921880e-002, 2.65116811e-001,
          1.92845106e-001, 1.92845106e-001, 1.68754503e-001,
          7.23921880e-002, 3.62563208e-002, 1.08528100e-001,
          2.77162105e-001, 1.44663900e-001, 1.20452904e-004,
          3.62563208e-002, 4.81932104e-001, 7.10792601e-001,
          2.42110305e-002, 7.23921880e-002, 8.44374821e-002,
          6.03469014e-002, 9.64827836e-002, 7.23921880e-002,
          8.44374821e-002, 3.62563208e-002, 1.32618606e-001,
          2.41026297e-001, 3.62563208e-002, 6.03469014e-002,
          2.04890400e-001, 1.08528100e-001, 6.03469014e-002,
          1.80799797e-001, 4.21705604e-001, 8.44374821e-002,
          6.03469014e-002 ]
      - [ 4.62509394e-001, 3.76156010e-002, 1.25093699e-001,
          2.51187198e-002, 8.76030996e-002, 2.50062495e-001,
          9.24893796e-001, 2.51187198e-002, 1.37590602e-001,
          1.12596899e-001, 9.99875009e-001, 2.25068703e-001,
          3.76156010e-002, 1.12596899e-001, 5.99974990e-001,
          2.75056213e-001, 2.25068703e-001, 7.51062185e-002,
          8.76030996e-002, 6.87453091e-001, 5.01124710e-002,
          2.51187198e-002, 1.26218405e-002, 8.76030996e-002,
          3.25043708e-001, 2.00075001e-001, 1.87578097e-001,
          6.26093522e-002, 1.50087506e-001, 2.12571904e-001,
          2.51187198e-002, 7.51062185e-002, 4.12521899e-001,
          4.37515587e-001, 3.76156010e-002, 1.62584394e-001,
          7.51062185e-002, 3.87528092e-001, 7.62434423e-001,
          1.24968807e-004, 8.76030996e-002, 1.26218405e-002,
          6.26093522e-002, 5.62484384e-001, 8.76030996e-002,
          1.62584394e-001, 1.24968807e-004, 2.51187198e-002,
          1.87578097e-001, 8.76030996e-002, 2.62559414e-001,
          1.37590602e-001, 6.26093522e-002, 1.37590602e-001,
          5.01124710e-002, 3.00049990e-001, 2.51187198e-002,
          6.99949980e-001 ]
      - [ 8.58617723e-001, 3.26124787e-001, 1.30515099e-001,
          1.09758703e-002, 9.79135036e-002, 3.58726412e-001,
          3.91328007e-001, 1.19647898e-001, 1.19647898e-001,
          3.80460799e-001, 9.99891281e-001, 3.36991996e-001,
          2.18430795e-002, 9.79135036e-002, 8.69484901e-001,
          6.95609689e-001, 5.44446893e-002, 1.30515099e-001,
          1.63116693e-001, 8.91219318e-001, 2.18430795e-002,
          1.95718303e-001, 4.02195185e-001, 8.70462880e-002,
          7.61790872e-002, 5.43468773e-001, 3.26124787e-001,
          1.84851095e-001, 3.04390311e-001, 3.80460799e-001,
          8.70462880e-002, 1.19647898e-001, 1.19647898e-001,
          2.50054300e-001, 1.84851095e-001, 3.27102803e-002,
          3.04390311e-001, 1.30515099e-001, 7.49945700e-001,
          1.30515099e-001, 1.08672000e-004, 5.44446893e-002,
          1.08780697e-001, 5.32601595e-001, 6.53118864e-002,
          6.53118864e-002, 1.73983902e-001, 2.28319898e-001,
          1.95718303e-001, 7.61790872e-002, 1.52249500e-001,
          1.30515099e-001, 3.27102803e-002, 1.52249500e-001,
          1.63116693e-001, 2.06585497e-001, 6.53118864e-002,
          6.63007975e-001 ]
      - [ 5.99977791e-001, 2.55609900e-001, 1.12197297e-002,
          1.44523397e-001, 2.11175293e-001, 2.33392596e-001,
          2.23283693e-002, 3.00044388e-001, 1.22306198e-001,
          2.88935810e-001, 4.11130905e-001, 2.11175293e-001,
          3.34370099e-002, 6.67629391e-002, 4.22239512e-001,
          3.88913602e-001, 1.77849397e-001, 1.11086403e-004,
          1.00088902e-001, 9.99888897e-001, 2.23283693e-002,
          7.78715834e-002, 3.22261691e-001, 3.34370099e-002,
          4.45456617e-002, 2.11175293e-001, 2.11175293e-001,
          4.45456617e-002, 1.77849397e-001, 1.88958004e-001,
          1.77849397e-001, 1.00088902e-001, 2.22283900e-001,
          1.12197297e-002, 1.88958004e-001, 7.78715834e-002,
          2.55609900e-001, 6.67629391e-002, 7.77716100e-001,
          1.00088902e-001, 5.56542985e-002, 1.33414805e-001,
          2.55609900e-001, 5.44434607e-001, 1.88958004e-001,
          5.56542985e-002, 6.67629391e-002, 3.34370099e-002,
          5.56542985e-002, 2.23283693e-002, 1.66740701e-001,
          1.12197297e-002, 1.12197297e-002, 6.67629391e-002,
          1.66740701e-001, 3.88913602e-001, 2.23283693e-002,
          1.77849397e-001 ]
      - [ 4.22696412e-001, 4.13316786e-002, 1.23788901e-001,
          2.06246093e-001, 2.16553301e-001, 3.40239108e-001,
          2.57781893e-001, 1.04102204e-002, 1.75324693e-001,
          5.25767922e-001, 1.85631797e-001, 1.03071499e-004,
          2.47474700e-001, 4.53617811e-001, 8.14368188e-001,
          5.77303588e-001, 1.13481797e-001, 1.04102204e-002,
          1.75324693e-001, 9.99896884e-001, 3.19624811e-001,
          7.22531378e-002, 6.19459897e-002, 6.19459897e-002,
          3.19624811e-001, 8.65903914e-001, 3.10245305e-002,
          1.23788901e-001, 2.68089086e-001, 2.88703412e-001,
          9.28674489e-002, 5.15460730e-001, 1.23788901e-001,
          2.06246093e-001, 2.68089086e-001, 1.34096101e-001,
          2.07173806e-002, 5.97917974e-001, 2.99010485e-001,
          3.40239108e-001, 8.25603008e-002, 3.10245305e-002,
          1.13481797e-001, 5.46382189e-001, 2.78396189e-001,
          1.23788901e-001, 1.04102204e-002, 7.22531378e-002,
          1.04102204e-002, 1.04102204e-002, 3.50546300e-001,
          2.06246093e-001, 2.07173806e-002, 1.03174597e-001,
          3.10245305e-002, 1.95939004e-001, 1.03174597e-001,
          2.78396189e-001 ]
      - [ 4.61546898e-001, 4.40562516e-002, 1.42935604e-001,
          2.41815001e-001, 2.85761386e-001, 1.42935604e-001,
          8.46077800e-001, 1.09975800e-001, 2.41815001e-001,
          5.38453102e-001, 9.99890089e-001, 3.30696590e-002,
          5.50428517e-002, 4.83520091e-001, 8.80026370e-002,
          5.71412921e-001, 7.70160407e-002, 3.30696590e-002,
          8.80026370e-002, 5.27466476e-001, 3.07734609e-001,
          7.70160407e-002, 1.20962404e-001, 2.19841793e-001,
          2.85761386e-001, 9.89892334e-002, 1.09975800e-001,
          1.09866000e-004, 2.63788193e-001, 1.20962404e-001,
          1.31948993e-001, 2.85761386e-001, 4.83520091e-001,
          4.06613886e-001, 2.19841793e-001, 6.60294369e-002,
          5.50428517e-002, 4.40562516e-002, 6.37332499e-001,
          1.86882004e-001, 1.31948993e-001, 9.89892334e-002,
          1.09975800e-001, 6.59305573e-001, 4.40562516e-002,
          6.60294369e-002, 2.41815001e-001, 2.30828404e-001,
          3.30696590e-002, 1.09866000e-004, 6.60294369e-002,
          3.18721205e-001, 1.09866000e-004, 5.50428517e-002,
          4.40562516e-002, 3.30696590e-002, 3.30696590e-002,
          2.41815001e-001 ]
      - [ 5.21729708e-001, 1.30595401e-001, 1.74054801e-001,
          2.82703191e-001, 1.52325094e-001, 2.17296794e-004,
          5.65189004e-001, 3.26162487e-001, 1.08865701e-001,
          1.08865701e-001, 8.47674906e-001, 2.19469797e-002,
          1.52325094e-001, 2.60973513e-001, 7.82485902e-001,
          7.17296779e-001, 7.17296779e-001, 2.17514098e-001,
          2.19469797e-002, 5.86918712e-001, 3.04432899e-001,
          8.71360302e-002, 3.91351610e-001, 1.30595401e-001,
          2.39243805e-001, 8.25945199e-001, 4.34810996e-001,
          1.30595401e-001, 5.43459415e-001, 2.17514098e-001,
          3.47892195e-001, 8.71360302e-002, 8.69404614e-001,
          5.65189004e-001, 3.26162487e-001, 4.36766595e-002,
          4.36766595e-002, 3.69621903e-001, 8.47674906e-001,
          8.71360302e-002, 6.54063523e-002, 4.36766595e-002,
          1.08865701e-001, 9.99782681e-001, 5.86918712e-001,
          1.30595401e-001, 1.30595401e-001, 4.34810996e-001,
          2.39243805e-001, 4.36766595e-002, 1.74054801e-001,
          3.04432899e-001, 2.39243805e-001, 1.08865701e-001,
          4.13081288e-001, 2.60973513e-001, 1.52325094e-001,
          6.08648419e-001 ]
      - [ 6.60316885e-001, 9.44926366e-002, 3.79102193e-002,
          5.09430408e-001, 5.66012800e-001, 8.86646509e-001,
          5.66012800e-001, 3.77404809e-001, 2.07657501e-001,
          3.77404809e-001, 6.60316885e-001, 2.07657501e-001,
          1.69935897e-001, 2.26518303e-001, 1.88796699e-001,
          9.99811411e-001, 4.33987200e-001, 7.56318420e-002,
          9.44926366e-002, 8.48924875e-001, 7.56318420e-002,
          3.79102193e-002, 3.79102193e-002, 2.83100694e-001,
          2.83100694e-001, 1.51075095e-001, 3.20822299e-001,
          2.64239907e-001, 3.01961511e-001, 5.28291225e-001,
          2.07657501e-001, 1.51075095e-001, 1.32214293e-001,
          4.90569592e-001, 5.09430408e-001, 2.26518303e-001,
          2.45379105e-001, 7.92342484e-001, 2.64239907e-001,
          3.20822299e-001, 5.67710288e-002, 1.69935897e-001,
          4.33987200e-001, 6.41456127e-001, 6.41456127e-001,
          2.26518303e-001, 3.79102193e-002, 2.26518303e-001,
          9.44926366e-002, 3.01961511e-001, 2.83100694e-001,
          4.90569592e-001, 1.51075095e-001, 1.88608101e-004,
          5.67710288e-002, 1.32214293e-001, 1.51075095e-001,
          8.86646509e-001 ]
      - [ 7.93557584e-001, 3.18946391e-002, 1.27102494e-001,
          2.54046291e-001, 4.12726104e-001, 5.07933974e-001,
          8.41161489e-001, 9.53665525e-002, 2.22310394e-001,
          5.87273896e-001, 6.98349714e-001, 2.22310394e-001,
          3.18946391e-002, 4.60330099e-001, 7.94985667e-002,
          7.93557584e-001, 2.69914299e-001, 6.36305884e-002,
          2.54046291e-001, 9.52237427e-001, 7.94985667e-002,
          3.18946391e-002, 9.53665525e-002, 7.94985667e-002,
          1.27102494e-001, 2.06442401e-001, 1.60266608e-002,
          7.94985667e-002, 2.69914299e-001, 5.23801982e-001,
          3.80990207e-001, 9.53665525e-002, 6.36305884e-002,
          6.19009793e-001, 2.54046291e-001, 3.01650286e-001,
          1.58679803e-004, 9.99841273e-001, 1.42970502e-001,
          4.77626212e-002, 1.42970502e-001, 1.60266608e-002,
          5.87273896e-001, 7.61821628e-001, 5.23801982e-001,
          1.42970502e-001, 1.11234501e-001, 3.18946391e-002,
          1.11234501e-001, 4.77626212e-002, 2.06442401e-001,
          3.96858096e-001, 1.90574393e-001, 1.27102494e-001,
          3.18946391e-002, 2.06442401e-001, 7.94985667e-002,
          1.11234501e-001 ]
      - [ 8.06909919e-001, 3.50929499e-001, 1.22939304e-001,
          2.63240993e-001, 2.45703295e-001, 3.50929499e-001,
          9.99824584e-001, 3.68467212e-001, 1.40477002e-001,
          2.63240993e-001, 7.89372206e-001, 1.58014700e-001,
          3.50929499e-001, 9.99824584e-001, 3.50929499e-001,
          6.84145927e-001, 4.56155688e-001, 3.52507904e-002,
          7.03262016e-002, 6.84145927e-001, 5.61381996e-001,
          1.22939304e-001, 1.58014700e-001, 1.05401598e-001,
          3.33391786e-001, 4.03542608e-001, 1.75552398e-001,
          5.27884997e-002, 4.38618004e-001, 1.93090096e-001,
          1.77130792e-002, 1.75377107e-004, 2.10627794e-001,
          5.43844283e-001, 4.21080291e-001, 3.52507904e-002,
          1.77130792e-002, 7.71834373e-001, 2.98316389e-001,
          5.27884997e-002, 1.05401598e-001, 1.05401598e-001,
          4.73693401e-001, 5.26306629e-001, 2.45703295e-001,
          1.22939304e-001, 2.45703295e-001, 8.78639072e-002,
          7.03262016e-002, 5.27884997e-002, 1.22939304e-001,
          5.43844283e-001, 2.28165597e-001, 1.22939304e-001,
          1.22939304e-001, 5.96457422e-001, 2.63240993e-001,
          6.31532788e-001 ]
      - [ 5.34237206e-001, 1.78170398e-001, 1.37085706e-001,
          3.01424295e-001, 3.69898707e-001, 2.74034500e-001,
          8.76609087e-001, 2.19255000e-001, 1.09696001e-001,
          4.10983294e-001, 9.99863088e-001, 4.12215814e-002,
          1.64475501e-001, 1.91865206e-001, 1.36948802e-004,
          4.79457706e-001, 2.74034500e-001, 8.23062211e-002,
          2.19255000e-001, 9.72473323e-001, 3.56203794e-001,
          1.37085706e-001, 5.49164601e-002, 2.87729412e-001,
          1.09696001e-001, 4.12215814e-002, 1.78170398e-001,
          2.75267102e-002, 2.87729412e-001, 3.15119088e-001,
          3.01424295e-001, 6.86113387e-002, 8.23062211e-002,
          5.61626971e-001, 2.32949898e-001, 1.23390898e-001,
          1.91865206e-001, 9.31388676e-001, 2.32949898e-001,
          2.19255000e-001, 1.37085706e-001, 5.49164601e-002,
          3.15119088e-001, 6.86113387e-002, 5.20542324e-001,
          1.36948802e-004, 9.60011035e-002, 1.37085706e-001,
          8.23062211e-002, 6.86113387e-002, 3.15119088e-001,
          1.91865206e-001, 4.12215814e-002, 1.09696001e-001,
          5.49164601e-002, 1.23390898e-001, 1.23390898e-001,
          1.23390898e-001 ]
      - [ 7.79566228e-001, 1.35716707e-001, 1.52660102e-001,
          2.54320592e-001, 3.72924387e-001, 3.89867812e-001,
          1.69603497e-001, 1.69434104e-004, 1.86546907e-001,
          8.30396473e-001, 1.69434104e-004, 2.37377197e-001,
          1.52660102e-001, 6.27075613e-001, 1.35716707e-001,
          8.98170114e-001, 2.20433801e-001, 1.71128400e-002,
          8.48864764e-002, 1.01829901e-001, 2.03490302e-001,
          1.69434104e-004, 1.71128400e-002, 1.01829901e-001,
          9.99830604e-001, 6.94849193e-001, 1.69603497e-001,
          1.18773296e-001, 1.18773296e-001, 3.39037597e-001,
          1.52660102e-001, 1.18773296e-001, 3.05150807e-001,
          3.40562500e-002, 8.48864764e-002, 3.39037597e-001,
          3.40562500e-002, 3.89867812e-001, 1.71128400e-002,
          1.71128400e-002, 1.18773296e-001, 6.79430664e-002,
          2.20433801e-001, 3.72924387e-001, 2.37377197e-001,
          3.40562500e-002, 2.88207412e-001, 3.55980992e-001,
          1.52660102e-001, 1.71128400e-002, 1.86546907e-001,
          8.81226718e-001, 1.35716707e-001, 6.79430664e-002,
          8.48864764e-002, 5.25415123e-001, 1.69434104e-004,
          1.69434104e-004 ]
      - [ 4.91231114e-001, 5.27884997e-002, 2.45703295e-001,
          3.68467212e-001, 2.10627794e-001, 3.33391786e-001,
          1.77130792e-002, 1.77130792e-002, 4.03542608e-001,
          7.71834373e-001, 4.38618004e-001, 4.91231114e-001,
          1.05401598e-001, 3.52507904e-002, 8.41985285e-001,
          7.54296720e-001, 3.52507904e-002, 1.75377107e-004,
          2.80778706e-001, 3.50929499e-001, 2.45703295e-001,
          8.78639072e-002, 1.40477002e-001, 2.80778706e-001,
          8.59522998e-001, 3.86004895e-001, 2.98316389e-001,
          1.05401598e-001, 2.80778706e-001, 3.33391786e-001,
          7.03262016e-002, 4.91231114e-001, 6.13995075e-001,
          8.78639072e-002, 1.93090096e-001, 5.27884997e-002,
          7.03262016e-002, 3.33391786e-001, 3.86004895e-001,
          2.28165597e-001, 8.78639072e-002, 2.10627794e-001,
          1.77130792e-002, 4.38618004e-001, 1.22939304e-001,
          8.78639072e-002, 1.40477002e-001, 1.77130792e-002,
          8.78639072e-002, 3.52507904e-002, 3.52507904e-002,
          9.99824584e-001, 7.03262016e-002, 2.45703295e-001,
          8.78639072e-002, 5.78919709e-001, 1.40477002e-001,
          6.84145927e-001 ]
      - [ 9.99929070e-001, 1.34803593e-001, 1.91533104e-001,
          7.80740306e-002, 4.11360115e-001, 2.76627392e-001,
          2.69536197e-001, 4.26180698e-002, 1.41894802e-001,
          1.70259506e-001, 1.84441894e-001, 7.80740306e-002,
          1.42532997e-002, 1.42532997e-002, 1.13530003e-001,
          2.83718586e-001, 1.13530003e-001, 2.13444903e-002,
          4.26180698e-002, 7.02099025e-001, 7.80740306e-002,
          4.97092605e-002, 2.84356792e-002, 1.56077206e-001,
          4.46816087e-001, 4.25542504e-001, 1.27712399e-001,
          2.84356792e-002, 1.91533104e-001, 1.56077206e-001,
          2.05715507e-001, 9.93476063e-002, 1.91533104e-001,
          1.41894802e-001, 2.26989105e-001, 1.77350700e-001,
          1.48985997e-001, 9.57381904e-001, 6.45369530e-001,
          5.68004511e-002, 2.13444903e-002, 1.20621197e-001,
          1.63168296e-001, 8.22649300e-001, 5.53183913e-001,
          1.84441894e-001, 3.55268791e-002, 1.48985997e-001,
          7.80740306e-002, 7.09828436e-002, 4.97092605e-002,
          3.33357006e-001, 2.13444903e-002, 6.38916492e-002,
          5.68004511e-002, 2.19897896e-001, 2.13444903e-002,
          7.09119267e-005 ]
      - [ 9.99916017e-001, 8.41035098e-002, 1.84926897e-001,
          1.09309398e-001, 2.52142489e-001, 2.77348310e-001,
          4.11779493e-001, 8.48596916e-003, 3.36918198e-002,
          9.25054625e-002, 6.72996119e-002, 1.26113296e-001,
          7.57015571e-002, 2.77348310e-001, 7.57015571e-002,
          2.18534693e-001, 3.36918198e-002, 2.52898708e-002,
          2.52898708e-002, 1.26113296e-001, 2.60544389e-001,
          2.52898708e-002, 1.09309398e-001, 1.00907400e-001,
          2.18534693e-001, 1.17711298e-001, 3.36918198e-002,
          1.68879200e-002, 8.41035098e-002, 8.40194916e-005,
          8.41035098e-002, 4.11779493e-001, 1.93328902e-001,
          1.68123007e-001, 1.68123007e-001, 1.00907400e-001,
          7.57015571e-002, 3.78171712e-001, 4.36985403e-001,
          7.57015571e-002, 1.34515196e-001, 1.17711298e-001,
          2.77348310e-001, 6.72996119e-002, 2.18534693e-001,
          5.88976592e-002, 1.17711298e-001, 3.61367792e-001,
          9.25054625e-002, 8.48596916e-003, 1.17711298e-001,
          2.68946409e-001, 2.52898708e-002, 1.00907400e-001,
          1.68879200e-002, 2.26936594e-001, 8.48596916e-003,
          1.26113296e-001 ]
      - [ 2.18455493e-001, 9.20478106e-002, 2.41438702e-001,
          1.72489107e-001, 5.75729683e-002, 1.16065303e-002,
          9.20478106e-002, 1.26522601e-001, 1.16065303e-002,
          1.16065303e-002, 1.14916103e-004, 1.14916103e-004,
          8.05561915e-002, 1.38014197e-001, 9.99885082e-001,
          3.56354892e-001, 2.52930403e-001, 4.60813604e-002,
          3.45897488e-002, 5.74695528e-001, 2.87405193e-001,
          6.90645799e-002, 6.90645799e-002, 8.05561915e-002,
          2.41438702e-001, 5.75729683e-002, 1.49505898e-001,
          1.15030997e-001, 1.72489107e-001, 2.64421999e-001,
          1.60997495e-001, 3.10388386e-001, 1.15030997e-001,
          1.72489107e-001, 2.30981391e-002, 1.49505898e-001,
          3.45897488e-002, 1.38014197e-001, 7.01103210e-001,
          1.38014197e-001, 1.49505898e-001, 1.83980703e-001,
          6.90645799e-002, 1.60997495e-001, 1.60997495e-001,
          1.49505898e-001, 2.30981391e-002, 1.72489107e-001,
          1.03539400e-001, 2.30981391e-002, 3.45897488e-002,
          1.60997495e-001, 2.18455493e-001, 1.26522601e-001,
          1.60997495e-001, 3.90829712e-001, 6.90645799e-002,
          2.52930403e-001 ]
      - [ 8.97333980e-001, 3.84644985e-001, 3.33376110e-001,
          2.43655503e-001, 3.07741612e-001, 3.84644985e-001,
          5.76903403e-001, 1.29453996e-002, 1.02665998e-001,
          5.89720607e-001, 9.99871790e-001, 2.57626195e-002,
          3.85798514e-002, 3.71827692e-001, 8.58882308e-001,
          5.89720607e-001, 1.02665998e-001, 2.18021005e-001,
          1.15483202e-001, 9.99871790e-001, 2.82107204e-001,
          1.29453996e-002, 6.42142966e-002, 1.02665998e-001,
          1.02665998e-001, 1.28300399e-001, 4.74365503e-001,
          1.15483202e-001, 6.42142966e-002, 3.59010488e-001,
          2.18021005e-001, 2.43655503e-001, 8.97333980e-001,
          2.43655503e-001, 8.98487568e-002, 2.57626195e-002,
          1.41117707e-001, 7.94796228e-001, 2.82107204e-001,
          2.57626195e-002, 1.79569304e-001, 3.97462189e-001,
          1.28172294e-004, 1.29453996e-002, 2.94924408e-001,
          2.30838194e-001, 3.07741612e-001, 2.69289911e-001,
          2.43655503e-001, 1.29453996e-002, 1.79569304e-001,
          3.85798514e-002, 1.66752100e-001, 2.18021005e-001,
          2.30838194e-001, 2.43655503e-001, 5.13970815e-002,
          6.53806686e-001 ]
      - [ 5.56689322e-001, 1.85631797e-001, 3.40239108e-001,
          2.88703412e-001, 1.23788901e-001, 2.47474700e-001,
          5.66996515e-001, 1.54710397e-001, 2.06246093e-001,
          4.02081996e-001, 9.99896884e-001, 8.25603008e-002,
          3.10245305e-002, 2.07173806e-002, 4.43310708e-001,
          4.02081996e-001, 1.13481797e-001, 1.13481797e-001,
          1.13481797e-001, 7.52525330e-001, 1.54710397e-001,
          1.13481797e-001, 4.13316786e-002, 1.03071499e-004,
          1.13481797e-001, 2.26860404e-001, 3.40239108e-001,
          1.34096101e-001, 3.10245305e-002, 1.75324693e-001,
          2.07173806e-002, 7.22531378e-002, 8.55596781e-001,
          3.91774893e-001, 9.28674489e-002, 4.13316786e-002,
          1.23788901e-001, 7.21603811e-001, 4.13316786e-002,
          1.44403204e-001, 1.75324693e-001, 1.23788901e-001,
          2.07173806e-002, 1.65017501e-001, 4.12389189e-001,
          2.07173806e-002, 2.68089086e-001, 2.68089086e-001,
          4.13316786e-002, 7.22531378e-002, 1.65017501e-001,
          1.75324693e-001, 2.16553301e-001, 6.19459897e-002,
          1.03174597e-001, 2.26860404e-001, 5.16388416e-002,
          7.11296618e-001 ]
      - [ 2.75913596e-001, 5.75729683e-002, 9.20478106e-002,
          1.15030997e-001, 8.05561915e-002, 1.49505898e-001,
          5.51712275e-001, 8.05561915e-002, 5.75729683e-002,
          2.52930403e-001, 4.82762605e-001, 2.87405193e-001,
          1.26522601e-001, 5.51712275e-001, 2.75913596e-001,
          3.10388386e-001, 3.21880013e-001, 1.15030997e-001,
          3.45897488e-002, 3.45897488e-002, 8.05561915e-002,
          4.60813604e-002, 1.95472300e-001, 5.75729683e-002,
          2.75913596e-001, 5.63203871e-001, 1.14916103e-004,
          5.75729683e-002, 1.49505898e-001, 2.87405193e-001,
          1.16065303e-002, 1.38014197e-001, 9.99885082e-001,
          2.98896790e-001, 6.90645799e-002, 2.30981391e-002,
          2.30981391e-002, 5.75729683e-002, 6.66628420e-001,
          5.75729683e-002, 2.41438702e-001, 6.90645799e-002,
          1.16065303e-002, 1.14916103e-004, 2.30981391e-002,
          6.90645799e-002, 4.60813604e-002, 4.59779412e-001,
          6.90645799e-002, 3.45897488e-002, 1.16065303e-002,
          1.72489107e-001, 4.60813604e-002, 6.90645799e-002,
          1.26522601e-001, 4.25304502e-001, 1.83980703e-001,
          2.87405193e-001 ]
      - [ 3.39683086e-001, 3.96265596e-001, 3.79102193e-002,
          5.09430408e-001, 8.48924875e-001, 7.35760093e-001,
          9.99811411e-001, 1.69935897e-001, 2.45379105e-001,
          4.15126413e-001, 8.67785692e-001, 9.44926366e-002,
          1.88608101e-004, 8.11203301e-001, 2.83100694e-001,
          9.43229020e-001, 2.64239907e-001, 1.88608101e-004,
          2.64239907e-001, 6.98038518e-001, 1.69935897e-001,
          5.67710288e-002, 1.32214293e-001, 5.67710288e-002,
          6.79177701e-001, 6.03734374e-001, 4.52847987e-001,
          2.26518303e-001, 5.47151983e-001, 5.28291225e-001,
          4.15126413e-001, 6.60316885e-001, 5.09430408e-001,
          4.90569592e-001, 3.96265596e-001, 1.32214293e-001,
          7.56318420e-002, 8.48924875e-001, 5.28291225e-001,
          1.69935897e-001, 1.32214293e-001, 9.44926366e-002,
          9.43229020e-001, 5.66012800e-001, 3.58543903e-001,
          1.88796699e-001, 1.32214293e-001, 7.35760093e-001,
          1.88608101e-004, 1.69935897e-001, 3.01961511e-001,
          6.22595191e-001, 9.44926366e-002, 7.56318420e-002,
          1.32214293e-001, 4.90569592e-001, 3.79102193e-002,
          2.07657501e-001 ]
      - [ 5.93720675e-001, 3.59418899e-001, 1.87597603e-001,
          4.37519491e-001, 3.43798786e-001, 4.06279296e-001,
          8.43642592e-001, 4.70165610e-002, 3.13964412e-002,
          3.12558591e-001, 8.28022480e-001, 4.70165610e-002,
          1.56357393e-001, 9.99843776e-001, 8.74882817e-001,
          6.71821296e-001, 1.25117198e-001, 1.56201204e-004,
          3.90659213e-001, 8.43642592e-001, 7.65541971e-001,
          1.09497003e-001, 3.13964412e-002, 6.26366809e-002,
          5.00000000e-001, 4.68759805e-001, 3.90659213e-001,
          1.40737295e-001, 1.56357393e-001, 4.53139603e-001,
          2.03217700e-001, 1.25117198e-001, 1.09497003e-001,
          6.24960899e-001, 2.81318307e-001, 3.13964412e-002,
          1.87597603e-001, 5.31240225e-001, 3.90659213e-001,
          3.13964412e-002, 1.40737295e-001, 1.09497003e-001,
          4.68759805e-001, 3.13964412e-002, 1.40737295e-001,
          6.26366809e-002, 7.82567933e-002, 2.96938509e-001,
          1.25117198e-001, 2.34457999e-001, 2.18837902e-001,
          3.59418899e-001, 3.13964412e-002, 9.38769132e-002,
          2.65698195e-001, 2.50078112e-001, 3.13964412e-002,
          3.12558591e-001 ]
      - [ 2.61304289e-001, 7.21491575e-002, 9.00738596e-005,
          8.11565518e-002, 1.26193494e-001, 1.26193494e-001,
          2.79318988e-001, 1.35200903e-001, 6.31417781e-002,
          5.41343912e-002, 3.96415114e-001, 6.31417781e-002,
          9.01639313e-002, 1.08178698e-001, 1.53215602e-001,
          2.70311713e-001, 1.89245194e-001, 3.61196212e-002,
          2.16267303e-001, 9.99909878e-001, 1.81048494e-002,
          9.09745973e-003, 8.11565518e-002, 1.81048494e-002,
          1.62222996e-001, 1.44208297e-001, 1.71230406e-001,
          9.00738596e-005, 1.17186099e-001, 3.87407690e-001,
          1.80237800e-001, 1.89245194e-001, 9.09745973e-003,
          3.61196212e-002, 8.11565518e-002, 9.00738596e-005,
          8.11565518e-002, 5.31525910e-001, 4.50459391e-001,
          4.51270007e-002, 7.21491575e-002, 6.31417781e-002,
          1.35200903e-001, 1.35200903e-001, 2.52296895e-001,
          1.35200903e-001, 1.53215602e-001, 9.09745973e-003,
          1.35200903e-001, 9.01639313e-002, 1.62222996e-001,
          3.06341201e-001, 2.71122307e-002, 8.11565518e-002,
          7.21491575e-002, 1.62222996e-001, 4.51270007e-002,
          2.61304289e-001 ]
      - [ 4.13062394e-001, 2.17452705e-001, 1.08672000e-004,
          1.41382307e-001, 1.63116693e-001, 2.06585497e-001,
          1.84851095e-001, 8.70462880e-002, 1.19647898e-001,
          2.17452705e-001, 5.86937606e-001, 5.44446893e-002,
          7.61790872e-002, 2.50054300e-001, 4.34796810e-001,
          3.04390311e-001, 1.84851095e-001, 1.73983902e-001,
          2.17452705e-001, 9.99891281e-001, 9.79135036e-002,
          8.70462880e-002, 1.30515099e-001, 1.09758703e-002,
          2.50054300e-001, 2.06585497e-001, 3.04390311e-001,
          7.61790872e-002, 2.50054300e-001, 5.10867178e-001,
          3.15257609e-001, 1.08672000e-004, 7.61790872e-002,
          1.09758703e-002, 1.09758703e-002, 7.61790872e-002,
          1.63116693e-001, 1.95718303e-001, 9.79135036e-002,
          2.18430795e-002, 3.27102803e-002, 6.53118864e-002,
          4.02195185e-001, 3.15257609e-001, 4.35774811e-002,
          2.06585497e-001, 1.41382307e-001, 2.17452705e-001,
          1.41382307e-001, 1.63116693e-001, 3.91328007e-001,
          3.58726412e-001, 8.70462880e-002, 5.44446893e-002,
          1.63116693e-001, 2.06585497e-001, 7.61790872e-002,
          2.93523103e-001 ]
      - [ 2.92371601e-001, 2.76991695e-001, 1.53952599e-001,
          1.55336801e-002, 4.76930201e-001, 6.15349114e-001,
          7.70532116e-002, 1.23192899e-001, 3.38511199e-001,
          8.15287590e-001, 4.46170390e-001, 1.84712395e-001,
          1.07813001e-001, 2.00092301e-001, 5.23069799e-001,
          9.99846220e-001, 2.00092301e-001, 3.09135709e-002,
          3.38511199e-001, 7.70532116e-002, 1.07813001e-001,
          1.53952599e-001, 1.53952599e-001, 9.24331024e-002,
          5.84589422e-001, 7.84527779e-001, 2.92371601e-001,
          1.53798799e-004, 2.92371601e-001, 6.15349114e-001,
          7.70532116e-002, 2.30851993e-001, 3.07751507e-001,
          1.38572693e-001, 3.23131293e-001, 3.07751507e-001,
          2.61611789e-001, 3.23131293e-001, 5.99969208e-001,
          1.23192899e-001, 1.23192899e-001, 1.84712395e-001,
          5.99969208e-001, 5.38449705e-001, 1.55336801e-002,
          7.70532116e-002, 4.62934487e-002, 1.53952599e-001,
          2.76991695e-001, 1.07813001e-001, 9.24331024e-002,
          3.38511199e-001, 9.24331024e-002, 7.70532116e-002,
          1.55336801e-002, 4.61550295e-001, 1.23192899e-001,
          9.24331024e-002 ]
      - [ 6.54489279e-001, 1.45583406e-001, 1.83569603e-002,
          6.72664523e-001, 1.27408206e-001, 5.63613176e-001,
          9.45292592e-001, 3.45510691e-001, 3.65321711e-002,
          4.90912408e-001, 9.99818206e-001, 3.81861091e-001,
          1.83569603e-002, 9.63467777e-001, 7.28825927e-002,
          7.99890876e-001, 5.47073781e-002, 7.28825927e-002,
          2.00109094e-001, 6.36314094e-001, 3.63685906e-001,
          7.28825927e-002, 3.27335507e-001, 7.28825927e-002,
          3.09160292e-001, 2.54634708e-001, 1.63758606e-001,
          1.81752097e-004, 2.00109094e-001, 2.36459494e-001,
          2.72809893e-001, 3.27335507e-001, 2.00109094e-001,
          7.81715691e-001, 2.90985107e-001, 2.18284294e-001,
          1.45583406e-001, 4.54562008e-001, 8.36241424e-001,
          2.18284294e-001, 2.90985107e-001, 3.09160292e-001,
          8.18066180e-001, 1.27408206e-001, 1.45583406e-001,
          1.83569603e-002, 1.09232999e-001, 6.90839708e-001,
          3.63685906e-001, 2.36459494e-001, 4.00036395e-001,
          4.00036395e-001, 2.00109094e-001, 3.63685906e-001,
          3.09160292e-001, 6.36314094e-001, 3.09160292e-001,
          1.81933805e-001 ]
      - [ 1.36948802e-004, 5.49164601e-002, 3.28814000e-001,
          8.23062211e-002, 1.64475501e-001, 4.12215814e-002,
          6.02711618e-001, 1.38318297e-002, 1.38318297e-002,
          4.65762794e-001, 5.49164601e-002, 1.09696001e-001,
          2.87729412e-001, 3.01424295e-001, 6.71185970e-001,
          5.89016676e-001, 3.01424295e-001, 1.50780603e-001,
          1.64475501e-001, 5.06847382e-001, 8.23062211e-002,
          2.75267102e-002, 1.91865206e-001, 1.23390898e-001,
          5.75321794e-001, 2.05560103e-001, 3.97288412e-001,
          1.36948802e-004, 1.37085706e-001, 1.64475501e-001,
          4.12215814e-002, 3.01424295e-001, 4.24678206e-001,
          6.02711618e-001, 8.23062211e-002, 4.24678206e-001,
          2.75267102e-002, 1.78170398e-001, 9.99863088e-001,
          2.60339588e-001, 8.23062211e-002, 2.75267102e-002,
          1.37085706e-001, 6.86113387e-002, 1.38318297e-002,
          1.38318297e-002, 9.60011035e-002, 1.38318297e-002,
          2.32949898e-001, 6.86113387e-002, 1.50780603e-001,
          4.38372999e-001, 1.78170398e-001, 1.38318297e-002,
          1.09696001e-001, 3.69898707e-001, 6.86113387e-002,
          2.32949898e-001 ]
      - [ 1.51243895e-001, 2.44245499e-001, 3.49918604e-002,
          2.09369898e-001, 3.02371502e-001, 1.51243895e-001,
          2.79121101e-001, 3.48872393e-001, 1.74494296e-001,
          6.16252005e-001, 1.17414603e-002, 8.14926773e-002,
          5.82422689e-002, 1.39618695e-001, 6.86003327e-001,
          6.16252005e-001, 3.13996702e-001, 4.66170684e-002,
          3.48872393e-001, 9.99883711e-001, 2.33666599e-002,
          3.49918604e-002, 5.82422689e-002, 2.33666599e-002,
          4.76749599e-001, 1.16368301e-001, 2.55870700e-001,
          3.49918604e-002, 3.13996702e-001, 4.41873997e-001,
          1.27993494e-001, 5.23250401e-001, 1.16251998e-004,
          4.76749599e-001, 1.16251998e-004, 2.67495900e-001,
          1.16251998e-004, 2.44245499e-001, 8.13880503e-001,
          1.74494296e-001, 1.16368301e-001, 1.16251998e-004,
          8.14926773e-002, 6.86003327e-001, 1.86119497e-001,
          5.82422689e-002, 1.62869096e-001, 1.39618695e-001,
          2.32620299e-001, 1.17414603e-002, 3.60497594e-001,
          3.25621903e-001, 8.14926773e-002, 9.31178778e-002,
          1.86119497e-001, 3.83747995e-001, 1.16251998e-004,
          7.20878899e-001 ]
      - [ 4.29877192e-002, 5.72693497e-002, 2.57212192e-001,
          7.15509877e-002, 3.28620404e-001, 5.72693497e-002,
          9.99857187e-001, 1.42816294e-004, 7.15509877e-002,
          4.00028586e-001, 6.71379626e-001, 4.29877192e-002,
          2.87060793e-002, 4.85718399e-001, 6.28534675e-001,
          5.00000000e-001, 2.87060793e-002, 8.58326182e-002,
          1.44244498e-002, 4.71436709e-001, 1.00114301e-001,
          2.87060793e-002, 1.71522394e-001, 3.42902005e-001,
          7.57069409e-001, 5.00000000e-001, 4.29877192e-002,
          5.72693497e-002, 5.72693497e-002, 2.00085700e-001,
          1.42816294e-004, 1.44244498e-002, 9.57012296e-001,
          2.28649005e-001, 2.42930606e-001, 1.71522394e-001,
          1.42816294e-004, 3.00057113e-001, 1.57240793e-001,
          1.44244498e-002, 1.42816294e-004, 1.57240793e-001,
          3.57183695e-001, 2.57212192e-001, 2.00085700e-001,
          1.14395902e-001, 2.85775512e-001, 4.85718399e-001,
          5.72693497e-002, 5.72693497e-002, 1.42816294e-004,
          5.57126522e-001, 2.00085700e-001, 1.85804099e-001,
          7.15509877e-002, 4.14310187e-001, 1.71522394e-001,
          9.99857187e-001 ]
      - [ 9.15896475e-001, 2.35338598e-001, 1.76524997e-001,
          1.26113296e-001, 1.42917201e-001, 1.51319101e-001,
          2.60544389e-001, 8.40194916e-005, 4.20937687e-002,
          2.52898708e-002, 3.78171712e-001, 6.72996119e-002,
          7.57015571e-002, 5.54612696e-001, 4.28583413e-001,
          2.43740499e-001, 2.52898708e-002, 1.00907400e-001,
          1.68879200e-002, 2.52142489e-001, 2.52142489e-001,
          6.72996119e-002, 1.00907400e-001, 7.57015571e-002,
          1.26113296e-001, 8.48596916e-003, 5.88976592e-002,
          8.41035098e-002, 1.68879200e-002, 1.00907400e-001,
          1.17711298e-001, 4.20181513e-001, 2.43740499e-001,
          1.84926897e-001, 9.25054625e-002, 4.20937687e-002,
          2.52898708e-002, 8.73886704e-001, 9.99916017e-001,
          8.41035098e-002, 3.36918198e-002, 8.48596916e-003,
          6.72996119e-002, 2.52898708e-002, 3.52965891e-001,
          1.42917201e-001, 1.26113296e-001, 2.77348310e-001,
          3.36918198e-002, 1.68879200e-002, 6.72996119e-002,
          1.68123007e-001, 2.52898708e-002, 7.57015571e-002,
          1.68123007e-001, 2.94152200e-001, 5.88976592e-002,
          2.10132793e-001 ]
      - [ 9.99917984e-001, 1.88575596e-001, 1.06621899e-001,
          2.54138708e-001, 3.44287813e-001, 1.80380300e-001,
          1.80380300e-001, 2.46680900e-002, 8.19537818e-005,
          6.56449795e-002, 4.67218488e-001, 4.92542200e-002,
          7.38403499e-002, 5.00000000e-001, 5.98344505e-001,
          2.78724790e-001, 1.06621899e-001, 9.02311131e-002,
          8.27733241e-003, 2.86920190e-001, 4.10588384e-002,
          8.20357278e-002, 8.19537818e-005, 8.27733241e-003,
          7.38403499e-002, 6.56449795e-002, 1.47598803e-001,
          9.02311131e-002, 6.56449795e-002, 9.84264910e-002,
          1.64727103e-002, 5.90149224e-001, 3.93460095e-001,
          1.96770996e-001, 1.14817202e-001, 8.20357278e-002,
          8.19537818e-005, 6.63907588e-001, 8.76987398e-001,
          2.21357197e-001, 2.46680900e-002, 9.84264910e-002,
          4.92542200e-002, 9.84264910e-002, 4.01655495e-001,
          1.23012602e-001, 5.74496016e-002, 1.63989499e-001,
          9.02311131e-002, 6.56449795e-002, 7.38403499e-002,
          1.80380300e-001, 5.74496016e-002, 2.46680900e-002,
          9.84264910e-002, 2.04966396e-001, 3.28634717e-002,
          2.04966396e-001 ]
      - [ 2.55609900e-001, 2.88935810e-001, 6.67629391e-002,
          3.33370388e-001, 1.12197297e-002, 8.89802277e-002,
          1.12197297e-002, 1.88958004e-001, 2.44501203e-001,
          2.23283693e-002, 1.22306198e-001, 3.77804905e-001,
          2.22283900e-001, 8.77693772e-001, 6.67629391e-002,
          4.77782696e-001, 2.55609900e-001, 1.11086403e-004,
          8.89802277e-002, 5.00000000e-001, 5.44434607e-001,
          1.11197501e-001, 8.89802277e-002, 1.12197297e-002,
          2.66718507e-001, 2.88935810e-001, 8.89802277e-002,
          1.11086403e-004, 1.66740701e-001, 3.44478995e-001,
          5.56542985e-002, 3.33370388e-001, 4.55565393e-001,
          1.77849397e-001, 2.88935810e-001, 3.34370099e-002,
          1.66740701e-001, 2.66718507e-001, 6.99955583e-001,
          5.56542985e-002, 1.55632094e-001, 2.88935810e-001,
          2.00066701e-001, 7.22172916e-001, 2.88935810e-001,
          4.45456617e-002, 1.44523397e-001, 9.99888897e-001,
          1.00088902e-001, 2.23283693e-002, 7.78715834e-002,
          1.66740701e-001, 1.77849397e-001, 4.45456617e-002,
          5.56542985e-002, 5.66651881e-001, 2.00066701e-001,
          2.55609900e-001 ]
      - [ 9.99892473e-001, 6.46097586e-002, 4.31090109e-002,
          1.61363095e-001, 7.53601417e-002, 1.61363095e-001,
          1.82863906e-001, 1.61363095e-001, 9.68608931e-002,
          3.54869902e-001, 2.90367693e-001, 2.68866897e-001,
          1.07503802e-004, 8.06385696e-001, 3.11868399e-001,
          5.26875913e-001, 1.18361600e-001, 2.16082595e-002,
          6.46097586e-002, 3.54869902e-001, 1.39862403e-001,
          1.18361600e-001, 4.31090109e-002, 1.61363095e-001,
          5.05375206e-001, 5.48376679e-001, 1.18361600e-001,
          6.46097586e-002, 1.61363095e-001, 1.93614304e-001,
          7.53601417e-002, 1.82863906e-001, 3.97871405e-001,
          1.29112005e-001, 3.01117986e-001, 1.39862403e-001,
          2.16082595e-002, 8.92388701e-001, 6.55880511e-001,
          1.82863906e-001, 1.72113493e-001, 2.90367693e-001,
          1.50612801e-001, 3.65620285e-001, 1.07611299e-001,
          8.61105099e-002, 2.15114996e-001, 9.68608931e-002,
          1.29112005e-001, 7.53601417e-002, 1.08578801e-002,
          4.31090109e-002, 2.04364702e-001, 5.38593903e-002,
          2.25865394e-001, 4.51623291e-001, 2.15114996e-001,
          6.98881984e-001 ]
      - [ 6.12866819e-001, 4.19380814e-001, 9.69042182e-002,
          9.69042182e-002, 6.28990591e-001, 5.16123772e-001,
          2.09771007e-001, 6.46565631e-002, 1.29151896e-001,
          8.54724288e-001, 2.25894898e-001, 1.61238306e-004,
          1.45275697e-001, 2.42018700e-001, 6.45114481e-001,
          8.22476625e-001, 1.13028102e-001, 6.46565631e-002,
          1.62850693e-002, 9.99838829e-001, 3.24089006e-002,
          2.74266392e-001, 9.69042182e-002, 2.25894898e-001,
          3.71009409e-001, 1.93647206e-001, 2.90390193e-001,
          3.24089006e-002, 4.51628506e-001, 4.03257012e-001,
          2.09771007e-001, 3.71009409e-001, 6.61238313e-001,
          6.46565631e-002, 2.74266392e-001, 3.87133211e-001,
          3.38761687e-001, 8.06352794e-001, 8.38600516e-001,
          3.38761687e-001, 1.77523404e-001, 3.22637886e-001,
          3.38761687e-001, 1.62850693e-002, 2.58142501e-001,
          1.62850693e-002, 1.62850693e-002, 3.22637886e-001,
          3.38761687e-001, 2.42018700e-001, 2.74266392e-001,
          5.32247722e-001, 1.62850693e-002, 3.24089006e-002,
          1.61399499e-001, 1.13028102e-001, 6.46565631e-002,
          2.25894898e-001 ]
      - [ 3.96841794e-001, 2.38850992e-002, 6.35613427e-002,
          3.17489296e-001, 3.73035997e-001, 3.88906509e-001,
          7.45992720e-001, 4.76908386e-002, 2.30201602e-001,
          3.73035997e-001, 7.77733684e-001, 5.56260906e-002,
          5.56260906e-002, 1.50849104e-001, 7.14965910e-002,
          4.20647502e-001, 2.06395805e-001, 1.19108103e-001,
          7.93524814e-005, 3.88906509e-001, 4.76908386e-002,
          3.97555903e-002, 2.54007310e-001, 1.50849104e-001,
          1.59498509e-002, 7.94318393e-002, 1.58784300e-001,
          8.01460072e-003, 7.14965910e-002, 1.66719601e-001,
          1.59498509e-002, 1.66719601e-001, 6.42834485e-001,
          4.20647502e-001, 1.42913803e-001, 1.34978607e-001,
          1.34978607e-001, 8.33280385e-001, 9.99920607e-001,
          8.01460072e-003, 5.56260906e-002, 1.27043307e-001,
          3.18203494e-002, 1.74654797e-001, 3.80971313e-001,
          8.01460072e-003, 1.11172803e-001, 8.73670802e-002,
          3.18203494e-002, 5.56260906e-002, 8.73670802e-002,
          1.19108103e-001, 1.59498509e-002, 2.14331105e-001,
          1.59498509e-002, 8.01460072e-003, 1.03237599e-001,
          4.44453299e-001 ]
      - [ 6.11628771e-001, 3.89244817e-002, 9.70685287e-005,
          3.01009506e-001, 4.07784909e-001, 4.46612298e-001,
          8.64006996e-001, 4.86313291e-002, 1.55406699e-001,
          6.01921976e-001, 9.99902904e-001, 3.89244817e-002,
          6.80450425e-002, 2.13647798e-001, 7.77518898e-002,
          5.82508326e-001, 3.49543810e-001, 1.94234103e-001,
          6.80450425e-002, 4.07784909e-001, 1.65113598e-001,
          5.83381914e-002, 4.27198589e-001, 1.74820393e-001,
          2.52475202e-001, 2.03941002e-001, 1.65113598e-001,
          4.86313291e-002, 1.95107702e-002, 4.86313291e-002,
          9.70685287e-005, 1.94234103e-001, 7.08697319e-001,
          4.36905503e-001, 2.52475202e-001, 1.35993004e-001,
          2.92176306e-002, 7.37817883e-001, 6.69869900e-001,
          9.71655995e-002, 8.74587521e-002, 9.80392192e-003,
          1.16579302e-001, 5.83381914e-002, 3.98077995e-001,
          4.86313291e-002, 1.55406699e-001, 1.65113598e-001,
          3.89244817e-002, 1.35993004e-001, 1.35993004e-001,
          1.35993004e-001, 9.80392192e-003, 2.23354697e-001,
          9.80392192e-003, 9.80392192e-003, 9.70685287e-005,
          6.79576814e-001 ]
      - [ 1.44830301e-001, 5.27492799e-002, 1.31544293e-004,
          1.05366997e-001, 3.55301201e-001, 3.94764513e-001,
          9.99868512e-001, 1.84293598e-001, 1.84293598e-001,
          1.31544293e-004, 6.18389904e-001, 1.84293598e-001,
          1.44830301e-001, 7.23625422e-001, 7.10470915e-001,
          1.84293598e-001, 2.23756894e-001, 1.71139196e-001,
          1.05366997e-001, 4.34227794e-001, 2.50065804e-001,
          6.59037083e-002, 1.32859796e-002, 1.31544293e-004,
          2.23756894e-001, 4.07918990e-001, 9.22125801e-002,
          9.22125801e-002, 7.90581405e-002, 2.76374608e-001,
          1.97448000e-001, 2.63220191e-001, 1.05366997e-001,
          6.59037083e-002, 2.50065804e-001, 2.36911297e-001,
          1.71139196e-001, 7.89397478e-001, 3.94764513e-001,
          3.15837890e-001, 1.18521400e-001, 6.59037083e-002,
          4.21073407e-001, 1.31544293e-004, 1.05366997e-001,
          1.32859796e-002, 2.23756894e-001, 1.57984704e-001,
          1.71139196e-001, 1.32859796e-002, 5.27492799e-002,
          7.90581405e-002, 1.31675899e-001, 1.18521400e-001,
          2.10602507e-001, 4.34227794e-001, 2.36911297e-001,
          7.63088703e-001 ]
      - [ 9.99900997e-001, 2.47574702e-001, 9.90892872e-002,
          1.98079601e-001, 1.68382496e-001, 9.89902983e-005,
          5.54444671e-001, 7.92912319e-002, 1.28786400e-001,
          2.67372787e-001, 5.94040811e-001, 6.93921968e-002,
          2.07978606e-001, 8.71213615e-001, 9.30607796e-001,
          9.99801978e-003, 4.95941415e-002, 9.99801978e-003,
          2.17877597e-001, 3.06968898e-001, 3.66363108e-001,
          2.97960807e-002, 7.92912319e-002, 1.98970493e-002,
          3.46565008e-001, 2.17877597e-001, 6.93921968e-002,
          7.92912319e-002, 1.98970493e-002, 1.28786400e-001,
          2.77271807e-001, 1.18887298e-001, 1.88180596e-001,
          5.14848471e-001, 1.28786400e-001, 1.28786400e-001,
          2.67372787e-001, 9.50405896e-001, 5.44545591e-001,
          9.99801978e-003, 1.38685405e-001, 1.48584396e-001,
          4.15858209e-001, 2.97069907e-001, 3.16867888e-001,
          1.18887298e-001, 1.58483505e-001, 2.97960807e-002,
          5.94931692e-002, 9.90892872e-002, 1.18887298e-001,
          1.18887298e-001, 1.08988300e-001, 9.89902983e-005,
          2.97960807e-002, 3.86161208e-001, 9.99801978e-003,
          3.06968898e-001 ]
      - [ 8.77956629e-001, 2.31772706e-001, 8.54669586e-002,
          9.76591110e-002, 2.07388401e-001, 8.54669586e-002,
          2.31772706e-001, 9.76591110e-002, 2.92733490e-001,
          8.90148699e-001, 4.26847100e-001, 4.88905087e-002,
          1.70811996e-001, 9.99878109e-001, 9.02340889e-001,
          2.68349200e-001, 2.31772706e-001, 1.23140700e-002,
          1.83004096e-001, 5.85344970e-001, 3.17117810e-001,
          7.32748136e-002, 6.10826612e-002, 1.22043401e-001,
          4.51231390e-001, 3.65886390e-001, 1.83004096e-001,
          1.21921497e-004, 6.10826612e-002, 2.92733490e-001,
          2.19580606e-001, 1.83004096e-001, 7.32748136e-002,
          5.00000000e-001, 1.09851301e-001, 8.54669586e-002,
          1.09851301e-001, 8.16995919e-001, 3.66983712e-002,
          2.19580606e-001, 3.66983712e-002, 1.95196301e-001,
          2.92733490e-001, 2.07388401e-001, 1.09851301e-001,
          8.54669586e-002, 2.43964896e-001, 1.58619806e-001,
          2.45062206e-002, 1.95196301e-001, 1.95196301e-001,
          7.32748136e-002, 1.46427706e-001, 2.45062206e-002,
          1.21921497e-004, 5.48768580e-001, 6.10826612e-002,
          4.14655000e-001 ]
      - [ 5.51130593e-001, 8.52743983e-002, 2.27815006e-002,
          5.68117284e-005, 2.44347200e-001, 1.53448507e-001,
          2.04578996e-001, 4.55061905e-002, 1.71003304e-002,
          1.14191603e-002, 4.20463592e-001, 1.71003304e-002,
          2.27815006e-002, 4.48869407e-001, 6.36348128e-001,
          1.19361401e-001, 3.98250185e-002, 4.55061905e-002,
          5.11873700e-002, 1.53448507e-001, 1.30723804e-001,
          7.39120618e-002, 5.68685383e-002, 5.68117284e-005,
          1.81854293e-001, 6.25497103e-002, 5.11873700e-002,
          6.25497103e-002, 1.14191603e-002, 1.71003304e-002,
          1.93216696e-001, 2.55709589e-001, 2.21622497e-001,
          1.81854293e-001, 9.66367498e-002, 9.66367498e-002,
          1.42086104e-001, 8.74957383e-001, 9.99943197e-001,
          5.73798409e-003, 1.14191603e-002, 1.71003304e-002,
          1.93216696e-001, 1.30723804e-001, 4.20463592e-001,
          5.68117284e-005, 8.52743983e-002, 3.41438502e-002,
          7.39120618e-002, 8.52743983e-002, 5.68117284e-005,
          7.95932263e-002, 5.73798409e-003, 5.68117284e-005,
          9.66367498e-002, 1.30723804e-001, 7.95932263e-002,
          1.25042602e-001 ]
      - [ 1.34437501e-001, 1.64279297e-001, 2.38883898e-001,
          4.62697715e-001, 1.34437501e-001, 6.41748726e-001,
          9.84929919e-001, 1.50701301e-002, 1.49358407e-001,
          6.56669676e-001, 9.99850810e-001, 6.26827776e-001,
          2.23963007e-001, 4.92539495e-001, 1.49209198e-004,
          8.95404398e-001, 1.50701301e-002, 1.04595602e-001,
          3.58251303e-001, 8.65562499e-001, 2.38883898e-001,
          2.99910493e-002, 1.79200202e-001, 7.47537985e-002,
          5.98328896e-002, 1.49358407e-001, 2.38883898e-001,
          2.99910493e-002, 1.94121197e-001, 1.19516604e-001,
          1.49209198e-004, 8.96747187e-002, 8.96747187e-002,
          4.77618605e-001, 3.43330294e-001, 1.50701301e-002,
          8.96747187e-002, 4.03014004e-001, 2.83646703e-001,
          7.47537985e-002, 1.49209198e-004, 2.98567593e-001,
          4.32855904e-001, 1.04595602e-001, 1.19516604e-001,
          1.50701301e-002, 8.96747187e-002, 1.50701301e-002,
          4.49119695e-002, 2.53804803e-001, 1.64279297e-001,
          1.94121197e-001, 1.64279297e-001, 4.92539495e-001,
