%YAML:1.0
my_svm: !!opencv-ml-svm
   svm_type: C_SVC
   kernel: { type:LINEAR }
   C: 1.0000000000000001e-001
   term_criteria: { epsilon:2.2204460492503131e-016, iterations:10000 }
   var_all: 42
   var_count: 42
   class_count: 2
   class_labels: !!opencv-matrix
      rows: 1
      cols: 2
      dt: i
      data: [ -1, 1 ]
   sv_total: 1
   support_vectors:
      - [ -6.93625552e-005, 1.44287758e-003, 2.17990438e-003,
          2.93545570e-004, 9.27502580e-004, -1.19351258e-003,
          -4.44261730e-003, 7.05950754e-003, 4.88393533e-004,
          -9.09127574e-003, 4.69462853e-003, -8.23000912e-004,
          7.95177650e-003, -1.31470906e-002, 9.57815163e-003,
          -6.23221369e-003, 1.05936434e-002, -2.81031313e-003,
          7.64828059e-004, 1.29789663e-002, 3.73708620e-003,
          -7.36873830e-003, -1.96374650e-003, 1.20163457e-002,
          2.12682504e-002, -3.20091005e-003, 3.39199882e-003,
          -1.84985939e-002, -1.88194308e-003, 1.01678194e-002,
          -2.02342588e-003, -7.32136564e-003, 4.36956109e-003,
          -9.05796140e-003, 7.49273505e-003, -2.52815764e-002,
          6.95125433e-003, 7.60028791e-003, -6.03277422e-003,
          -1.84986147e-003, -3.49058933e-003, 1.89110124e-003 ]
   decision_functions:
      -
         sv_count: 1
         rho: 9.0804721891463236e-001
         alpha: [ 1. ]
         index: [ 0 ]
