%YAML:1.0
my_svm: !!opencv-ml-svm
   svm_type: C_SVC
   kernel: { type:LINEAR }
   C: 9.9999997473787516e-006
   term_criteria: { epsilon:2.2204460492503131e-016, iterations:1000000 }
   var_all: 58
   var_count: 58
   class_count: 2
   class_labels: !!opencv-matrix
      rows: 1
      cols: 2
      dt: i
      data: [ -1, 1 ]
   sv_total: 1
   support_vectors:
      - [ -4.83824080e-003, -9.09591932e-003, -8.38073716e-003,
          -8.00487678e-003, -6.50390051e-003, -8.36634636e-003,
          -6.03268901e-003, -7.16615468e-003, -7.74083100e-003,
          -5.65136224e-003, -6.69635134e-003, -7.26276729e-003,
          -8.24549980e-003, -8.12318921e-003, -7.72686955e-003,
          -5.60595887e-003, -5.27791120e-003, -8.64002202e-003,
          -7.92375486e-003, -7.59676285e-003, -8.75826366e-003,
          -7.24358112e-003, -7.78313912e-003, -8.12653545e-003,
          -4.83832275e-003, -5.08774677e-003, -8.14296491e-003,
          -9.00035538e-003, -6.76737307e-003, -5.77520439e-003,
          -7.66899856e-003, -6.45213202e-003, -6.66284747e-003,
          -6.08085468e-003, -7.44978664e-003, -9.29302163e-003,
          -7.67906290e-003, -7.09219044e-003, -8.33294168e-003,
          -6.54556928e-003, -8.22633971e-003, -5.87907527e-003,
          -5.72620472e-003, -7.87767861e-003, -7.11901812e-003,
          -8.05700012e-003, -7.50606321e-003, -6.47939742e-003,
          -5.48860012e-003, -7.77110597e-003, -6.52569812e-003,
          -4.45536431e-003, -8.27355217e-003, -7.08448933e-003,
          -9.18787811e-003, -7.11877551e-003, -8.08002334e-003,
          -5.75605733e-003 ]
   decision_functions:
      -
         sv_count: 1
         rho: -7.8800163368121734e-002
         alpha: [ 1. ]
         index: [ 0 ]
