%YAML:1.0
my_svm: !!opencv-ml-svm
   svm_type: C_SVC
   kernel: { type:RBF, gamma:1. }
   C: 1.
   term_criteria: { epsilon:2.2204460492503131e-016, iterations:1000000 }
   var_all: 58
   var_count: 58
   class_count: 2
   class_labels: !!opencv-matrix
      rows: 1
      cols: 2
      dt: i
      data: [ -1, 1 ]
   sv_total: 2197
   support_vectors:
      - [ 8.42127129e-002, 3.33337605e-001, 1.78743601e-002,
          4.85294610e-001, 7.20797777e-002, 5.14705420e-001,
          4.24893290e-001, 5.32257020e-001, 1.12915702e-001,
          3.66668910e-001, 5.25640786e-001, 3.87100399e-001,
          3.80957991e-001, 2.01443106e-001, 3.20905708e-002,
          8.37201476e-001, 8.23627710e-002, 6.41018391e-001,
          1.34339303e-001, 2.40644500e-001, 5.49548417e-002,
          1.55570894e-001, 4.91803497e-001, 2.32570603e-001,
          2.35776693e-001, 4.34832200e-002, 3.92161101e-001,
          1.33357793e-001, 3.67352396e-001, 4.35295612e-001,
          3.20517391e-001, 3.98497790e-001, 5.28204799e-001,
          5.11277974e-001, 5.00000000e-001, 2.00014994e-001,
          1.92492604e-002, 8.76331180e-002, 1.11591302e-001,
          4.21688586e-001, 6.05257571e-001, 1.58883799e-002,
          1.17654599e-001, 4.13581312e-001, 1.00781403e-001,
          2.32779905e-002, 9.43549275e-002, 3.14687908e-001,
          1.42866403e-001, 1.62180394e-001, 2.83588499e-001,
          4.22223985e-001, 3.82359892e-001, 5.17856479e-001,
          3.57117315e-005, 9.37626883e-002, 4.77273792e-001,
          4.68899786e-001 ]
      - [ 4.21076715e-002, 1.66675195e-001, 4.10717487e-001,
          2.20596507e-001, 2.34238997e-001, 7.64698088e-001,
          4.16309714e-001, 1.45172700e-001, 3.54843408e-001,
          4.91666794e-001, 4.52991903e-001, 1.77429795e-001,
          1.66682497e-001, 2.30219707e-001, 1.71126500e-001,
          7.55807996e-001, 1.52949303e-001, 2.05143303e-001,
          2.23888800e-001, 6.52404785e-001, 3.62640411e-001,
          2.44455799e-001, 5.73768079e-001, 3.72099012e-001,
          5.20324886e-001, 4.89179492e-002, 5.88231802e-001,
          3.33311109e-005, 8.36721003e-001, 5.17646611e-001,
          7.69339204e-002, 1.57899901e-001, 4.97435898e-001,
          4.36091214e-001, 8.33317518e-001, 3.75006199e-001,
          1.92319497e-001, 1.08251497e-001, 2.14633401e-002,
          2.53017992e-001, 1.84227094e-001, 2.69848585e-001,
          3.03925395e-001, 4.93882783e-002, 3.87668386e-002,
          6.97874501e-002, 2.64159799e-001, 7.41255403e-001,
          1.29866803e-005, 3.78385007e-001, 2.98513502e-001,
          4.00002211e-001, 1.17669500e-001, 5.17856479e-001,
          7.14591816e-002, 3.43754888e-001, 2.72737592e-001,
          5.98085225e-001 ]
      - [ 1.44738704e-001, 1.28330002e-002, 7.14438781e-002,
          5.58821797e-001, 1.98203593e-001, 6.02938116e-001,
          4.29185212e-001, 8.06586891e-002, 2.74200797e-001,
          4.66667205e-001, 5.25640786e-001, 6.29028082e-001,
          7.14489818e-002, 2.80578703e-001, 1.55083895e-001,
          8.60456705e-001, 7.05983415e-002, 2.56653503e-002,
          1.19414300e-001, 4.11765605e-001, 1.31876200e-001,
          3.11119497e-001, 3.60660315e-001, 5.34882128e-001,
          2.35776693e-001, 3.26137803e-002, 3.72554004e-001,
          4.00006711e-001, 3.46944988e-001, 4.35295612e-001,
          3.84733714e-002, 3.38348299e-001, 6.20511591e-001,
          5.48871398e-001, 7.85700679e-001, 1.25018701e-001,
          1.92319497e-001, 1.03143305e-002, 1.24466702e-001,
          3.25305402e-001, 4.47371215e-001, 4.76334095e-002,
          1.66673198e-001, 3.88890296e-001, 2.32632104e-002,
          9.30421799e-002, 9.43549275e-002, 3.49652499e-001,
          5.19596897e-002, 2.70255696e-005, 3.28363299e-001,
          3.11115295e-001, 8.82595107e-002, 8.03560615e-001,
          1.78594396e-001, 2.03134298e-001, 4.09094989e-001,
          6.88993394e-001 ]
      - [ 2.65790701e-001, 1.79495394e-001, 2.32152402e-001,
          5.88232696e-001, 1.98203593e-001, 6.76465392e-001,
          4.37768787e-001, 3.06457907e-001, 2.74200797e-001,
          4.58333999e-001, 4.78632689e-001, 4.51614499e-001,
          2.14299306e-001, 7.19414084e-006, 2.88772315e-001,
          8.72084379e-001, 4.70694788e-002, 4.35900688e-001,
          1.64189100e-001, 3.42247695e-001, 7.69323781e-002,
          2.44455799e-001, 4.91951108e-002, 3.72099012e-001,
          2.68296510e-001, 4.34832200e-002, 2.15697393e-001,
          1.00026697e-001, 5.10203719e-001, 4.00002390e-001,
          4.23078895e-001, 3.23310912e-001, 5.64101875e-001,
          4.28572506e-001, 5.47616780e-001, 2.50012487e-001,
          3.07699710e-001, 5.15510105e-002, 1.71676606e-001,
          3.97592813e-001, 4.21056807e-001, 1.58883799e-002,
          2.54906803e-001, 3.39508206e-001, 1.08533204e-001,
          1.86061099e-001, 2.07558200e-001, 3.70631188e-001,
          1.55853093e-001, 5.13512790e-001, 3.73138100e-001,
          2.44450107e-001, 6.76460207e-001, 3.92861009e-001,
          3.57117315e-005, 7.81381801e-002, 1.59106404e-001,
          6.07654512e-001 ]
      - [ 2.10551508e-002, 1.28330002e-002, 4.82143492e-001,
          5.29410899e-001, 2.25230202e-001, 2.94123709e-001,
          2.87555486e-001, 1.77429795e-001, 1.93558306e-001,
          4.50000793e-001, 4.31624502e-001, 4.84016612e-002,
          4.76405919e-002, 1.36695907e-001, 4.17113215e-001,
          6.39531612e-001, 2.23535895e-001, 5.38459599e-001,
          2.98647806e-002, 2.88772315e-001, 3.29773016e-002,
          1.33349597e-001, 2.78695792e-001, 6.27901018e-001,
          2.52036601e-001, 1.63096096e-002, 3.92337590e-002,
          1.00026697e-001, 6.53055012e-001, 1.88242599e-001,
          1.41034797e-001, 3.60904306e-001, 4.20513600e-001,
          3.38348299e-001, 2.85724491e-001, 1.50017500e-001,
          2.69239604e-001, 1.08251497e-001, 1.71676606e-001,
          2.77113795e-001, 4.73685592e-001, 3.33338588e-001,
          2.54906803e-001, 6.17338084e-002, 4.65186611e-002,
          9.30421799e-002, 1.88860800e-002, 2.09857207e-002,
          1.29879698e-001, 4.59461689e-001, 1.79114103e-001,
          3.33337009e-001, 5.88494800e-002, 3.92861009e-001,
          1.42882705e-001, 3.43754888e-001, 9.09276903e-002,
          4.35407311e-001 ]
      - [ 9.73705426e-002, 3.20517391e-001, 1.25013396e-001,
          3.82356405e-001, 4.77477908e-001, 7.05876291e-001,
          4.33477014e-001, 6.45301789e-002, 4.51614499e-001,
          4.91666794e-001, 5.12820423e-001, 2.90329307e-001,
          1.42874107e-001, 7.20133493e-003, 1.97864205e-001,
          7.55807996e-001, 2.35300303e-001, 7.69217014e-001,
          1.94039002e-001, 4.49198395e-001, 8.79211426e-002,
          4.22225714e-001, 4.75410610e-001, 2.55825311e-001,
          2.27646694e-001, 9.23957303e-002, 1.96266808e-002,
          2.00020000e-001, 3.87759686e-001, 3.29415798e-001,
          3.33337605e-001, 5.26383109e-002, 2.92309791e-001,
          4.73684609e-001, 4.76191610e-001, 3.00009996e-001,
          4.03849900e-001, 1.80415705e-001, 2.57551409e-002,
          1.92778498e-001, 1.05283901e-001, 3.96828711e-001,
          1.56869501e-001, 1.60497993e-001, 2.86825001e-001,
          2.32779905e-002, 1.88860800e-002, 1.32872298e-001,
          3.89730111e-002, 5.67563891e-001, 4.77612615e-001,
          4.00002211e-001, 1.47079602e-001, 3.92861009e-001,
          2.85729587e-001, 5.62497973e-001, 2.95463800e-001,
          4.97607708e-001 ]
      - [ 1.10528402e-001, 1.28330002e-002, 7.14438781e-002,
          1.76480100e-001, 4.05407101e-001, 6.47054493e-001,
          3.30473602e-001, 6.45301789e-002, 4.19357389e-001,
          4.08334911e-001, 5.21367311e-001, 1.29044205e-001,
          1.42874107e-001, 5.03661782e-002, 2.83424795e-001,
          7.09297478e-001, 3.41180205e-001, 6.41018391e-001,
          1.19414300e-001, 3.20857495e-001, 4.39660698e-002,
          1.55570894e-001, 4.26231891e-001, 1.39551595e-001,
          1.30087301e-001, 8.69610086e-002, 3.72554004e-001,
          2.33351097e-001, 2.85723001e-001, 2.58829206e-001,
          5.12935594e-002, 2.48124093e-001, 4.20513600e-001,
          3.90979111e-001, 7.14275479e-001, 1.50017500e-001,
          1.92319497e-001, 2.26806894e-001, 4.29180909e-006,
          1.20491102e-001, 2.89484799e-001, 3.49211097e-001,
          6.86359107e-002, 1.23517001e-002, 2.71321386e-001,
          9.30421799e-002, 1.13222100e-001, 6.99990196e-003,
          7.79330432e-002, 2.97308296e-001, 4.62687701e-001,
          2.77782708e-001, 2.94394400e-002, 4.64287013e-001,
          3.57117315e-005, 2.50007808e-001, 5.00000000e-001,
          6.41147017e-001 ]
      - [ 5.26339300e-002, 2.56416500e-001, 1.60726398e-001,
          3.67650986e-001, 2.52256691e-001, 1.17658302e-001,
          9.01322663e-002, 3.87100399e-001, 1.61446407e-002,
          2.75003701e-001, 2.47865394e-001, 2.90329307e-001,
          3.09532911e-001, 1.58278301e-001, 1.39041305e-001,
          2.90702492e-001, 5.88339083e-002, 3.84621292e-001,
          3.58213186e-001, 1.06956102e-001, 4.39660698e-002,
          6.66859299e-002, 1.80338293e-001, 4.18608397e-001,
          1.70737103e-001, 3.26137803e-002, 7.84479007e-002,
          6.66955486e-002, 3.26537699e-001, 2.00007096e-001,
          8.97541121e-002, 2.40605399e-001, 2.10259393e-001,
          9.02317315e-002, 3.57149690e-001, 2.50012487e-001,
          9.61693823e-002, 5.15458578e-006, 1.41634002e-001,
          2.28922203e-001, 3.68427992e-001, 1.11123502e-001,
          9.80471000e-002, 7.40793273e-002, 9.30295736e-002,
          1.62806407e-001, 1.50956601e-001, 1.18886396e-001,
          1.03906401e-001, 1.35154903e-001, 2.98647806e-002,
          8.88980180e-002, 8.82595107e-002, 2.50008911e-001,
          1.42882705e-001, 2.81256795e-001, 1.36380196e-001,
          1.14836201e-001 ]
      - [ 1.44738704e-001, 2.56416500e-001, 1.60726398e-001,
          3.38240087e-001, 4.77477908e-001, 6.32349014e-001,
          2.06011102e-001, 1.29044205e-001, 1.61301196e-001,
          1.66672200e-001, 2.73506194e-001, 1.29044205e-001,
          2.38322001e-002, 5.75603209e-002, 1.60479601e-002,
          4.76744711e-001, 2.35406198e-002, 7.69447684e-002,
          5.97146414e-002, 4.65240985e-001, 7.69323781e-002,
          2.22434606e-002, 3.11481595e-001, 6.51155829e-001,
          1.30087301e-001, 5.43526709e-002, 1.96266808e-002,
          1.33357793e-001, 4.08167005e-001, 4.70588893e-001,
          1.15394503e-001, 1.50448903e-002, 6.66711107e-002,
          2.18049407e-001, 5.00000000e-001, 2.00014994e-001,
          1.92492604e-002, 2.31961504e-001, 1.58801198e-001,
          6.02515601e-002, 2.10541606e-001, 3.17609012e-002,
          2.05888107e-001, 1.17288701e-001, 1.70547694e-001,
          2.09315807e-001, 1.32089406e-001, 2.09857207e-002,
          3.89730111e-002, 3.24333787e-001, 4.32837814e-001,
          1.44452304e-001, 2.05899701e-001, 4.10717487e-001,
          2.50017911e-001, 4.68891598e-002, 4.54752110e-002,
          1.53113395e-001 ]
      - [ 3.68445404e-002, 1.28214702e-001, 8.93003792e-002,
          8.82474035e-002, 4.86486703e-001, 3.38240087e-001,
          2.48929203e-001, 1.29044205e-001, 4.51614499e-001,
          2.91670114e-001, 3.24787796e-001, 2.58072287e-001,
          9.52573717e-002, 7.19486102e-002, 1.97864205e-001,
          4.88372386e-001, 1.76478207e-001, 7.69447684e-002,
          1.49264202e-001, 4.43850905e-001, 3.29773016e-002,
          3.55562001e-001, 1.63945407e-001, 3.72099012e-001,
          3.73985797e-001, 7.06568435e-002, 4.11768198e-001,
          1.66688904e-001, 4.28574294e-001, 1.52949303e-001,
          1.28214702e-001, 2.33086705e-001, 1.89746797e-001,
          2.78198808e-001, 2.85724491e-001, 4.50002491e-001,
          3.65389794e-001, 2.52579898e-001, 2.14633401e-002,
          1.92778498e-001, 4.21056807e-001, 2.38103598e-001,
          1.07850797e-001, 2.46972293e-002, 2.48065904e-001,
          1.62806407e-001, 7.54877180e-002, 4.89573590e-002,
          1.29879698e-001, 4.59461689e-001, 4.02987987e-001,
          2.33339295e-001, 1.17669500e-001, 3.39291513e-001,
          2.14306101e-001, 1.40636206e-001, 6.82014525e-002,
          2.48806193e-001 ]
      - [ 1.89475298e-001, 7.69339204e-002, 1.42869905e-001,
          5.29410899e-001, 3.51354003e-001, 2.20596507e-001,
          3.69099796e-001, 2.41943806e-001, 2.90329307e-001,
          5.91665089e-001, 4.10257190e-001, 3.87100399e-001,
          1.66682497e-001, 2.08637297e-001, 3.79680395e-001,
          6.97669804e-001, 2.23535895e-001, 1.79503605e-001,
          3.88063014e-001, 6.20319605e-001, 8.79211426e-002,
          2.66676992e-001, 3.93446088e-001, 1.62806407e-001,
          9.75675210e-002, 1.14134602e-001, 2.35304505e-001,
          3.33311109e-005, 3.46944988e-001, 2.82358110e-001,
          1.53854996e-001, 1.35343805e-001, 3.74360293e-001,
          3.45867008e-001, 2.61916101e-001, 3.50007504e-001,
          3.46159786e-001, 1.03143305e-002, 2.23178297e-001,
          1.44586906e-001, 2.89484799e-001, 1.42868504e-001,
          9.80372897e-006, 2.77780503e-001, 7.75957014e-003,
          4.41863209e-001, 2.07558200e-001, 2.79723406e-001,
          1.29996603e-002, 2.70255696e-005, 3.73138100e-001,
          1.66674107e-001, 8.82595107e-002, 6.07138991e-001,
          1.78594396e-001, 4.68891598e-002, 2.95463800e-001,
          5.88515878e-001 ]
      - [ 8.42127129e-002, 5.12935594e-002, 1.78743601e-002,
          1.91185594e-001, 2.61265606e-001, 4.70589101e-001,
          3.34765404e-001, 2.09686801e-001, 1.77429795e-001,
          5.24999619e-001, 4.87179607e-001, 3.70971888e-001,
          2.14299306e-001, 1.58278301e-001, 1.44388795e-001,
          5.81393480e-001, 1.17761903e-002, 2.56422698e-001,
          2.53738701e-001, 6.20319605e-001, 5.49548417e-002,
          1.55570894e-001, 2.62302905e-001, 1.86061099e-001,
          4.06578816e-002, 1.95655495e-001, 4.90196496e-001,
          3.33644412e-002, 3.67352396e-001, 3.64709109e-001,
          1.66675195e-001, 6.01569898e-002, 4.00000989e-001,
          3.98497790e-001, 5.95233619e-001, 3.25008690e-001,
          5.77093214e-002, 1.44333601e-001, 9.87158865e-002,
          1.20478999e-005, 3.94742399e-001, 1.26995996e-001,
          1.07850797e-001, 2.90125996e-001, 1.08533204e-001,
          2.32570603e-001, 3.39628696e-001, 2.30773002e-001,
          1.03906401e-001, 3.24333787e-001, 2.83588499e-001,
          1.11119799e-001, 1.47079602e-001, 5.35713017e-001,
          6.07135177e-001, 1.40636206e-001, 2.95463800e-001,
          5.31100214e-001 ]
      - [ 3.42129804e-002, 1.79495394e-001, 3.03578407e-001,
          7.35419467e-002, 7.20797777e-002, 1.47069201e-001,
          1.71715301e-002, 1.61446407e-002, 1.61446407e-002,
          1.00006700e-001, 5.12858890e-002, 9.67871994e-002,
          1.42874107e-001, 5.03661782e-002, 1.87169105e-001,
          3.72096002e-001, 3.53050493e-002, 2.82062501e-001,
          1.49398502e-002, 7.48708621e-002, 9.89099070e-002,
          2.88898289e-001, 1.63945407e-001, 1.62806407e-001,
          2.11386800e-001, 5.43526709e-002, 4.11768198e-001,
          6.66955486e-002, 8.16497281e-002, 8.23627710e-002,
          5.12935594e-002, 1.27825096e-001, 2.05177404e-002,
          1.05269097e-001, 1.42874107e-001, 1.75016195e-001,
          7.69393519e-002, 1.85570300e-001, 2.31762007e-001,
          2.16874301e-001, 7.89695308e-002, 1.42868504e-001,
          1.76476896e-001, 2.09880099e-001, 1.55113898e-002,
          1.39551595e-001, 1.69823796e-001, 1.67836800e-001,
          1.68839797e-001, 1.08129300e-001, 4.47897092e-002,
          1.88895807e-001, 3.82359892e-001, 7.14438781e-002,
          5.35711706e-001, 3.28130394e-001, 1.13653898e-001,
          1.91433597e-002 ]
      - [ 3.36843014e-001, 2.43596300e-001, 1.78743601e-002,
          3.82356405e-001, 2.34238997e-001, 5.44116318e-001,
          3.94850701e-001, 4.51614499e-001, 3.22586387e-001,
          6.08331501e-001, 5.04273474e-001, 3.70971888e-001,
          4.76405919e-002, 3.30937713e-001, 6.31014585e-001,
          6.74414515e-001, 1.52949303e-001, 2.56653503e-002,
          2.83588499e-001, 7.27270305e-001, 2.63741493e-001,
          1.11128397e-001, 6.39339685e-001, 3.02334785e-001,
          2.43979804e-002, 2.01090202e-001, 3.13732803e-001,
          1.66688904e-001, 6.53055012e-001, 5.05882204e-001,
          1.79495394e-001, 3.00754905e-001, 5.28204799e-001,
          3.23310912e-001, 4.52383190e-001, 3.00009996e-001,
          5.38460076e-001, 2.42270693e-001, 2.06011102e-001,
          2.89161712e-001, 2.36855999e-001, 1.58883799e-002,
          7.84396380e-002, 4.50617909e-001, 3.10150199e-002,
          5.81391573e-001, 5.66205010e-002, 3.14687908e-001,
          2.46759802e-001, 8.11037198e-002, 3.43288302e-001,
          1.33341506e-001, 3.52949798e-001, 6.07138991e-001,
          1.42882705e-001, 1.09387197e-001, 6.82014525e-002,
          4.78469104e-001 ]
      - [ 2.36843497e-001, 6.41137436e-002, 1.78743601e-002,
          5.44116318e-001, 3.96398306e-001, 7.35287189e-001,
          3.86267096e-001, 3.06457907e-001, 4.19357389e-001,
          5.91665089e-001, 5.55555105e-001, 9.51598287e-001,
          1.42874107e-001, 2.01443106e-001, 4.70588505e-001,
          8.25573802e-001, 2.00007096e-001, 3.84621292e-001,
          1.04489401e-001, 5.98929405e-001, 3.40662807e-001,
          3.33340704e-001, 8.19661677e-001, 1.86061099e-001,
          1.62680298e-002, 1.30438805e-001, 6.07838929e-001,
          1.66688904e-001, 4.48981702e-001, 3.88237894e-001,
          3.84733714e-002, 3.00754905e-001, 5.38461089e-001,
          3.68423015e-001, 6.19041979e-001, 2.50012487e-001,
          4.42309886e-001, 8.24785307e-002, 3.04722697e-001,
          3.85544896e-001, 2.36855999e-001, 1.90485999e-001,
          2.94209905e-002, 2.77780503e-001, 3.87668386e-002,
          6.97874501e-002, 4.33964789e-001, 3.07695001e-001,
          2.07799807e-001, 3.24333787e-001, 2.53738701e-001,
          1.77784905e-001, 3.52949798e-001, 6.96421623e-001,
          3.57474498e-002, 6.25136718e-002, 7.95441091e-001,
          5.69377303e-001 ]
      - [ 1.34212494e-001, 7.69339204e-002, 2.67865390e-001,
          3.82356405e-001, 2.43247896e-001, 5.44116318e-001,
          3.26181710e-001, 1.45172700e-001, 6.45301789e-002,
          3.66668910e-001, 4.27350998e-001, 4.35485989e-001,
          3.33341300e-001, 5.75603209e-002, 1.49736404e-001,
          4.41861808e-001, 4.70694788e-002, 1.53863907e-001,
          7.46395588e-002, 4.01070595e-001, 9.89099070e-002,
          1.33349597e-001, 3.27874511e-001, 4.65327203e-002,
          2.60166496e-001, 1.46743000e-001, 1.17662102e-001,
          6.66955486e-002, 4.08167005e-001, 4.35295612e-001,
          6.41137436e-002, 1.27825096e-001, 4.20513600e-001,
          3.08273613e-001, 1.90490901e-001, 1.00019999e-001,
          7.88450420e-001, 1.03096902e-001, 2.91847289e-001,
          1.80730596e-001, 3.42113614e-001, 1.74613506e-001,
          5.58822393e-001, 8.02521035e-002, 7.75957014e-003,
          3.48844200e-001, 2.83027112e-001, 6.99360818e-002,
          3.37666601e-001, 1.08129300e-001, 3.28363299e-001,
          2.22228393e-001, 5.58820128e-001, 3.03578407e-001,
          1.42882705e-001, 3.28130394e-001, 3.86368811e-001,
          2.39236906e-001 ]
      - [ 4.92105305e-001, 1.53854996e-001, 4.28573996e-001,
          4.70589101e-001, 5.40620908e-002, 3.23534608e-001,
          2.96139091e-001, 4.03228909e-001, 2.90329307e-001,
          7.24996328e-001, 5.21367311e-001, 5.00000000e-001,
          3.33341300e-001, 3.23743492e-001, 5.08021295e-001,
          6.74414515e-001, 1.29420504e-001, 3.07702214e-001,
          4.32837814e-001, 7.43312895e-001, 1.97808802e-001,
          2.22234607e-001, 6.22946799e-001, 1.16296902e-001,
          8.94375667e-002, 2.50002712e-001, 4.90196496e-001,
          2.00020000e-001, 5.71425676e-001, 4.94117796e-001,
          5.12935594e-002, 3.53385687e-001, 6.05127096e-001,
          2.10530698e-001, 2.85724491e-001, 2.25013703e-001,
          5.96150100e-001, 5.15510105e-002, 4.76395100e-001,
          3.97592813e-001, 1.05283901e-001, 1.58740997e-001,
          6.86359107e-002, 5.18518329e-001, 9.30295736e-002,
          4.65327203e-002, 1.88691005e-001, 3.14687908e-001,
          3.89730111e-002, 2.16231599e-001, 4.92537498e-001,
          1.22230597e-001, 2.05899701e-001, 5.00000000e-001,
          7.14591816e-002, 2.34383300e-001, 5.45452476e-001,
          6.60285473e-001 ]
      - [ 3.78948003e-001, 3.84733714e-002, 5.35873696e-002,
          5.73527217e-001, 9.91063192e-002, 4.85294610e-001,
          4.03434306e-001, 5.16128480e-001, 1.12915702e-001,
          5.41665971e-001, 5.47008097e-001, 4.83871490e-001,
          1.90490901e-001, 3.59779000e-002, 4.11765605e-001,
          8.02318573e-001, 3.41180205e-001, 5.13050593e-002,
          4.32837814e-001, 5.29411495e-001, 1.09997597e-002,
          2.22212293e-005, 9.83590722e-001, 2.32779905e-002,
          3.25279310e-002, 3.31523597e-001, 5.88231802e-001,
          2.33351097e-001, 4.28574294e-001, 4.82353389e-001,
          1.02574296e-001, 3.68423015e-001, 5.94870806e-001,
          4.43609893e-001, 3.80957991e-001, 3.25008690e-001,
          3.07699710e-001, 2.57780794e-002, 3.64807993e-001,
          4.57832307e-001, 2.36855999e-001, 3.17609012e-002,
          9.80372897e-006, 4.75308895e-001, 7.75181798e-006,
          2.09315807e-001, 1.88860800e-002, 3.00702095e-001,
          2.59863399e-002, 1.35154903e-001, 4.02987987e-001,
          1.33341506e-001, 3.82359892e-001, 4.64287013e-001,
          7.14591816e-002, 1.56401396e-002, 2.95463800e-001,
          5.93300521e-001 ]
      - [ 2.63156494e-006, 2.56531909e-002, 3.39291513e-001,
          1.61774695e-001, 9.91063192e-002, 5.88365011e-002,
          1.54509395e-001, 4.83871490e-001, 9.67871994e-002,
          8.33402798e-002, 1.41028702e-001, 9.67871994e-002,
          7.14489818e-002, 7.91427493e-002, 3.47595215e-001,
          3.60468388e-001, 2.70593613e-001, 2.56653503e-002,
          1.49398502e-002, 3.47595215e-001, 2.63741493e-001,
          4.44646887e-002, 1.80338293e-001, 6.97874501e-002,
          2.92686313e-001, 2.39133298e-001, 2.15697393e-001,
          1.00026697e-001, 4.89796311e-001, 2.70593613e-001,
          3.84733714e-002, 7.52620306e-003, 1.48721606e-001,
          2.48124093e-001, 2.38322001e-002, 2.50237491e-002,
          1.92492604e-002, 5.15458578e-006, 1.63093001e-001,
          2.41078492e-002, 2.10541606e-001, 1.11123502e-001,
          4.90284488e-002, 7.40793273e-002, 9.30295736e-002,
          4.65327203e-002, 1.88860800e-002, 1.11893497e-001,
          1.55853093e-001, 8.11037198e-002, 1.34339303e-001,
          2.22228393e-001, 3.82359892e-001, 7.14438781e-002,
          1.78594396e-001, 3.59379411e-001, 2.27489695e-002,
          7.65590817e-002 ]
      - [ 1.10528402e-001, 2.43596300e-001, 4.82143492e-001,
          1.02952898e-001, 5.22522092e-001, 1.76480100e-001,
          2.01719299e-001, 8.06586891e-002, 1.61446407e-002,
          1.91671804e-001, 2.13677704e-001, 1.61446407e-002,
          2.61916101e-001, 7.20133493e-003, 2.08559304e-001,
          4.41861808e-001, 1.52949303e-001, 1.28224194e-001,
          2.53738701e-001, 3.95722985e-001, 3.29773016e-002,
          2.22234607e-001, 1.47552505e-001, 2.79080003e-001,
          9.75675210e-002, 1.46743000e-001, 4.70589399e-001,
          6.66955486e-002, 3.46944988e-001, 2.11771503e-001,
          2.17955902e-001, 3.53385687e-001, 1.74362302e-001,
          2.10530698e-001, 1.42874107e-001, 5.00225015e-002,
          5.77093214e-002, 2.37116098e-001, 1.37342200e-001,
          3.97592813e-001, 2.36855999e-001, 1.42868504e-001,
          1.37262002e-001, 6.17893599e-003, 2.86825001e-001,
          1.86061099e-001, 2.07558200e-001, 1.88815504e-001,
          5.19596897e-002, 1.08129300e-001, 2.98513502e-001,
          1.88895807e-001, 2.94394400e-002, 1.42869905e-001,
          3.57474498e-002, 3.28130394e-001, 2.27489695e-002,
          3.11006606e-001 ]
      - [ 1.23686202e-001, 2.17955902e-001, 5.35873696e-002,
          5.88365011e-002, 4.23424810e-001, 5.00000000e-001,
          2.36053795e-001, 9.67871994e-002, 6.45301789e-002,
          1.91671804e-001, 2.69232690e-001, 8.06586891e-002,
          4.76405919e-002, 7.19414084e-006, 1.92516699e-001,
          5.23255289e-001, 1.17761903e-002, 1.79503605e-001,
          1.04489401e-001, 5.77539325e-001, 3.29773016e-002,
          1.55570894e-001, 9.83738229e-002, 1.62806407e-001,
          4.06578816e-002, 7.06568435e-002, 2.35304505e-001,
          1.00026697e-001, 3.46944988e-001, 3.41180205e-001,
          4.48719293e-001, 1.27825096e-001, 2.25643799e-001,
          1.65418595e-001, 7.14489818e-002, 3.25008690e-001,
          3.84792909e-002, 4.02062893e-001, 3.56224388e-001,
          3.13257486e-001, 2.10541606e-001, 7.93784335e-002,
          1.07850797e-001, 1.48152500e-001, 3.95350486e-001,
          6.51155829e-001, 5.66205010e-002, 1.04900599e-001,
          2.59746492e-001, 1.62180394e-001, 4.92537498e-001,
          2.66671896e-001, 8.82595107e-002, 2.67865390e-001,
          1.07170902e-001, 9.37626883e-002, 1.59106404e-001,
          2.39236906e-001 ]
      - [ 1.13159902e-001, 3.33337605e-001, 3.57308686e-002,
          2.05890998e-001, 2.88292110e-001, 3.08829188e-001,
          2.91847289e-001, 3.22731510e-002, 3.22731510e-002,
          1.91671804e-001, 2.30771497e-001, 8.06586891e-002,
          3.80957991e-001, 1.51084200e-001, 6.95233196e-002,
          4.41861808e-001, 3.53050493e-002, 1.02584504e-001,
          2.08963901e-001, 3.68985415e-001, 2.08797604e-001,
          6.66859299e-002, 1.31159604e-001, 1.16296902e-001,
          1.13827400e-001, 5.44015784e-003, 3.33339900e-001,
          3.66675586e-001, 3.67352396e-001, 2.35300303e-001,
          1.92315593e-001, 1.50381193e-001, 2.15387493e-001,
          2.18049407e-001, 3.09532911e-001, 2.50237491e-002,
          1.73089504e-001, 4.22681212e-001, 2.27470204e-001,
          3.25305402e-001, 1.05283901e-001, 1.11123502e-001,
          1.56869501e-001, 4.93882783e-002, 3.72094989e-001,
          2.79080003e-001, 1.13222100e-001, 1.67836800e-001,
          5.19596897e-002, 4.86487210e-001, 1.94039002e-001,
          2.77782708e-001, 8.82595107e-002, 3.57147992e-001,
          4.64288294e-001, 1.56260699e-001, 1.13653898e-001,
          2.24883005e-001 ]
      - [ 1.57896504e-001, 2.30776101e-001, 1.42869905e-001,
          3.82356405e-001, 1.62168205e-001, 6.17643595e-001,
          1.93135694e-001, 8.06586891e-002, 1.12915702e-001,
          1.66672200e-001, 2.00857297e-001, 6.45301789e-002,
          4.52383190e-001, 2.01443106e-001, 1.06956102e-001,
          4.30234194e-001, 4.70694788e-002, 5.13050593e-002,
          8.95644873e-002, 4.11765605e-001, 5.49548417e-002,
          6.66859299e-002, 1.64093003e-002, 2.79080003e-001,
          7.31776729e-002, 5.97873889e-002, 3.13732803e-001,
          1.66688904e-001, 1.83686405e-001, 2.23535895e-001,
          7.69339204e-002, 2.55642802e-001, 4.10303511e-002,
          1.80455893e-001, 3.57149690e-001, 1.25018701e-001,
          7.69393519e-002, 4.12371993e-001, 3.47640812e-001,
          1.20599503e-002, 2.63143993e-005, 3.17609012e-002,
          1.07850797e-001, 9.25976187e-002, 3.48839611e-001,
          3.02334785e-001, 5.66205010e-002, 1.32872298e-001,
          1.68839797e-001, 1.08129300e-001, 3.58213186e-001,
          2.00006694e-001, 3.52949798e-001, 4.10717487e-001,
          3.57153088e-001, 7.81381801e-002, 6.82014525e-002,
          2.05744401e-001 ]
      - [ 3.05264205e-001, 6.66662395e-001, 5.17856479e-001,
          3.38240087e-001, 4.59460199e-001, 4.85294610e-001,
          2.74679989e-001, 9.67871994e-002, 1.29044205e-001,
          3.16669703e-001, 2.69232690e-001, 2.74200797e-001,
          5.00000000e-001, 3.38131785e-001, 1.07004195e-002,
          6.86042190e-001, 2.35406198e-002, 5.12819886e-001,
          2.38813803e-001, 5.88282496e-002, 9.89099070e-002,
          2.44455799e-001, 2.45910004e-001, 3.48844200e-001,
          4.71545190e-001, 1.73916593e-001, 3.92337590e-002,
          3.33344400e-001, 5.30610979e-001, 1.05891600e-001,
          1.53854996e-001, 2.03012004e-001, 1.43593401e-001,
          2.70680100e-001, 5.95233619e-001, 4.50002491e-001,
          3.65389794e-001, 5.10309219e-001, 4.67811406e-001,
          7.22994581e-002, 4.21056807e-001, 4.28573698e-001,
          2.25495607e-001, 4.50617909e-001, 2.79073209e-001,
          2.09315807e-001, 5.09433627e-001, 6.92305028e-001,
          1.55853093e-001, 2.97308296e-001, 4.32837814e-001,
          4.77778286e-001, 2.94394400e-002, 3.75004500e-001,
          1.78594396e-001, 2.34383300e-001, 2.27489695e-002,
          1.29190207e-001 ]
      - [ 2.15791002e-001, 5.00000000e-001, 3.92861009e-001,
          3.82356405e-001, 4.14415985e-001, 5.88232696e-001,
          2.06011102e-001, 9.67871994e-002, 2.09686801e-001,
          3.08336496e-001, 2.69232690e-001, 3.22731510e-002,
          7.14489818e-002, 5.97120881e-001, 3.68985415e-001,
          5.81393480e-001, 2.35406198e-002, 1.79503605e-001,
          1.34339303e-001, 5.34807108e-002, 3.18685293e-001,
          5.11110604e-001, 1.80338293e-001, 5.58136821e-001,
          4.14635509e-001, 1.19569398e-001, 1.96266808e-002,
          3.00013304e-001, 2.04277392e-002, 1.05891600e-001,
          1.41034797e-001, 1.80455893e-001, 5.64148091e-002,
          2.63161510e-001, 6.42850280e-001, 3.00009996e-001,
          6.15380228e-001, 3.14434886e-001, 2.36053795e-001,
          1.20491102e-001, 3.42113614e-001, 2.69848585e-001,
          2.05888107e-001, 2.53089488e-001, 3.95350486e-001,
          9.30421799e-002, 3.39628696e-001, 7.06290781e-001,
          7.79330432e-002, 4.59461689e-001, 4.17912900e-001,
          3.22226197e-001, 5.88494800e-002, 1.60726398e-001,
          7.14591816e-002, 2.65632302e-001, 2.27489695e-002,
          1.43544093e-001 ]
      - [ 3.26316714e-001, 2.17955902e-001, 2.14295894e-001,
          1.76480100e-001, 3.51354003e-001, 3.52945507e-001,
          2.96139091e-001, 3.06457907e-001, 1.29044205e-001,
          3.41669291e-001, 3.11967403e-001, 1.29044205e-001,
          2.38322001e-002, 4.60432202e-001, 5.18716395e-001,
          5.69765806e-001, 3.53050493e-002, 1.02584504e-001,
          1.49249299e-005, 5.34807108e-002, 2.74730206e-001,
          4.66668099e-001, 1.80338293e-001, 6.97874501e-002,
          4.39025402e-001, 2.06524894e-001, 1.96266808e-002,
          3.00013304e-001, 2.65315711e-001, 1.41184896e-001,
          2.17955902e-001, 2.40605399e-001, 1.02614304e-002,
          3.38348299e-001, 8.09509099e-001, 4.00005013e-001,
          5.77093214e-002, 4.38145012e-001, 5.45063972e-001,
          2.04826400e-001, 1.31598294e-001, 3.17609012e-002,
          2.74514198e-001, 2.03707397e-001, 3.17832291e-001,
          2.32547300e-005, 2.83027112e-001, 7.34262526e-001,
          1.29996603e-002, 2.97308296e-001, 2.98513502e-001,
          2.55560994e-001, 5.88494800e-002, 1.42869905e-001,
          3.21441293e-001, 1.56260699e-001, 1.36380196e-001,
          9.56976488e-002 ]
      - [ 2.10527793e-001, 1.66675195e-001, 2.67865390e-001,
          6.32349014e-001, 9.00884697e-006, 5.73527217e-001,
          3.13306302e-001, 3.06457907e-001, 3.06457907e-001,
          5.49999177e-001, 4.31624502e-001, 3.54843408e-001,
          9.52573717e-002, 1.07919298e-001, 4.27808315e-001,
          7.79063284e-001, 2.70593613e-001, 5.13050593e-002,
          2.83588499e-001, 5.88234425e-001, 6.59436136e-002,
          1.33349597e-001, 4.91803497e-001, 4.88372594e-001,
          4.87878211e-002, 4.89179492e-002, 2.15697393e-001,
          3.33344400e-001, 3.06130409e-001, 5.05882204e-001,
          1.41034797e-001, 2.48124093e-001, 2.66669095e-001,
          2.78198808e-001, 4.04766411e-001, 5.00225015e-002,
          4.61539894e-001, 1.23715200e-001, 1.37342200e-001,
          2.04826400e-001, 3.15799206e-001, 2.22231001e-001,
          1.76476896e-001, 3.14817101e-001, 1.00781403e-001,
          4.65327203e-002, 5.66205010e-002, 1.11893497e-001,
          7.79330432e-002, 7.02691674e-001, 4.92537498e-001,
          2.66671896e-001, 4.11769897e-001, 8.21417093e-001,
          2.50017911e-001, 4.68751013e-001, 3.18190098e-001,
          4.21053410e-001 ]
      - [ 1.57920197e-002, 3.07697207e-001, 3.03578407e-001,
          5.29410899e-001, 3.42345208e-001, 7.05876291e-001,
          2.18886495e-001, 4.51614499e-001, 1.29044205e-001,
          9.16734710e-002, 1.45302206e-001, 1.93558306e-001,
          2.61916101e-001, 3.16549391e-001, 3.20905708e-002,
          5.81393480e-001, 3.53050493e-002, 4.87180114e-001,
          2.98647806e-002, 1.39041305e-001, 1.97808802e-001,
          2.22234607e-001, 2.62302905e-001, 4.65117902e-001,
          2.03256905e-001, 1.35873497e-001, 2.74518609e-001,
          2.33351097e-001, 5.30610979e-001, 3.64709109e-001,
          7.69339204e-002, 1.65418595e-001, 5.64148091e-002,
          3.45867008e-001, 4.28574800e-001, 7.50212520e-002,
          1.92300304e-005, 9.79422927e-002, 8.58404636e-002,
          6.02515601e-002, 5.52628815e-001, 3.80956203e-001,
          3.33336592e-001, 8.02521035e-002, 3.10150199e-002,
          2.32779905e-002, 3.77363086e-001, 2.16787204e-001,
          9.09197181e-002, 5.40781617e-002, 5.07462502e-001,
          4.00002211e-001, 8.82595107e-002, 8.93003792e-002,
          3.57474498e-002, 2.18758807e-001, 6.82014525e-002,
          3.82819287e-002 ]
      - [ 2.07896307e-001, 3.07697207e-001, 3.03578407e-001,
          3.97061914e-001, 4.68468994e-001, 5.00000000e-001,
          2.87555486e-001, 1.61446407e-002, 4.35485989e-001,
          5.83406910e-002, 1.19661398e-001, 1.77429795e-001,
          4.52383190e-001, 3.81296694e-001, 1.60479601e-002,
          4.53489512e-001, 1.29420504e-001, 3.33341897e-001,
          4.47897092e-002, 9.62610021e-002, 1.53853804e-001,
          4.44646887e-002, 1.96731299e-001, 3.25589508e-001,
          2.60166496e-001, 4.89179492e-002, 3.72554004e-001,
          3.66675586e-001, 3.46944988e-001, 3.05886894e-001,
          6.41137436e-002, 1.87974602e-001, 2.56458893e-002,
          3.23310912e-001, 4.52383190e-001, 5.00225015e-002,
          3.84619802e-001, 2.83507407e-001, 3.43387611e-002,
          1.44586906e-001, 2.36855999e-001, 1.26995996e-001,
          3.43140304e-001, 9.25976187e-002, 1.93803206e-001,
          1.62806407e-001, 3.39628696e-001, 3.42659503e-001,
          5.19596897e-002, 5.40781617e-002, 1.94039002e-001,
          2.77782708e-001, 2.94394400e-002, 2.67865390e-001,
          1.07170902e-001, 3.12646516e-002, 1.36380196e-001,
          7.17744306e-002 ]
      - [ 2.92106390e-001, 3.97438496e-001, 1.78582907e-001,
          2.94256099e-002, 4.23424810e-001, 8.82474035e-002,
          1.63093001e-001, 6.45301789e-002, 2.09686801e-001,
          3.41669291e-001, 2.86326587e-001, 3.38714898e-001,
          2.38083903e-005, 3.52520108e-001, 1.33693799e-001,
          1.16287999e-001, 1.76478207e-001, 2.56397107e-005,
          4.32837814e-001, 2.45992005e-001, 4.39660698e-002,
          1.55570894e-001, 2.29517102e-001, 4.65327203e-002,
          4.63415205e-001, 4.34783310e-001, 2.15697393e-001,
          2.66682208e-001, 8.16497281e-002, 3.53050493e-002,
          2.56531909e-002, 1.57899901e-001, 1.17952600e-001,
          1.12787798e-001, 3.33341300e-001, 7.24988818e-001,
          1.92492604e-002, 2.98971087e-001, 1.71715301e-002,
          4.33736503e-001, 1.31598294e-001, 7.93784335e-002,
          4.50981408e-001, 6.35800779e-001, 4.65186611e-002,
          6.97874501e-002, 4.90566403e-001, 4.82517689e-001,
          3.24679911e-001, 1.62180394e-001, 1.04489401e-001,
          3.22226197e-001, 2.64719695e-001, 2.32152402e-001,
          2.85729587e-001, 3.43754888e-001, 5.00000000e-001,
          3.73207003e-001 ]
      - [ 2.84211695e-001, 5.12820184e-001, 7.14438781e-002,
          3.82356405e-001, 4.68468994e-001, 4.11767304e-001,
          1.84552103e-001, 3.06457907e-001, 1.61285097e-005,
          5.00074998e-002, 3.63249004e-001, 1.61301196e-001,
          1.42874107e-001, 2.01443106e-001, 2.03211695e-001,
          1.27915606e-001, 8.23627710e-002, 1.28224194e-001,
          3.58213186e-001, 1.60431400e-001, 7.69323781e-002,
          2.22234607e-001, 1.64093003e-002, 3.48844200e-001,
          2.92686313e-001, 1.84786007e-001, 9.80549827e-002,
          1.66688904e-001, 1.22464404e-001, 2.47064799e-001,
          8.97541121e-002, 4.88721997e-001, 8.71837214e-002,
          1.50381193e-001, 3.33341300e-001, 4.00005013e-001,
          5.00000000e-001, 6.80410504e-001, 4.29185212e-001,
          6.62646711e-001, 3.94742399e-001, 1.58725106e-005,
          4.31373894e-001, 3.20989907e-001, 2.86825001e-001,
          2.32779905e-002, 3.96230310e-001, 2.09794298e-001,
          3.63639891e-001, 4.05410498e-001, 4.47897092e-002,
          4.11113113e-001, 8.82595107e-002, 1.25013396e-001,
          3.92864794e-001, 1.87509805e-001, 4.31821287e-001,
          6.69897869e-002 ]
      - [ 1.55265003e-001, 3.84618312e-001, 1.96439400e-001,
          3.23534608e-001, 3.24327499e-001, 1.61774695e-001,
          1.07299499e-001, 3.22731510e-002, 1.61285097e-005,
          4.16743085e-002, 1.79489896e-001, 2.90329307e-001,
          4.04766411e-001, 5.03661782e-002, 1.28346205e-001,
          9.30327177e-002, 1.17656097e-001, 1.28224194e-001,
          2.23888800e-001, 4.06418115e-001, 8.79211426e-002,
          4.44646887e-002, 2.78695792e-001, 6.97665215e-001,
          4.14635509e-001, 3.09784710e-001, 2.74518609e-001,
          2.66682208e-001, 1.83686405e-001, 3.52944613e-001,
          3.84733714e-002, 2.10530698e-001, 1.89746797e-001,
          1.50381193e-001, 2.61916101e-001, 5.24998784e-001,
          4.61539894e-001, 4.02062893e-001, 1.71676606e-001,
          4.69880193e-001, 1.05283901e-001, 3.17609012e-002,
          5.39214909e-001, 7.40793273e-002, 1.00781403e-001,
          9.30421799e-002, 4.71699208e-001, 2.58744597e-001,
          4.41560000e-001, 5.94589472e-001, 2.08963901e-001,
          4.66667414e-001, 4.41179901e-001, 1.78582907e-001,
          1.42882705e-001, 3.59379411e-001, 2.95463800e-001,
          1.62682697e-001 ]
      - [ 3.57895494e-001, 3.84618312e-001, 1.96439400e-001,
          4.41310517e-002, 4.77477908e-001, 3.52945507e-001,
          1.03007697e-001, 3.06457907e-001, 1.12915702e-001,
          6.66738898e-002, 2.00857297e-001, 8.06586891e-002,
          2.38322001e-002, 4.96402889e-001, 2.13906795e-001,
          2.67447293e-001, 1.76478207e-001, 2.56653503e-002,
          2.23888800e-001, 1.60431400e-001, 1.97808802e-001,
          5.33331871e-001, 4.91951108e-002, 3.02334785e-001,
          3.08946192e-001, 1.41308203e-001, 1.96070705e-005,
          1.33357793e-001, 1.02057099e-001, 3.64709109e-001,
          3.07697207e-001, 2.03012004e-001, 2.56458893e-002,
          1.35343805e-001, 3.57149690e-001, 6.99989974e-001,
          2.50009596e-001, 7.73193121e-001, 4.93562311e-001,
          5.54215610e-001, 1.05283901e-001, 9.52509418e-002,
          3.82355213e-001, 3.64199191e-001, 4.26357687e-001,
          2.32779905e-002, 5.47168016e-001, 1.74829707e-001,
          2.85719901e-001, 4.05410498e-001, 7.46395588e-002,
          4.77778286e-001, 2.94100300e-005, 3.57308686e-002,
          3.21441293e-001, 1.87509805e-001, 4.31821287e-001,
          1.81821197e-001 ]
      - [ 2.63182800e-002, 1.92315593e-001, 5.35873696e-002,
          1.61774695e-001, 1.17123999e-001, 1.61774695e-001,
          2.91847289e-001, 1.12915702e-001, 1.29044205e-001,
          2.16671407e-001, 2.64959306e-001, 9.67871994e-002,
          2.14299306e-001, 7.91427493e-002, 1.76474005e-001,
          4.41861808e-001, 3.52944613e-001, 5.13050593e-002,
          1.49398502e-002, 4.81331795e-002, 5.49548417e-002,
          1.77792102e-001, 1.31159604e-001, 2.32779905e-002,
          2.03256905e-001, 2.22829103e-001, 2.15697393e-001,
          1.00026697e-001, 3.26537699e-001, 1.17656097e-001,
          2.05135807e-001, 2.40605399e-001, 1.28208905e-001,
          4.73684609e-001, 2.38107696e-001, 2.00014994e-001,
          5.77093214e-002, 3.09326705e-002, 2.66096413e-001,
          3.61557603e-002, 1.84227094e-001, 1.74613506e-001,
          1.86280698e-001, 6.79010093e-001, 7.75957014e-003,
          1.39551595e-001, 3.77363086e-001, 4.89510596e-001,
          2.72733212e-001, 2.70525906e-002, 1.49249299e-005,
          2.11117506e-001, 2.94394400e-002, 3.57308686e-002,
          7.14591816e-002, 5.62497973e-001, 3.40916306e-001,
          2.67944813e-001 ]
      - [ 3.13158900e-001, 1.28214702e-001, 1.42869905e-001,
          1.32363796e-001, 2.25230202e-001, 5.44116318e-001,
          2.91847289e-001, 2.25815296e-001, 3.06457907e-001,
          4.83333588e-001, 3.07693988e-001, 3.70971888e-001,
          2.85724491e-001, 3.09355289e-001, 4.54545885e-001,
          6.62786901e-001, 1.17644304e-005, 7.69447684e-002,
          2.98647806e-002, 7.21922815e-001, 3.07696491e-001,
          2.44455799e-001, 3.77053201e-001, 1.16296902e-001,
          1.86996996e-001, 1.52177706e-001, 3.72554004e-001,
          4.00006711e-001, 2.04093695e-001, 5.05882204e-001,
          2.05135807e-001, 1.57899901e-001, 4.41026211e-001,
          2.93236196e-001, 2.85724491e-001, 2.00014994e-001,
          1.53859496e-001, 2.01033995e-001, 2.06011102e-001,
          9.63952690e-002, 5.26551194e-002, 1.11123502e-001,
          2.94209905e-002, 1.11115903e-001, 2.86825001e-001,
          4.65327203e-002, 3.39628696e-001, 3.00702095e-001,
          5.19596897e-002, 5.67563891e-001, 4.77612615e-001,
          2.33339295e-001, 2.64719695e-001, 3.03578407e-001,
          3.57117315e-005, 2.65632302e-001, 1.36380196e-001,
          3.63637686e-001 ]
      - [ 2.36843497e-001, 1.28214702e-001, 4.64287013e-001,
          4.55883712e-001, 9.91063192e-002, 6.47054493e-001,
          3.60516191e-001, 1.12915702e-001, 2.58072287e-001,
          6.49997473e-001, 5.59828520e-001, 5.32257020e-001,
          4.76191610e-001, 2.08637297e-001, 5.24063885e-001,
          8.13946187e-001, 4.70694788e-002, 2.30783001e-001,
          5.67162216e-001, 6.20319605e-001, 1.64842501e-001,
          1.11128397e-001, 6.06553912e-001, 2.32570603e-001,
          1.95126906e-001, 3.04349989e-001, 9.99980390e-001,
          3.66675586e-001, 3.26537699e-001, 5.76468825e-001,
          3.84733714e-002, 1.87974602e-001, 5.33333004e-001,
          3.38348299e-001, 3.09532911e-001, 3.75006199e-001,
          2.11549595e-001, 9.79422927e-002, 2.57551409e-002,
          1.68682694e-001, 2.63407193e-002, 2.06358507e-001,
          1.56869501e-001, 4.50617909e-001, 1.08533204e-001,
          2.79080003e-001, 1.88691005e-001, 4.05595690e-001,
          2.72733212e-001, 1.35154903e-001, 5.07462502e-001,
          8.88980180e-002, 2.94394400e-002, 5.71425974e-001,
          1.07170902e-001, 4.68891598e-002, 5.22726178e-001,
          7.41624475e-001 ]
      - [ 3.71053308e-001, 1.15394503e-001, 5.35873696e-002,
          3.97061914e-001, 1.80267002e-002, 3.67650986e-001,
          2.44637400e-001, 7.25799203e-001, 1.77429795e-001,
          5.91665089e-001, 3.58975589e-001, 5.48385501e-001,
          1.66682497e-001, 1.87054902e-001, 5.13368785e-001,
          7.67435610e-001, 2.47064799e-001, 2.56422698e-001,
          5.22387385e-001, 5.56149125e-001, 2.85719007e-001,
          2.22434606e-002, 1.31159604e-001, 2.32547300e-005,
          7.31776729e-002, 2.33698502e-001, 5.88231802e-001,
          3.33644412e-002, 9.99979615e-001, 4.94117796e-001,
          1.28214702e-001, 2.10530698e-001, 1.84618607e-001,
          1.27825096e-001, 1.90490901e-001, 5.00225015e-002,
          1.73089504e-001, 3.09326705e-002, 8.58404636e-002,
          2.77113795e-001, 2.63143993e-005, 1.74613506e-001,
          8.82433727e-002, 4.62963402e-001, 1.55113898e-002,
          3.48844200e-001, 1.13222100e-001, 2.44758800e-001,
          6.49463683e-002, 1.89206004e-001, 8.05961013e-001,
          2.22328398e-002, 2.05899701e-001, 1.78743601e-002,
          3.92864794e-001, 2.03134298e-001, 2.72737592e-001,
          4.97607708e-001 ]
      - [ 8.68442804e-002, 3.84733714e-002, 2.85721898e-001,
          1.91185594e-001, 4.68468994e-001, 4.26472813e-001,
          1.20174900e-001, 3.54843408e-001, 2.74200797e-001,
          3.91668499e-001, 2.26498097e-001, 1.77429795e-001,
          1.19065799e-001, 2.73384601e-001, 2.99467415e-001,
          6.04648709e-001, 2.58829206e-001, 2.05143303e-001,
          2.38813803e-001, 5.98929405e-001, 4.39561814e-001,
          4.00004387e-001, 2.29517102e-001, 3.25589508e-001,
          4.87805098e-001, 2.39133298e-001, 1.37269095e-001,
          3.33344400e-001, 6.93869591e-001, 4.70588893e-001,
          7.17943072e-001, 7.44357228e-001, 2.10259393e-001,
          2.48124093e-001, 5.23808420e-001, 6.24993801e-001,
          5.57690084e-001, 7.31956422e-001, 6.69526398e-001,
          6.38550878e-001, 2.10541606e-001, 3.80956203e-001,
          1.76476896e-001, 1.23461403e-001, 3.95350486e-001,
          3.25589508e-001, 1.88691005e-001, 1.11893497e-001,
          3.89730111e-002, 1.08129300e-001, 4.17912900e-001,
          4.11113113e-001, 2.05899701e-001, 1.78743601e-002,
          6.42846882e-001, 5.31248987e-001, 2.95463800e-001,
          1.48328707e-001 ]
      - [ 2.47369796e-001, 2.82056898e-001, 2.67865390e-001,
          5.88365011e-002, 2.61265606e-001, 6.02938116e-001,
          7.29650408e-002, 4.35485989e-001, 2.90329307e-001,
          5.00000000e-001, 8.55120923e-003, 1.12915702e-001,
          1.42874107e-001, 3.95684987e-001, 5.72191715e-001,
          7.90690899e-001, 2.70593613e-001, 7.69447684e-002,
          2.53738701e-001, 7.11227715e-001, 4.17584211e-001,
          1.33349597e-001, 3.11481595e-001, 1.86061099e-001,
          2.68296510e-001, 3.42393011e-001, 1.17662102e-001,
          1.33357793e-001, 6.53055012e-001, 9.99988198e-001,
          3.84618312e-001, 2.03012004e-001, 5.12820423e-001,
          7.52620306e-003, 5.71425200e-001, 2.75011212e-001,
          9.61693823e-002, 2.57780794e-002, 2.48929203e-001,
          1.44586906e-001, 1.31598294e-001, 3.17466110e-001,
          9.81353316e-003, 5.00000000e-001, 1.55113898e-002,
          6.97665215e-001, 5.66205010e-002, 5.59502691e-002,
          1.94813102e-001, 1.62180394e-001, 8.20885897e-001,
          3.22226197e-001, 5.58820128e-001, 1.25013396e-001,
          5.00000000e-001, 6.40620589e-001, 1.81832597e-001,
          1.24405503e-001 ]
      - [ 3.71053308e-001, 2.30776101e-001, 7.14438781e-002,
          5.14705420e-001, 1.26132905e-001, 6.17643595e-001,
          3.86267096e-001, 5.00000000e-001, 3.38714898e-001,
          6.08331501e-001, 6.23930573e-001, 5.16128480e-001,
          2.85724491e-001, 1.15113497e-001, 5.13368785e-001,
          8.13946187e-001, 8.23627710e-002, 1.02584504e-001,
          3.43288302e-001, 6.52404785e-001, 1.97808802e-001,
          4.44646887e-002, 8.03268671e-001, 1.86061099e-001,
          9.75675210e-002, 2.98915207e-001, 8.03909719e-001,
          3.66675586e-001, 6.12240314e-001, 5.05882204e-001,
          2.94877112e-001, 3.68423015e-001, 5.02564073e-001,
          3.53385687e-001, 5.00000000e-001, 6.24993801e-001,
          1.92300304e-005, 5.15458578e-006, 3.39057207e-001,
          5.18071890e-001, 1.05283901e-001, 6.35059178e-002,
          1.76476896e-001, 3.64199191e-001, 6.97741136e-002,
          2.32779905e-002, 1.32089406e-001, 2.79723406e-001,
          2.98706502e-001, 1.08129300e-001, 7.31336415e-001,
          1.11219799e-002, 1.17669500e-001, 7.85704076e-001,
          5.35711706e-001, 7.81381801e-002, 5.22726178e-001,
          8.32532704e-001 ]
      - [ 4.63158101e-001, 1.02574296e-001, 5.35873696e-002,
          4.41178203e-001, 3.60444002e-002, 4.55883712e-001,
          3.47640812e-001, 3.22586387e-001, 2.90329307e-001,
          7.33329415e-001, 5.47008097e-001, 4.67743009e-001,
          2.38107696e-001, 3.16549391e-001, 5.72191715e-001,
          7.90690899e-001, 1.76478207e-001, 4.35900688e-001,
          6.41786814e-001, 6.36362195e-001, 1.86820105e-001,
          2.22212293e-005, 5.40982306e-001, 1.16296902e-001,
          3.25279310e-002, 3.58697206e-001, 8.82337928e-001,
          2.33351097e-001, 7.14277029e-001, 4.23531204e-001,
          2.17955902e-001, 3.83460402e-001, 4.15385514e-001,
          3.90979111e-001, 3.57149690e-001, 5.24998784e-001,
          3.84792909e-002, 1.18560597e-001, 5.02145886e-001,
          3.73497009e-001, 2.36855999e-001, 1.58883799e-002,
          6.86359107e-002, 4.13581312e-001, 6.20222911e-002,
          4.65327203e-002, 3.58495891e-001, 2.58744597e-001,
          1.94813102e-001, 4.05410498e-001, 3.58213186e-001,
          4.44545709e-002, 1.47079602e-001, 5.89282513e-001,
          5.35711706e-001, 3.75003904e-001, 5.45452476e-001,
          9.99995172e-001 ]
      - [ 1.55265003e-001, 5.12935594e-002, 5.71425974e-001,
          1.32363796e-001, 1.08115204e-001, 1.61774695e-001,
          1.71715301e-002, 1.77429795e-001, 2.41943806e-001,
          2.25004598e-001, 4.27774107e-003, 1.12915702e-001,
          1.66682497e-001, 3.59779000e-002, 4.43850905e-001,
          3.83723587e-001, 4.58824486e-001, 2.56653503e-002,
          3.58213186e-001, 2.35296905e-001, 2.19885297e-002,
          2.22434606e-002, 1.64093003e-002, 3.02334785e-001,
          2.35776693e-001, 3.26137803e-002, 4.31375206e-001,
          5.33331096e-001, 3.26537699e-001, 1.64713800e-001,
          7.69339204e-002, 2.25635692e-002, 4.61585000e-002,
          1.72937199e-001, 2.85724491e-001, 2.49987497e-005,
          5.77093214e-002, 2.06188604e-001, 2.53221005e-001,
          2.41078492e-002, 1.57912701e-001, 1.11123502e-001,
          4.90284488e-002, 4.93882783e-002, 4.65186611e-002,
          1.62806407e-001, 5.66205010e-002, 7.69289881e-002,
          2.59746492e-001, 8.11037198e-002, 7.46395588e-002,
          1.88895807e-001, 2.64719695e-001, 8.93003792e-002,
          5.35711706e-001, 5.46873510e-001, 1.59106404e-001,
          2.39279997e-002 ]
      - [ 1.73685893e-001, 3.71798187e-001, 3.57308686e-002,
          4.26472813e-001, 6.30709380e-002, 3.38240087e-001,
          2.31762007e-001, 1.29044205e-001, 2.09686801e-001,
          4.66667205e-001, 3.76069397e-001, 3.22586387e-001,
          2.38322001e-002, 2.30219707e-001, 4.38503295e-001,
          7.90690899e-001, 8.23627710e-002, 7.69447684e-002,
          1.49264202e-001, 5.18716395e-001, 1.97808802e-001,
          6.66859299e-002, 3.44267398e-001, 2.32779905e-002,
          3.25279310e-002, 5.43526709e-002, 1.76483303e-001,
          2.66682208e-001, 1.83686405e-001, 1.88242599e-001,
          5.89741290e-001, 3.00822500e-002, 4.61585000e-002,
          1.50381193e-001, 4.76405919e-002, 5.00225015e-002,
          2.30779603e-001, 2.57734507e-001, 8.15486610e-002,
          1.44586906e-001, 2.63170391e-001, 1.58740997e-001,
          3.92247215e-002, 2.09880099e-001, 1.93803206e-001,
          4.65117902e-001, 1.88860800e-002, 2.02801406e-001,
          1.68839797e-001, 5.94589472e-001, 2.53738701e-001,
          1.11119799e-001, 2.94394400e-002, 2.85721898e-001,
          5.71423471e-001, 4.21877414e-001, 2.27262408e-005,
          2.15313703e-001 ]
      - [ 7.89495781e-002, 5.00000000e-001, 8.93003792e-002,
          2.05890998e-001, 2.61265606e-001, 3.08829188e-001,
          2.10302904e-001, 2.09686801e-001, 2.74200797e-001,
          4.16668087e-001, 3.37608188e-001, 2.58072287e-001,
          3.80957991e-001, 8.63368884e-002, 4.38503295e-001,
          5.00000000e-001, 1.76478207e-001, 1.53863907e-001,
          1.49264202e-001, 5.08021295e-001, 1.75831303e-001,
          1.77792102e-001, 2.78695792e-001, 4.65327203e-002,
          2.11386800e-001, 2.17443295e-002, 2.35304505e-001,
          1.66688904e-001, 1.83686405e-001, 3.52944613e-001,
          1.66675195e-001, 9.77504104e-002, 1.17952600e-001,
          2.25567997e-001, 1.66682497e-001, 4.25003707e-001,
          2.69239604e-001, 2.42270693e-001, 1.63093001e-001,
          1.20491102e-001, 6.31572008e-001, 7.93784335e-002,
          7.84396380e-002, 6.79065734e-002, 2.17058703e-001,
          2.55825311e-001, 5.66205010e-002, 1.88815504e-001,
          1.55853093e-001, 4.32436109e-001, 1.34339303e-001,
          4.44545709e-002, 2.94129789e-001, 1.78582907e-001,
          6.42846882e-001, 3.28130394e-001, 1.13653898e-001,
          1.72251895e-001 ]
      - [ 1.00002103e-001, 5.12935594e-002, 1.96439400e-001,
          4.41310517e-002, 7.20797777e-002, 3.08829188e-001,
          3.21889907e-001, 4.84016612e-002, 1.93558306e-001,
          8.33402798e-002, 3.46155196e-001, 3.06457907e-001,
          9.52573717e-002, 7.19486102e-002, 2.62034595e-001,
          2.67447293e-001, 2.23535895e-001, 1.79503605e-001,
          1.19414300e-001, 2.99467415e-001, 5.49548417e-002,
          6.66859299e-002, 3.28022018e-002, 1.86061099e-001,
          2.19516799e-001, 9.23957303e-002, 3.13732803e-001,
          2.00020000e-001, 2.65315711e-001, 2.11771503e-001,
          3.84733714e-002, 5.26383109e-002, 1.74362302e-001,
          2.70680100e-001, 9.52573717e-002, 3.50007504e-001,
          1.34629399e-001, 1.64951906e-001, 2.66096413e-001,
          1.20599503e-002, 2.10541606e-001, 3.17609012e-002,
          5.88321798e-002, 2.83953309e-001, 6.20222911e-002,
          3.25589508e-001, 1.88860800e-002, 2.09857207e-002,
          2.07799807e-001, 2.16231599e-001, 3.28363299e-001,
          1.33341506e-001, 1.76489606e-001, 2.14295894e-001,
          1.78594396e-001, 3.90628397e-001, 6.82014525e-002,
          2.72729397e-001 ]
      - [ 2.39475101e-001, 1.28330002e-002, 1.78582907e-001,
          2.64712811e-001, 9.00884697e-006, 1.47054498e-005,
          2.44637400e-001, 2.41943806e-001, 1.45172700e-001,
          1.66672200e-001, 1.75216496e-001, 2.25815296e-001,
          2.38322001e-002, 7.19414084e-006, 3.58290315e-001,
          4.30234194e-001, 2.70593613e-001, 4.35900688e-001,
          2.98513502e-001, 4.27808315e-001, 1.20887503e-001,
          2.22212293e-005, 3.27874511e-001, 1.62806407e-001,
          1.30087301e-001, 2.71790493e-002, 4.70589399e-001,
          6.66955486e-002, 4.28574294e-001, 4.11766797e-001,
          2.56531909e-002, 1.20306499e-001, 2.51284599e-001,
          1.95493296e-001, 1.19065799e-001, 5.00225015e-002,
          3.26929688e-001, 5.15458578e-006, 3.73391598e-001,
          1.20491102e-001, 5.26551194e-002, 7.93784335e-002,
          1.07850797e-001, 3.27162594e-001, 3.10150199e-002,
          9.30421799e-002, 1.32089406e-001, 9.09148082e-002,
          1.03906401e-001, 2.70255696e-005, 1.79114103e-001,
          1.44452304e-001, 5.88494800e-002, 4.10717487e-001,
          1.78594396e-001, 4.68751013e-001, 2.04558894e-001,
          1.62682697e-001 ]
      - [ 2.07896307e-001, 3.84618312e-001, 2.14295894e-001,
          1.47201596e-002, 8.10886323e-002, 4.85294610e-001,
          1.54509395e-001, 1.77429795e-001, 1.77429795e-001,
          2.91670114e-001, 3.93163294e-001, 5.00000000e-001,
          4.76405919e-002, 6.47544563e-002, 4.27808315e-001,
          7.44180381e-001, 5.88339083e-002, 3.07702214e-001,
          2.23888800e-001, 4.38503295e-001, 2.19885297e-002,
          4.00004387e-001, 6.06553912e-001, 1.86061099e-001,
          5.69177717e-002, 2.71741599e-001, 5.88231802e-001,
          5.66662192e-001, 5.71425676e-001, 4.11766797e-001,
          1.02574296e-001, 8.27130377e-002, 5.64148091e-002,
          1.72937199e-001, 4.04766411e-001, 7.50212520e-002,
          5.38460076e-001, 6.18601888e-002, 2.96139091e-001,
          1.44586906e-001, 2.63143993e-005, 7.93784335e-002,
          9.80471000e-002, 3.02471608e-001, 4.65186611e-002,
          1.39551595e-001, 3.01894307e-001, 1.46858096e-001,
          2.33773097e-001, 1.89206004e-001, 2.08963901e-001,
          1.33341506e-001, 8.82595107e-002, 2.50008911e-001,
          5.35711706e-001, 2.96881288e-001, 1.36380196e-001,
          2.91868001e-001 ]
      - [ 1.13159902e-001, 6.41137436e-002, 2.50008911e-001,
          3.38240087e-001, 2.43247896e-001, 2.05890998e-001,
          3.34765404e-001, 1.77429795e-001, 3.70971888e-001,
          4.16668087e-001, 3.93163294e-001, 6.45301789e-002,
          1.42874107e-001, 3.23743492e-001, 4.81331795e-002,
          6.16276383e-001, 9.41272005e-002, 1.02584504e-001,
          1.34339303e-001, 2.62034595e-001, 3.18685293e-001,
          1.77792102e-001, 1.96731299e-001, 4.88372594e-001,
          2.19516799e-001, 5.43526709e-002, 2.15697393e-001,
          3.33644412e-002, 5.10203719e-001, 1.41184896e-001,
          1.66675195e-001, 2.03012004e-001, 2.30772004e-001,
          2.85717487e-001, 5.00000000e-001, 1.75016195e-001,
          1.15399398e-001, 2.57780794e-002, 2.53221005e-001,
          2.16874301e-001, 3.42113614e-001, 1.58740997e-001,
          1.07850797e-001, 3.76544714e-001, 3.87668386e-002,
          1.62806407e-001, 4.33964789e-001, 1.53851002e-001,
          5.19596897e-002, 2.70525906e-002, 1.04489401e-001,
          3.33337009e-001, 2.94394400e-002, 1.07156903e-001,
          1.78594396e-001, 6.25136718e-002, 9.09276903e-002,
          1.10051602e-001 ]
      - [ 6.31601885e-002, 7.69339204e-002, 1.42869905e-001,
          1.91185594e-001, 6.30709380e-002, 1.47054498e-005,
          1.11591302e-001, 2.41943806e-001, 8.06586891e-002,
          4.16743085e-002, 1.66669503e-001, 1.61446407e-002,
          1.66682497e-001, 8.63368884e-002, 1.92516699e-001,
          3.83723587e-001, 3.88237894e-001, 2.56422698e-001,
          1.49398502e-002, 1.44388795e-001, 1.53853804e-001,
          8.89071599e-002, 2.95088708e-001, 1.39551595e-001,
          8.94375667e-002, 2.06524894e-001, 3.92161101e-001,
          2.00020000e-001, 5.10203719e-001, 1.17656097e-001,
          2.05135807e-001, 3.00822500e-002, 2.05131203e-001,
          1.95493296e-001, 3.57149690e-001, 5.00225015e-002,
          3.84792909e-002, 8.76331180e-002, 1.67384803e-001,
          4.82036583e-002, 7.89695308e-002, 3.17609012e-002,
          4.90284488e-002, 2.83953309e-001, 2.09306806e-001,
          1.39551595e-001, 1.13222100e-001, 1.39865205e-001,
          1.42866403e-001, 5.40781617e-002, 1.19414300e-001,
          1.55563205e-001, 3.23539793e-001, 8.93003792e-002,
          6.78558707e-001, 1.87509805e-001, 1.59106404e-001,
          1.33974805e-001 ]
      - [ 1.02633700e-001, 1.66675195e-001, 1.78582907e-001,
          3.23534608e-001, 2.43247896e-001, 2.94123709e-001,
          2.74679989e-001, 2.58072287e-001, 1.29044205e-001,
          2.50004202e-001, 3.11967403e-001, 4.84016612e-002,
          2.85724491e-001, 1.00725196e-001, 5.34753599e-006,
          4.06978905e-001, 2.35300303e-001, 1.53863907e-001,
          2.38813803e-001, 3.79680395e-001, 2.85719007e-001,
          2.22234607e-001, 6.55880123e-002, 4.88372594e-001,
          6.50477186e-002, 1.63096096e-002, 2.54911602e-001,
          6.66955486e-002, 4.28574294e-001, 2.70593613e-001,
          2.82056898e-001, 3.76009382e-002, 3.07740401e-002,
          3.08273613e-001, 4.04766411e-001, 2.25013703e-001,
          2.69239604e-001, 3.50517005e-001, 7.29650408e-002,
          1.92778498e-001, 2.63170391e-001, 6.35059178e-002,
          2.25495607e-001, 3.08699906e-002, 2.94576794e-001,
          2.32547300e-005, 1.32089406e-001, 6.99360818e-002,
          7.79330432e-002, 1.35154903e-001, 3.43288302e-001,
          1.55563205e-001, 8.82595107e-002, 1.42869905e-001,
          1.42882705e-001, 1.40636206e-001, 2.04558894e-001,
          4.30665687e-002 ]
      - [ 8.42127129e-002, 1.41034797e-001, 1.96439400e-001,
          2.20596507e-001, 2.70355493e-002, 2.05890998e-001,
          2.48929203e-001, 3.87100399e-001, 3.22586387e-001,
          3.25002909e-001, 3.46155196e-001, 2.74200797e-001,
          1.19065799e-001, 1.29501700e-001, 2.13906795e-001,
          4.76744711e-001, 2.11771503e-001, 2.30783001e-001,
          1.04489401e-001, 2.62034595e-001, 5.49548417e-002,
          1.11128397e-001, 1.14766702e-001, 9.30421799e-002,
          1.38217300e-001, 8.15262869e-002, 7.84302592e-001,
          3.00013304e-001, 3.26537699e-001, 2.35300303e-001,
          1.79495394e-001, 1.35343805e-001, 3.23078692e-001,
          3.15792203e-001, 2.85724491e-001, 1.75016195e-001,
          1.53859496e-001, 1.13406003e-001, 2.23178297e-001,
          1.92778498e-001, 3.42113614e-001, 3.01593602e-001,
          5.88321798e-002, 3.27162594e-001, 7.75957014e-003,
          6.04646325e-001, 2.07558200e-001, 6.99990196e-003,
          1.29996603e-002, 1.35154903e-001, 8.95644873e-002,
          1.44452304e-001, 5.29410005e-001, 1.78743601e-002,
          2.14306101e-001, 1.40636206e-001, 6.82014525e-002,
          3.39714497e-001 ]
      - [ 4.07895207e-001, 1.53854996e-001, 5.17856479e-001,
          4.11767304e-001, 9.01785586e-003, 3.08829188e-001,
          3.34765404e-001, 4.03228909e-001, 2.74200797e-001,
          5.91665089e-001, 4.78632689e-001, 4.03228909e-001,
          2.38083903e-005, 1.29501700e-001, 5.13368785e-001,
          7.67435610e-001, 7.05983415e-002, 4.61540401e-001,
          3.43288302e-001, 6.41709685e-001, 5.49548417e-002,
          1.11128397e-001, 1.80338293e-001, 1.86061099e-001,
          8.12994858e-006, 1.95655495e-001, 6.86267197e-001,
          6.66955486e-002, 1.42871693e-001, 3.05886894e-001,
          2.17955902e-001, 3.08273613e-001, 3.84616613e-001,
          3.60904306e-001, 4.04766411e-001, 8.99980009e-001,
          3.46159786e-001, 5.15510105e-002, 4.12017912e-001,
          2.16874301e-001, 1.84227094e-001, 4.60318714e-001,
          1.47065699e-001, 5.00000000e-001, 5.42704798e-002,
          1.86061099e-001, 2.45292604e-001, 2.09794298e-001,
          3.11693192e-001, 1.08129300e-001, 1.64189100e-001,
          1.22230597e-001, 6.17640078e-001, 4.46430504e-001,
          6.07135177e-001, 3.75003904e-001, 3.18190098e-001,
          6.12439096e-001 ]
      - [ 1.44738704e-001, 2.43596300e-001, 6.07138991e-001,
          4.26472813e-001, 1.17123999e-001, 3.67650986e-001,
          2.40345597e-001, 2.58072287e-001, 3.38714898e-001,
          3.33336115e-001, 4.18804109e-001, 1.45172700e-001,
          9.52573717e-002, 2.15896200e-002, 2.35296905e-001,
          4.65117097e-001, 1.41184896e-001, 3.07702214e-001,
          1.79114103e-001, 3.95722985e-001, 1.75831303e-001,
          2.66676992e-001, 8.19809213e-002, 2.32779905e-002,
          9.75675210e-002, 1.25004098e-001, 6.66660070e-001,
          4.66668904e-001, 8.16497281e-002, 2.11771503e-001,
          3.84733714e-002, 6.01569898e-002, 4.30769891e-001,
          2.93236196e-001, 2.38107696e-001, 1.25018701e-001,
          2.50009596e-001, 3.65980804e-001, 2.14633401e-002,
          1.80730596e-001, 4.73685592e-001, 2.06358507e-001,
          2.94209905e-002, 1.04943097e-001, 3.17832291e-001,
          6.97874501e-002, 5.09433627e-001, 1.88815504e-001,
          6.49463683e-002, 2.16231599e-001, 2.53738701e-001,
          2.00006694e-001, 6.47050202e-001, 1.25013396e-001,
          3.92864794e-001, 3.59379411e-001, 1.36380196e-001,
          3.34929794e-001 ]
      - [ 6.31601885e-002, 6.41137436e-002, 1.42869905e-001,
          1.47069201e-001, 6.30709380e-002, 1.91185594e-001,
          2.06011102e-001, 1.12915702e-001, 8.06586891e-002,
          1.83338597e-001, 1.79489896e-001, 4.03228909e-001,
          2.61916101e-001, 3.45326006e-001, 1.28346205e-001,
          3.13957810e-001, 3.29415798e-001, 2.56422698e-001,
          4.47897092e-002, 1.60479601e-002, 7.69323781e-002,
          8.89071599e-002, 2.78695792e-001, 1.16296902e-001,
          1.95126906e-001, 2.66306907e-001, 1.96070705e-005,
          1.66688904e-001, 2.65315711e-001, 2.94122487e-001,
          1.28330002e-002, 9.02317315e-002, 4.46154386e-001,
          1.95493296e-001, 1.42874107e-001, 5.00225015e-002,
          3.84792909e-002, 2.57780794e-002, 2.48929203e-001,
          6.02515601e-002, 5.52628815e-001, 9.52509418e-002,
          9.81353316e-003, 6.17276282e-006, 1.55113898e-002,
          1.39551595e-001, 7.54877180e-002, 2.79723406e-001,
          7.79330432e-002, 8.11037198e-002, 1.49398502e-002,
          1.66674107e-001, 1.17669500e-001, 1.07156903e-001,
          3.92864794e-001, 5.78122616e-001, 3.63642603e-001,
          1.19620897e-001 ]
      - [ 8.15811530e-002, 3.33337605e-001, 1.60726398e-001,
          7.35419467e-002, 2.61265606e-001, 2.79418290e-001,
          2.74679989e-001, 1.29044205e-001, 2.41943806e-001,
          1.66747198e-002, 3.16240907e-001, 4.84016612e-002,
          9.52573717e-002, 2.15896200e-002, 1.65778995e-001,
          2.79074907e-001, 1.17656097e-001, 1.28224194e-001,
          2.38813803e-001, 2.99467415e-001, 1.09997597e-002,
          1.77792102e-001, 1.96731299e-001, 9.30421799e-002,
          3.49595904e-001, 3.26137803e-002, 1.56876206e-001,
          6.66955486e-002, 2.65315711e-001, 1.41184896e-001,
          7.69339204e-002, 1.12787798e-001, 1.17952600e-001,
          3.15792203e-001, 1.42874107e-001, 1.75016195e-001,
          2.69239604e-001, 1.54689103e-002, 1.54509395e-001,
          4.82036583e-002, 5.26551194e-002, 4.76334095e-002,
          1.37262002e-001, 1.85244605e-002, 1.55113898e-002,
          4.65327203e-002, 9.43549275e-002, 3.14687908e-001,
          2.33773097e-001, 5.40781617e-002, 2.23888800e-001,
          4.88889098e-001, 2.94394400e-002, 8.93003792e-002,
          2.85729587e-001, 4.68751013e-001, 1.59106404e-001,
          1.43544093e-001 ]
      - [ 1.00002103e-001, 2.56416500e-001, 1.78565097e-005,
          1.91185594e-001, 1.35141701e-001, 2.79418290e-001,
          7.29650408e-002, 1.29044205e-001, 1.77429795e-001,
          1.66672200e-001, 2.30771497e-001, 8.06586891e-002,
          1.66682497e-001, 1.65472403e-001, 2.13906795e-001,
          3.25585514e-001, 2.00007096e-001, 4.10261005e-001,
          2.98513502e-001, 4.91978705e-001, 9.89099070e-002,
          1.77792102e-001, 1.96731299e-001, 2.32779905e-002,
          1.86996996e-001, 1.03265204e-001, 5.49017727e-001,
          2.33351097e-001, 4.69388992e-001, 5.52939892e-001,
          3.71798187e-001, 7.51868401e-006, 3.59021984e-002,
          7.52620306e-003, 2.38322001e-002, 1.75016195e-001,
          2.88469702e-001, 9.27876979e-002, 3.86305712e-002,
          2.41078492e-002, 7.89695308e-002, 9.52509418e-002,
          3.62747788e-001, 1.79016307e-001, 3.10150199e-002,
          4.41863209e-001, 2.45292604e-001, 1.39865205e-001,
          1.68839797e-001, 4.05410498e-001, 5.37312329e-001,
          3.66669595e-001, 2.35309705e-001, 8.93003792e-002,
          5.35711706e-001, 2.96881288e-001, 1.59106404e-001,
          1.29190207e-001 ]
      - [ 2.63156494e-006, 5.12935594e-002, 4.28573996e-001,
          8.82474035e-002, 1.08115204e-001, 4.41310517e-002,
          1.88843906e-001, 1.61446407e-002, 1.61446407e-002,
          2.83336908e-001, 1.70981400e-002, 1.29044205e-001,
          5.00000000e-001, 1.58278301e-001, 2.62034595e-001,
          5.00000000e-001, 2.58829206e-001, 2.82062501e-001,
          1.79114103e-001, 1.97864205e-001, 6.59436136e-002,
          4.44646887e-002, 2.29517102e-001, 2.09315807e-001,
          3.41466010e-001, 8.15262869e-002, 5.68624794e-001,
          3.33311109e-005, 2.04093695e-001, 1.41184896e-001,
          3.84733714e-002, 1.65418595e-001, 1.58977896e-001,
          3.30829591e-001, 1.42874107e-001, 7.74986327e-001,
          3.84792909e-002, 6.70147687e-002, 3.13306302e-001,
          2.28922203e-001, 1.57912701e-001, 3.17609012e-002,
          9.80471000e-002, 3.08699906e-002, 7.75957014e-003,
          2.32779905e-002, 1.32089406e-001, 6.99990196e-003,
          2.20786497e-001, 1.35154903e-001, 1.64189100e-001,
          3.55558813e-001, 3.82359892e-001, 1.78743601e-002,
          2.85729587e-001, 4.21877414e-001, 1.13653898e-001,
          8.13437179e-002 ]
      - [ 2.97369510e-001, 1.41034797e-001, 3.57308686e-002,
          3.97061914e-001, 4.77477908e-001, 5.88232696e-001,
          2.87555486e-001, 3.54843408e-001, 6.12899601e-001,
          6.49997473e-001, 4.10257190e-001, 2.09686801e-001,
          3.80957991e-001, 3.52520108e-001, 5.61496675e-001,
          7.44180381e-001, 2.00007096e-001, 1.02584504e-001,
          5.07462502e-001, 7.43312895e-001, 3.51651609e-001,
          2.00013295e-001, 3.60660315e-001, 9.30421799e-002,
          5.69177717e-002, 1.90220803e-001, 7.25481391e-001,
          2.66682208e-001, 7.55091608e-001, 5.99997580e-001,
          2.56531909e-002, 1.95493296e-001, 3.48719507e-001,
          1.72937199e-001, 5.95233619e-001, 1.25018701e-001,
          5.77093214e-002, 2.06234995e-002, 1.63093001e-001,
          2.16874301e-001, 1.31598294e-001, 1.42868504e-001,
          1.96172595e-002, 2.90125996e-001, 6.20222911e-002,
          5.34882128e-001, 2.64159799e-001, 3.28673691e-001,
          1.68839797e-001, 6.21614993e-001, 6.11936986e-001,
          1.11119799e-001, 2.94129789e-001, 5.53569496e-001,
          4.64288294e-001, 2.03134298e-001, 3.63642603e-001,
          6.31577671e-001 ]
      - [ 2.86843210e-001, 3.58978003e-001, 3.75004500e-001,
          2.20596507e-001, 1.53159395e-001, 2.64712811e-001,
          1.33050397e-001, 1.61285097e-005, 8.06586891e-002,
          2.50079203e-002, 1.92310303e-001, 1.29044205e-001,
          2.14299306e-001, 4.74820495e-001, 2.72729695e-001,
          3.37213099e-001, 3.53050493e-002, 3.07702214e-001,
          2.98647806e-002, 1.60431400e-001, 3.29674095e-001,
          1.77792102e-001, 1.96731299e-001, 2.09315807e-001,
          1.21957399e-001, 5.44015784e-003, 1.37269095e-001,
          3.33344400e-001, 4.08350714e-002, 1.41184896e-001,
          1.79495394e-001, 3.75941694e-001, 1.48721606e-001,
          1.65418595e-001, 2.61916101e-001, 1.25018701e-001,
          5.77093214e-002, 5.36082089e-001, 5.10729492e-001,
          1.20491102e-001, 1.05283901e-001, 1.58883799e-002,
          7.84396380e-002, 1.85244605e-002, 3.25584114e-001,
          3.95353705e-001, 2.83027112e-001, 2.30773002e-001,
          5.19596897e-002, 5.40781617e-002, 1.19414300e-001,
          2.22228393e-001, 8.82595107e-002, 1.60726398e-001,
          7.14270413e-001, 5.46873510e-001, 1.59106404e-001,
          1.19620897e-001 ]
      - [ 3.21053594e-001, 2.94877112e-001, 2.32152402e-001,
          4.55883712e-001, 3.78380597e-001, 3.23534608e-001,
          9.44240764e-002, 4.84016612e-002, 1.61285097e-005,
          6.66738898e-002, 2.43591905e-001, 9.67871994e-002,
          2.14299306e-001, 4.38849807e-001, 3.90375495e-001,
          3.95351291e-001, 1.52949303e-001, 2.82062501e-001,
          1.49398502e-002, 1.87169105e-001, 5.49548417e-002,
          2.22234607e-001, 1.63929108e-005, 2.32779905e-002,
          7.31776729e-002, 4.34832200e-002, 3.52946907e-001,
          3.66675586e-001, 1.63278997e-001, 1.41184896e-001,
          2.56531909e-002, 5.41352808e-001, 2.46156394e-001,
          1.80455893e-001, 3.33341300e-001, 2.50012487e-001,
          1.92300304e-005, 4.17526603e-001, 4.59227800e-001,
          3.25305402e-001, 7.89695308e-002, 1.90485999e-001,
          5.88321798e-002, 7.40793273e-002, 3.79846811e-001,
          3.48844200e-001, 1.32089406e-001, 1.39865205e-001,
          1.42866403e-001, 2.16231599e-001, 1.34339303e-001,
          2.44450107e-001, 2.05899701e-001, 5.35873696e-002,
          4.28576499e-001, 3.90628397e-001, 9.09276903e-002,
          1.19620897e-001 ]
      - [ 7.10548908e-002, 1.79495394e-001, 1.78582907e-001,
          4.41310517e-002, 2.97300905e-001, 4.70589101e-001,
          2.14594707e-001, 1.61301196e-001, 2.41943806e-001,
          5.41665971e-001, 3.07693988e-001, 2.58072287e-001,
          2.38322001e-002, 1.94249004e-001, 1.81821600e-001,
          8.02318573e-001, 3.53050493e-002, 2.05143303e-001,
          5.82087100e-001, 5.34807108e-002, 5.49548417e-002,
          5.33331871e-001, 4.42624807e-001, 6.97874501e-002,
          9.75675210e-002, 3.26137803e-002, 1.56876206e-001,
          4.33337808e-001, 1.02057099e-001, 2.23535895e-001,
          2.94877112e-001, 1.65418595e-001, 5.64148091e-002,
          2.10530698e-001, 6.19041979e-001, 3.50007504e-001,
          4.23079908e-001, 5.05154610e-001, 5.10729492e-001,
          1.20491102e-001, 1.05283901e-001, 2.22231001e-001,
          1.47065699e-001, 2.46972293e-002, 5.27131379e-001,
          4.65327203e-002, 1.50956601e-001, 3.49715389e-002,
          1.29996603e-002, 1.08129300e-001, 8.95644873e-002,
          2.55560994e-001, 2.94394400e-002, 3.75004500e-001,
          7.14591816e-002, 2.50007808e-001, 2.27489695e-002,
          7.65590817e-002 ]
      - [ 2.63419701e-003, 2.43596300e-001, 3.57308686e-002,
          3.38240087e-001, 2.43247896e-001, 5.00000000e-001,
          1.41634002e-001, 1.61446407e-002, 3.38714898e-001,
          4.58333999e-001, 2.47865394e-001, 2.09686801e-001,
          2.38322001e-002, 3.88490796e-001, 1.44388795e-001,
          7.55807996e-001, 1.17761903e-002, 1.02584504e-001,
          1.04489401e-001, 2.03211695e-001, 2.52752692e-001,
          3.11119497e-001, 6.55880123e-002, 1.86061099e-001,
          1.05697498e-001, 3.80484983e-002, 7.84479007e-002,
          2.66682208e-001, 1.22464404e-001, 1.17656097e-001,
          6.41137436e-002, 1.12787798e-001, 2.46156394e-001,
          1.72937199e-001, 2.85724491e-001, 5.00225015e-002,
          2.88469702e-001, 5.67009628e-001, 4.07726109e-001,
          4.82036583e-002, 5.26551194e-002, 3.17609012e-002,
          3.43140304e-001, 6.79065734e-002, 4.34109509e-001,
          4.65327203e-002, 3.01894307e-001, 6.99990196e-003,
          2.85719901e-001, 2.70282686e-001, 4.47897092e-002,
          1.33341506e-001, 5.88494800e-002, 2.14295894e-001,
          1.42882705e-001, 9.37626883e-002, 1.59106404e-001,
          7.17744306e-002 ]
      - [ 3.15814093e-002, 2.30776101e-001, 4.46430504e-001,
          2.20596507e-001, 2.88292110e-001, 3.08829188e-001,
          2.53221005e-001, 3.22731510e-002, 1.61301196e-001,
          2.08338201e-001, 3.46155196e-001, 1.93558306e-001,
          7.14489818e-002, 2.08637297e-001, 9.09134671e-002,
          5.58138192e-001, 9.41272005e-002, 5.13050593e-002,
          2.83588499e-001, 2.83424795e-001, 4.39660698e-002,
          3.55562001e-001, 3.77053201e-001, 2.32570603e-001,
          1.62680298e-002, 4.89179492e-002, 4.31375206e-001,
          5.00000000e-001, 1.83686405e-001, 2.94122487e-001,
          3.33337605e-001, 2.63161510e-001, 2.10259393e-001,
          4.06016499e-001, 7.85700679e-001, 1.00019999e-001,
          7.49990404e-001, 5.51545918e-001, 2.06011102e-001,
          1.08443201e-001, 1.05283901e-001, 2.53976107e-001,
          1.86280698e-001, 2.34571204e-001, 3.56591403e-001,
          2.32779905e-002, 9.43549275e-002, 9.79077220e-002,
          9.09197181e-002, 2.70525906e-002, 2.38813803e-001,
          6.66762963e-002, 3.52949798e-001, 4.28573996e-001,
          7.85693884e-001, 6.71869576e-001, 2.27262408e-005,
          9.09130126e-002 ]
      - [ 1.18423097e-001, 2.05135807e-001, 3.57308686e-002,
          3.38240087e-001, 9.01785586e-003, 4.11767304e-001,
          1.15883097e-001, 3.87100399e-001, 2.25815296e-001,
          4.16743085e-002, 1.66669503e-001, 2.25815296e-001,
          5.71425200e-001, 5.39567828e-001, 1.81821600e-001,
          5.23255289e-001, 1.17656097e-001, 2.56397107e-005,
          2.83588499e-001, 4.54545885e-001, 5.05494416e-001,
          2.22212293e-005, 3.44267398e-001, 2.32779905e-002,
          1.05697498e-001, 4.89179492e-002, 3.92161101e-001,
          3.33311109e-005, 2.24500999e-001, 2.47064799e-001,
          1.53854996e-001, 1.20306499e-001, 2.20515698e-001,
          2.25567997e-001, 1.90490901e-001, 2.75011212e-001,
          1.73089504e-001, 5.15510105e-002, 2.23178297e-001,
          2.28922203e-001, 2.63407193e-002, 2.06358507e-001,
          2.94121712e-001, 1.48152500e-001, 8.52777511e-002,
          6.97874501e-002, 2.45292604e-001, 2.93709189e-001,
          5.19596897e-002, 5.40781617e-002, 4.47897092e-002,
          3.33436988e-002, 3.23539793e-001, 1.07156903e-001,
          4.64288294e-001, 5.31248987e-001, 1.81832597e-001,
          8.13437179e-002 ]
      - [ 6.05286285e-002, 3.33337605e-001, 1.07156903e-001,
          4.41178203e-001, 9.01785586e-003, 1.17658302e-001,
          4.29610023e-003, 2.74200797e-001, 3.54843408e-001,
          1.66747198e-002, 4.70124185e-002, 5.48385501e-001,
          4.76191610e-001, 5.68344295e-001, 3.20905708e-002,
          5.00000000e-001, 2.70593613e-001, 2.56397107e-005,
          1.19414300e-001, 2.40644500e-001, 5.38460672e-001,
          2.22234607e-001, 1.31159604e-001, 2.32779905e-002,
          1.95126906e-001, 1.41308203e-001, 1.56876206e-001,
          3.33311109e-005, 3.06130409e-001, 3.64709109e-001,
          6.41137436e-002, 2.25567997e-001, 2.10259393e-001,
          1.20306499e-001, 6.19041979e-001, 7.50212520e-002,
          2.88469702e-001, 1.23715200e-001, 2.70388186e-001,
          6.02515601e-002, 3.68427992e-001, 4.12701190e-001,
          1.76476896e-001, 4.01235789e-001, 2.01554999e-001,
          9.30421799e-002, 2.45292604e-001, 6.29368782e-001,
          1.16893098e-001, 5.40781617e-002, 1.04489401e-001,
          1.66674107e-001, 4.70589995e-001, 7.14438781e-002,
          1.78594396e-001, 7.96865702e-001, 4.09094989e-001,
          1.10051602e-001 ]
      - [ 2.63182800e-002, 1.15394503e-001, 2.50008911e-001,
          1.32363796e-001, 2.70274401e-001, 4.85294610e-001,
          1.37342200e-001, 1.29044205e-001, 1.61446407e-002,
          2.41670996e-001, 1.88036904e-001, 1.93558306e-001,
          4.76405919e-002, 5.89926779e-001, 1.87169105e-001,
          5.11627614e-001, 1.29420504e-001, 1.02584504e-001,
          1.49264202e-001, 2.35296905e-001, 2.96707809e-001,
          6.66859299e-002, 1.96731299e-001, 4.65327203e-002,
          7.31776729e-002, 1.08699903e-001, 1.56876206e-001,
          1.00026697e-001, 2.04277392e-002, 2.35300303e-001,
          3.84733714e-002, 1.35343805e-001, 9.74400267e-002,
          1.87974602e-001, 4.28574800e-001, 2.49987497e-005,
          1.53859496e-001, 2.06188604e-001, 6.00896105e-002,
          8.43473673e-002, 1.31598294e-001, 1.58883799e-002,
          2.35299304e-001, 4.93882783e-002, 1.55113898e-002,
          1.62806407e-001, 2.45292604e-001, 3.42659503e-001,
          1.29996603e-002, 1.89206004e-001, 1.49264202e-001,
          7.77871609e-002, 3.52949798e-001, 8.93003792e-002,
          2.50017911e-001, 2.65632302e-001, 2.50011414e-001,
          1.91433597e-002 ]
      - [ 1.31580904e-001, 3.84733714e-002, 1.42869905e-001,
          5.88232696e-001, 4.23424810e-001, 7.20581710e-001,
          4.03434306e-001, 9.67871994e-002, 4.67743009e-001,
          3.91668499e-001, 4.18804109e-001, 1.12915702e-001,
          1.66682497e-001, 1.36695907e-001, 4.81331795e-002,
          6.16276383e-001, 3.05886894e-001, 3.84621292e-001,
          1.49249299e-005, 2.62034595e-001, 6.59436136e-002,
          1.11128397e-001, 5.24589419e-001, 4.41863209e-001,
          1.62680298e-002, 5.43526709e-002, 3.92161101e-001,
          3.33644412e-002, 1.83686405e-001, 2.47064799e-001,
          2.56531909e-002, 1.57899901e-001, 4.15385514e-001,
          3.98497790e-001, 4.28574800e-001, 4.25003707e-001,
          3.26929688e-001, 5.41236699e-001, 5.40772200e-001,
          1.20599503e-002, 1.84227094e-001, 2.53976107e-001,
          3.92247215e-002, 1.35806993e-001, 3.72094989e-001,
          2.32779905e-002, 2.64159799e-001, 7.69289881e-002,
          5.19596897e-002, 1.89206004e-001, 1.64189100e-001,
          1.66674107e-001, 5.88494800e-002, 4.82143492e-001,
          7.14591816e-002, 1.56401396e-002, 2.95463800e-001,
          2.67944813e-001 ]
      - [ 1.28949299e-001, 1.28214702e-001, 3.03578407e-001,
          4.11767304e-001, 5.22522092e-001, 5.88232696e-001,
          3.56224388e-001, 2.25815296e-001, 2.09686801e-001,
          5.16666412e-001, 3.11967403e-001, 2.09686801e-001,
          1.19065799e-001, 1.22307599e-001, 1.17651097e-001,
          6.62786901e-001, 1.17656097e-001, 6.41018391e-001,
          1.64189100e-001, 3.68985415e-001, 7.69323781e-002,
          3.33340704e-001, 5.73768079e-001, 2.79080003e-001,
          8.13076198e-002, 9.78304595e-002, 3.92337590e-002,
          1.00026697e-001, 1.02057099e-001, 1.64713800e-001,
          1.66675195e-001, 1.57899901e-001, 3.48719507e-001,
          3.45867008e-001, 7.38083899e-001, 3.50007504e-001,
          2.50009596e-001, 6.03091717e-001, 3.13306302e-001,
          1.56634793e-001, 1.31598294e-001, 1.42868504e-001,
          1.86280698e-001, 4.32155207e-002, 5.27131379e-001,
          2.55825311e-001, 1.50956601e-001, 6.99360818e-002,
          2.72733212e-001, 2.97308296e-001, 2.68663585e-001,
          1.11119799e-001, 1.47079602e-001, 6.24995530e-001,
          3.57474498e-002, 1.09387197e-001, 3.40916306e-001,
          2.05744401e-001 ]
      - [ 6.05286285e-002, 2.05135807e-001, 1.60726398e-001,
          6.17643595e-001, 3.33336294e-001, 6.32349014e-001,
          4.29185212e-001, 1.61301196e-001, 3.38714898e-001,
          5.24999619e-001, 4.01710212e-001, 1.77429795e-001,
          1.42874107e-001, 4.10073191e-001, 1.17651097e-001,
          6.16276383e-001, 8.23627710e-002, 3.33341897e-001,
          5.97146414e-002, 2.29949400e-001, 3.07696491e-001,
          2.66676992e-001, 1.63945407e-001, 2.32547300e-005,
          1.46347195e-001, 5.44015784e-003, 3.13732803e-001,
          1.33357793e-001, 1.22464404e-001, 2.94122487e-001,
          8.97541121e-002, 1.57899901e-001, 2.10259393e-001,
          3.90979111e-001, 7.14275479e-001, 1.25018701e-001,
          2.69239604e-001, 4.89690810e-001, 2.48929203e-001,
          3.37353289e-001, 5.78943193e-001, 3.17609012e-002,
          2.35299304e-001, 7.40793273e-002, 2.86825001e-001,
          6.74410522e-001, 2.26425394e-001, 6.99290922e-006,
          7.79330432e-002, 2.70282686e-001, 1.19414300e-001,
          6.66762963e-002, 1.76489606e-001, 3.57147992e-001,
          3.57474498e-002, 1.09387197e-001, 4.09094989e-001,
          2.24883005e-001 ]
      - [ 1.71054393e-001, 7.69339204e-002, 3.57308686e-002,
          4.85294610e-001, 3.96398306e-001, 7.05876291e-001,
          3.90558898e-001, 1.12915702e-001, 2.90329307e-001,
          5.33332825e-001, 4.48718399e-001, 9.67871994e-002,
          2.14299306e-001, 1.72666594e-001, 5.34807108e-002,
          7.20925093e-001, 4.47060108e-001, 5.64099312e-001,
          1.34339303e-001, 2.35296905e-001, 2.08797604e-001,
          1.77792102e-001, 7.54090011e-001, 4.65117902e-001,
          2.27646694e-001, 1.25004098e-001, 3.72554004e-001,
          2.33351097e-001, 8.16497281e-002, 8.23627710e-002,
          2.56531909e-002, 1.65418595e-001, 3.84616613e-001,
          3.53385687e-001, 6.66658700e-001, 4.00005013e-001,
          9.61693823e-002, 4.02062893e-001, 3.04722697e-001,
          1.44586906e-001, 2.89484799e-001, 4.76334095e-002,
          1.37262002e-001, 4.93882783e-002, 3.33335906e-001,
          1.62806407e-001, 3.39628696e-001, 1.32872298e-001,
          7.79330432e-002, 4.32436109e-001, 2.38813803e-001,
          1.77784905e-001, 8.82595107e-002, 4.46430504e-001,
          1.07170902e-001, 4.68891598e-002, 4.54752110e-002,
          3.44499111e-001 ]
      - [ 2.89498493e-002, 5.12935594e-002, 1.78565097e-005,
          1.17658302e-001, 2.43247896e-001, 4.41178203e-001,
          3.26181710e-001, 2.25815296e-001, 2.25815296e-001,
          8.33319427e-006, 2.00857297e-001, 2.25815296e-001,
          2.61916101e-001, 3.95684987e-001, 2.88772315e-001,
          1.62798494e-001, 2.00007096e-001, 3.33341897e-001,
          1.19414300e-001, 1.76474005e-001, 2.08797604e-001,
          1.11128397e-001, 1.64093003e-002, 2.32547300e-005,
          1.38217300e-001, 1.68481901e-001, 1.37269095e-001,
          2.33351097e-001, 1.22464404e-001, 2.47064799e-001,
          1.92315593e-001, 1.50381193e-001, 4.10303511e-002,
          3.76009382e-002, 4.52383190e-001, 4.50002491e-001,
          2.50009596e-001, 3.09280306e-001, 1.28758594e-001,
          2.89161712e-001, 2.36855999e-001, 7.93784335e-002,
          3.13729107e-001, 6.17276282e-006, 6.20222911e-002,
          2.32779905e-002, 3.20761502e-001, 8.39219019e-002,
          1.68839797e-001, 2.70525906e-002, 5.97146414e-002,
          6.66762963e-002, 2.94129789e-001, 1.60726398e-001,
          5.71423471e-001, 5.15624523e-001, 4.09094989e-001,
          2.77514100e-001 ]
      - [ 2.92106390e-001, 5.12935594e-002, 4.10717487e-001,
          2.79418290e-001, 4.86486703e-001, 4.26472813e-001,
          1.75968394e-001, 3.22731510e-002, 1.93558306e-001,
          3.33411098e-002, 1.88036904e-001, 2.90329307e-001,
          2.14299306e-001, 1.58278301e-001, 2.29949400e-001,
          3.02330196e-001, 2.00007096e-001, 2.56397107e-005,
          7.46395588e-002, 3.47595215e-001, 1.97808802e-001,
          2.00013295e-001, 1.64093003e-002, 9.30421799e-002,
          1.38217300e-001, 4.34832200e-002, 9.80549827e-002,
          5.33331096e-001, 4.08350714e-002, 3.05886894e-001,
          8.33324790e-001, 4.73684609e-001, 4.61585000e-002,
          2.85717487e-001, 5.71425200e-001, 5.49997509e-001,
          4.03849900e-001, 9.22676086e-001, 7.38195419e-001,
          5.90359271e-001, 2.89484799e-001, 1.11123502e-001,
          2.84318000e-001, 2.83953309e-001, 5.73642313e-001,
          4.41863209e-001, 1.88691005e-001, 1.04900599e-001,
          1.68839797e-001, 2.16231599e-001, 2.98647806e-002,
          2.11117506e-001, 3.23539793e-001, 1.78565097e-005,
          5.00000000e-001, 4.37501997e-001, 3.18190098e-001,
          2.53590912e-001 ]
      - [ 3.13158900e-001, 2.56531909e-002, 4.28573996e-001,
          2.94256099e-002, 3.78380597e-001, 2.64712811e-001,
          2.01719299e-001, 1.45172700e-001, 4.84016612e-002,
          1.66747198e-002, 2.82053113e-001, 9.67871994e-002,
          4.76405919e-002, 4.67626393e-001, 5.45454085e-001,
          1.04660399e-001, 3.29415798e-001, 5.13050593e-002,
          3.13438386e-001, 1.76474005e-001, 8.79211426e-002,
          2.66676992e-001, 4.91951108e-002, 4.65327203e-002,
          4.63415205e-001, 5.43472379e-006, 4.50982302e-001,
          1.33357793e-001, 2.04277392e-002, 3.17651302e-001,
          4.87179786e-001, 2.93236196e-001, 1.12824500e-001,
          3.08273613e-001, 5.23808420e-001, 4.75001186e-001,
          6.15380228e-001, 8.09275210e-001, 7.42487192e-001,
          3.85544896e-001, 3.42113614e-001, 7.93784335e-002,
          2.15691805e-001, 2.34571204e-001, 4.65116799e-001,
          3.02334785e-001, 2.64159799e-001, 1.88815504e-001,
          2.46759802e-001, 8.11037198e-002, 2.98647806e-002,
          2.88893610e-001, 2.94129789e-001, 3.57308686e-002,
          3.57153088e-001, 5.46873510e-001, 4.54547495e-001,
          2.00959802e-001 ]
      - [ 2.65790701e-001, 3.20517391e-001, 1.78582907e-001,
          2.94123709e-001, 1.53159395e-001, 1.47054498e-005,
          2.40345597e-001, 1.29044205e-001, 2.09686801e-001,
          2.25004598e-001, 2.56412297e-001, 1.12915702e-001,
          5.00000000e-001, 6.33091629e-001, 5.02673805e-001,
          1.16392598e-002, 5.88339083e-002, 2.56653503e-002,
          3.28363299e-001, 1.65778995e-001, 4.06595498e-001,
          6.66859299e-002, 1.31159604e-001, 4.65327203e-002,
          2.84556299e-001, 1.19569398e-001, 1.37269095e-001,
          2.66682208e-001, 4.08350714e-002, 1.52949303e-001,
          3.58978003e-001, 9.02317315e-002, 9.74400267e-002,
          3.90979111e-001, 3.09532911e-001, 3.25008690e-001,
          5.19230008e-001, 4.94845390e-001, 2.36053795e-001,
          1.20599503e-002, 3.68427992e-001, 2.38103598e-001,
          4.11766410e-001, 1.85189098e-001, 2.48065904e-001,
          2.79080003e-001, 3.01894307e-001, 2.09857207e-002,
          7.79330432e-002, 2.70282686e-001, 1.79114103e-001,
          1.33341506e-001, 3.23539793e-001, 1.78565097e-005,
          1.07170902e-001, 6.09371603e-001, 2.27489695e-002,
          1.48328707e-001 ]
      - [ 1.92106903e-001, 2.56416500e-001, 1.42869905e-001,
          1.32363796e-001, 1.62168205e-001, 1.17658302e-001,
          8.58404636e-002, 1.45172700e-001, 4.03228909e-001,
          6.16664708e-001, 1.53849095e-001, 8.06586891e-002,
          3.57149690e-001, 5.97120881e-001, 4.01070595e-001,
          2.67447293e-001, 2.35300303e-001, 5.13050593e-002,
          2.38813803e-001, 2.62034595e-001, 2.96707809e-001,
          1.55570894e-001, 9.83738229e-002, 2.55825311e-001,
          3.08946192e-001, 1.68481901e-001, 3.13732803e-001,
          3.33644412e-002, 1.22464404e-001, 2.94122487e-001,
          2.43596300e-001, 1.20306499e-001, 3.59021984e-002,
          3.15792203e-001, 2.38107696e-001, 2.00014994e-001,
          1.92319497e-001, 3.50517005e-001, 1.71715301e-002,
          2.28922203e-001, 1.05283901e-001, 2.69848585e-001,
          2.45103002e-001, 1.11115903e-001, 7.75259286e-002,
          1.86061099e-001, 3.96230310e-001, 9.79077220e-002,
          3.89730111e-002, 4.59461689e-001, 2.53738701e-001,
          7.77871609e-002, 3.82359892e-001, 5.35873696e-002,
          3.57474498e-002, 7.18743205e-001, 1.36380196e-001,
          1.67467296e-001 ]
      - [ 2.57896006e-001, 2.05135807e-001, 8.93003792e-002,
          1.47201596e-002, 3.96398306e-001, 4.11767304e-001,
          1.58801198e-001, 1.45172700e-001, 6.45301789e-002,
          2.50079203e-002, 3.20514411e-001, 6.45301789e-002,
          1.19065799e-001, 5.75538516e-001, 6.04277015e-001,
          2.55819589e-001, 9.41272005e-002, 2.30783001e-001,
          1.49264202e-001, 1.49736404e-001, 2.63741493e-001,
          3.11119497e-001, 1.80338293e-001, 2.32779905e-002,
          2.68296510e-001, 6.52221218e-002, 1.96090296e-001,
          4.00006711e-001, 6.12424016e-002, 4.70694788e-002,
          4.48719293e-001, 3.45867008e-001, 2.05131203e-001,
          2.48124093e-001, 4.28574800e-001, 4.50002491e-001,
          5.00000000e-001, 7.98965991e-001, 7.59654403e-001,
          2.41078492e-002, 7.89695308e-002, 6.35059178e-002,
          3.43140304e-001, 1.48152500e-001, 5.81394076e-001,
          2.32779905e-002, 3.01894307e-001, 4.89573590e-002,
          1.81826398e-001, 4.32436109e-001, 1.49398502e-002,
          1.66674107e-001, 5.88494800e-002, 1.78743601e-002,
          6.42846882e-001, 3.75003904e-001, 3.40916306e-001,
          1.10051602e-001 ]
      - [ 1.39475599e-001, 2.56531909e-002, 2.85721898e-001,
          2.79418290e-001, 2.70274401e-001, 5.58821797e-001,
          2.66096413e-001, 1.61285097e-005, 3.87100399e-001,
          4.33334410e-001, 3.50428611e-001, 1.61446407e-002,
          2.38322001e-002, 4.31655705e-001, 1.39041305e-001,
          6.62786901e-001, 2.70593613e-001, 3.84621292e-001,
          1.49264202e-001, 2.24601895e-001, 3.62640411e-001,
          1.11128397e-001, 3.44267398e-001, 4.88372594e-001,
          1.13827400e-001, 1.57612398e-001, 5.09803474e-001,
          2.00020000e-001, 3.06130409e-001, 1.64713800e-001,
          4.23078895e-001, 4.51196209e-002, 3.07694286e-001,
          1.80455893e-001, 4.52383190e-001, 2.00014994e-001,
          1.53859496e-001, 5.67009628e-001, 4.80686903e-001,
          1.80730596e-001, 2.36855999e-001, 1.74613506e-001,
          9.81353316e-003, 1.91361800e-001, 4.57365006e-001,
          2.32570603e-001, 1.69823796e-001, 1.46858096e-001,
          1.29866803e-005, 8.11037198e-002, 1.04489401e-001,
          1.55563205e-001, 8.82595107e-002, 4.28573996e-001,
          2.14306101e-001, 1.56401396e-002, 6.82014525e-002,
          1.10051602e-001 ]
      - [ 1.34212494e-001, 1.28330002e-002, 1.78743601e-002,
          3.52945507e-001, 4.50532399e-002, 2.20596507e-001,
          2.18886495e-001, 1.77429795e-001, 2.41943806e-001,
          4.08334911e-001, 3.84616405e-001, 1.93558306e-001,
          1.42874107e-001, 1.00725196e-001, 2.03211695e-001,
          4.53489512e-001, 1.29420504e-001, 2.56653503e-002,
          2.98647806e-002, 5.34758985e-001, 8.79211426e-002,
          3.77783209e-001, 1.80338293e-001, 1.39551595e-001,
          1.38217300e-001, 4.34832200e-002, 4.70589399e-001,
          1.00026697e-001, 1.63278997e-001, 2.58829206e-001,
          7.69339204e-002, 2.10530698e-001, 1.69234201e-001,
          1.80455893e-001, 3.09532911e-001, 7.50212520e-002,
          7.69393519e-002, 2.06188604e-001, 1.41634002e-001,
          2.40970105e-001, 2.10541606e-001, 2.22231001e-001,
          1.76476896e-001, 3.70371997e-001, 1.78299606e-001,
          6.97874501e-002, 1.69823796e-001, 6.99360818e-002,
          1.29996603e-002, 1.62180394e-001, 2.38813803e-001,
          2.22228393e-001, 1.17669500e-001, 3.57147992e-001,
          2.50017911e-001, 1.09387197e-001, 1.36380196e-001,
          2.39236906e-001 ]
      - [ 2.63419701e-003, 3.84733714e-002, 2.50008911e-001,
          1.47069201e-001, 1.26132905e-001, 2.64712811e-001,
          2.53221005e-001, 1.29044205e-001, 2.25815296e-001,
          4.00001705e-001, 3.71796012e-001, 2.58072287e-001,
          2.14299306e-001, 2.94966996e-001, 9.62610021e-002,
          6.04648709e-001, 3.53050493e-002, 2.05143303e-001,
          1.49264202e-001, 3.90375495e-001, 4.83516812e-001,
          1.33349597e-001, 3.28022018e-002, 3.48844200e-001,
          5.69177717e-002, 7.06568435e-002, 3.72554004e-001,
          5.66662192e-001, 2.24500999e-001, 9.41272005e-002,
          7.69339204e-002, 6.76756725e-002, 3.28206897e-001,
          2.33086705e-001, 4.52383190e-001, 1.25018701e-001,
          2.30779603e-001, 5.36082089e-001, 3.47640812e-001,
          9.63952690e-002, 2.63407193e-002, 1.11123502e-001,
          1.66673198e-001, 1.29634202e-001, 3.95350486e-001,
          4.65117902e-001, 3.77532914e-002, 1.74829707e-001,
          1.29866803e-005, 3.24333787e-001, 1.49398502e-002,
          2.22228393e-001, 2.94394400e-002, 1.96439400e-001,
          1.42882705e-001, 1.25011697e-001, 2.27489695e-002,
          2.39236906e-001 ]
      - [ 2.63182800e-002, 2.30776101e-001, 4.10717487e-001,
          3.23534608e-001, 1.17123999e-001, 5.88365011e-002,
          1.80260301e-001, 1.61446407e-002, 2.25815296e-001,
          3.33411098e-002, 1.83763400e-001, 1.61285097e-005,
          2.85724491e-001, 5.03661782e-002, 2.40644500e-001,
          3.72096002e-001, 4.58824486e-001, 1.02584504e-001,
          1.64189100e-001, 2.78077185e-001, 2.85719007e-001,
          1.11128397e-001, 1.80338293e-001, 2.32547300e-005,
          4.06578816e-002, 1.79351300e-001, 3.13732803e-001,
          5.66662192e-001, 1.22464404e-001, 7.05983415e-002,
          1.28214702e-001, 2.03012004e-001, 1.89746797e-001,
          1.57899901e-001, 3.09532911e-001, 3.25008690e-001,
          1.53859496e-001, 4.79381710e-001, 2.23178297e-001,
          2.28922203e-001, 2.89484799e-001, 2.06358507e-001,
          1.76476896e-001, 3.39508206e-001, 3.48839611e-001,
          3.02334785e-001, 4.15097505e-001, 2.09857207e-002,
          3.89730111e-002, 2.43257105e-001, 8.95644873e-002,
          1.11119799e-001, 5.29410005e-001, 1.78582907e-001,
          3.92864794e-001, 7.03118682e-001, 4.54547495e-001,
          2.72729397e-001 ]
      - [ 8.15811530e-002, 3.84733714e-002, 1.78743601e-002,
          2.50007391e-001, 3.15318614e-001, 4.85294610e-001,
          2.83263713e-001, 3.22731510e-002, 8.06586891e-002,
          1.00006700e-001, 2.82053113e-001, 2.90329307e-001,
          1.90490901e-001, 4.02879089e-001, 4.81331795e-002,
          4.76744711e-001, 3.29415798e-001, 2.30783001e-001,
          1.04489401e-001, 1.06956102e-001, 1.31876200e-001,
          1.11128397e-001, 3.11481595e-001, 3.95353705e-001,
          1.95126906e-001, 8.69610086e-002, 3.72554004e-001,
          2.33351097e-001, 2.44908407e-001, 3.17651302e-001,
          1.66675195e-001, 3.00754905e-001, 7.17992634e-002,
          2.55642802e-001, 2.85724491e-001, 1.25018701e-001,
          3.26929688e-001, 3.71135294e-001, 1.28758594e-001,
          1.32539004e-001, 1.05283901e-001, 3.17609012e-002,
          1.96084395e-001, 8.64248574e-002, 2.01554999e-001,
          2.32779905e-002, 3.01894307e-001, 2.09857207e-002,
          2.33773097e-001, 3.51359397e-001, 1.34339303e-001,
          1.44452304e-001, 5.88494800e-002, 4.64287013e-001,
          6.07135177e-001, 2.96881288e-001, 1.59106404e-001,
          3.34972888e-002 ]
      - [ 8.68442804e-002, 7.69339204e-002, 3.57308686e-002,
          2.94256099e-002, 3.33336294e-001, 3.82356405e-001,
          1.80260301e-001, 1.61301196e-001, 2.58072287e-001,
          1.41672596e-001, 3.54702085e-001, 1.12915702e-001,
          2.14299306e-001, 1.51084200e-001, 1.97864205e-001,
          4.88372386e-001, 7.05983415e-002, 5.13050593e-002,
          5.97146414e-002, 3.68985415e-001, 1.75831303e-001,
          1.77792102e-001, 1.63945407e-001, 6.97874501e-002,
          1.30087301e-001, 1.63096096e-002, 6.47053123e-001,
          5.66662192e-001, 1.83686405e-001, 3.64709109e-001,
          4.74359602e-001, 2.85717487e-001, 1.12824500e-001,
          1.80455893e-001, 1.19065799e-001, 5.00000000e-001,
          3.84619802e-001, 6.80410504e-001, 2.83263713e-001,
          2.53017992e-001, 3.42113614e-001, 9.52509418e-002,
          7.84396380e-002, 1.54325306e-001, 6.35656774e-001,
          1.86061099e-001, 1.50956601e-001, 2.16787204e-001,
          1.16893098e-001, 2.70525906e-002, 1.94039002e-001,
          8.88980180e-002, 2.64719695e-001, 2.67865390e-001,
          2.85729587e-001, 2.65632302e-001, 1.36380196e-001,
          4.78942785e-003 ]
      - [ 1.84235908e-002, 7.69339204e-002, 1.60726398e-001,
          3.08829188e-001, 2.52256691e-001, 3.38240087e-001,
          2.36053795e-001, 3.22731510e-002, 3.22586387e-001,
          2.33337805e-001, 2.52138913e-001, 1.29044205e-001,
          2.38083903e-005, 3.16549391e-001, 3.20905708e-002,
          3.95351291e-001, 2.70593613e-001, 5.13050593e-002,
          1.19414300e-001, 1.33693799e-001, 4.72528100e-001,
          3.55562001e-001, 1.14766702e-001, 2.32547300e-005,
          2.11386800e-001, 1.08748795e-002, 4.11768198e-001,
          2.33351097e-001, 1.63278997e-001, 3.64709109e-001,
          6.41137436e-002, 1.80455893e-001, 8.20555687e-002,
          2.48124093e-001, 3.57149690e-001, 3.50007504e-001,
          1.73089504e-001, 3.04125696e-001, 1.33050397e-001,
          6.02515601e-002, 2.63407193e-002, 2.38103598e-001,
          1.07850797e-001, 6.17893599e-003, 1.86051399e-001,
          1.39551595e-001, 2.26425394e-001, 1.04900599e-001,
          6.49463683e-002, 2.70525906e-002, 5.97146414e-002,
          1.44452304e-001, 3.52949798e-001, 1.42869905e-001,
          3.57153088e-001, 1.87509805e-001, 2.04558894e-001,
          1.91433597e-002 ]
      - [ 2.10551508e-002, 2.56531909e-002, 1.60726398e-001,
          1.02952898e-001, 3.60362887e-001, 1.76480100e-001,
          2.18886495e-001, 8.06586891e-002, 2.09686801e-001,
          6.66738898e-002, 1.75216496e-001, 8.06586891e-002,
          2.14299306e-001, 1.29501700e-001, 5.34753599e-006,
          5.58138192e-001, 1.52949303e-001, 1.79503605e-001,
          1.49398502e-002, 3.42247695e-001, 1.09997597e-002,
          3.11119497e-001, 2.13124201e-001, 4.88372594e-001,
          1.62607104e-001, 4.34832200e-002, 2.74518609e-001,
          3.33644412e-002, 1.63278997e-001, 1.52949303e-001,
          6.41137436e-002, 1.72937199e-001, 2.56458893e-002,
          2.93236196e-001, 3.57149690e-001, 3.00009996e-001,
          1.34629399e-001, 5.25772929e-001, 1.54509395e-001,
          1.44586906e-001, 1.05283901e-001, 1.26995996e-001,
          1.37262002e-001, 3.58026385e-001, 4.03102309e-001,
          1.62806407e-001, 5.66205010e-002, 1.60843894e-001,
          5.19596897e-002, 2.70255696e-005, 1.49398502e-002,
          2.11117506e-001, 1.17669500e-001, 3.03578407e-001,
