%YAML:1.0
my_svm: !!opencv-ml-svm
   svm_type: C_SVC
   kernel: { type:LINEAR }
   C: 1.0000000000000001e-001
   term_criteria: { epsilon:2.2204460492503131e-016, iterations:10000 }
   var_all: 42
   var_count: 42
   class_count: 2
   class_labels: !!opencv-matrix
      rows: 1
      cols: 2
      dt: i
      data: [ -1, 1 ]
   sv_total: 1
   support_vectors:
      - [ 1.16133426e-015, -1.30487225e-016, 1.28265511e-015,
          9.99689037e-016, 1.05653236e-015, 1.12383251e-015,
          1.10812450e-015, 1.20397062e-015, 1.16840731e-015,
          1.11580762e-015, 1.19693622e-015, 1.03409043e-015,
          1.04198129e-015, 1.07001670e-015, 1.15287643e-015,
          1.02471494e-015, 1.09422882e-015, 1.01054694e-015,
          1.09375289e-015, 9.40594936e-016, 7.96921684e-016,
          9.68351782e-016, 1.07545296e-015, 7.47164692e-016,
          7.98918617e-016, 9.26026075e-016, 9.24213319e-016,
          8.39824432e-016, 7.83487371e-016, 8.66083142e-016,
          8.96612750e-016, 7.27041148e-016, 6.89283384e-016,
          6.52879020e-016, 7.70460957e-016, 6.82701462e-016,
          7.15942264e-016, 6.26446615e-016, 7.64988012e-016,
          -1.54463253e-009, -1.54463253e-009, -1.54463253e-009 ]
   decision_functions:
      -
         sv_count: 1
         rho: 9.9999986274973263e-001
         alpha: [ 1. ]
         index: [ 0 ]
