%YAML:1.0
my_nn: !!opencv-ml-ann-mlp
   layer_sizes: !!opencv-matrix
      rows: 1
      cols: 3
      dt: i
      data: [ 58, 10, 1 ]
   activation_function: GAUSSIAN
   f_param1: 1.
   f_param2: 1.
   min_val: 5.0000000000000003e-002
   max_val: 1.
   min_val1: 2.0000000000000000e-002
   max_val1: 1.
   training_params:
      train_method: BACKPROP
      dw_scale: 1.0000000000000000e-003
      moment_scale: 1.0000000000000000e-002
      term_criteria: { epsilon:2.2204460492503131e-016, iterations:10 }
   input_scale: [ 8.6546027369740681e+000, -1.1625676793327353e+000,
       6.0636229536531605e+000, -1.3132243985654324e+000,
       5.7404684920571176e+000, -1.3905930489136398e+000,
       6.5459665816457635e+000, -1.3839339592243398e+000,
       7.2236432069695846e+000, -1.3090466254768678e+000,
       5.2487316966057902e+000, -1.2542256534875342e+000,
       6.5789810376459759e+000, -1.1029000755211122e+000,
       6.9595060549118397e+000, -1.2754972247390846e+000,
       7.1043842833277324e+000, -1.3310614696616407e+000,
       6.9780287309119569e+000, -1.2318131345662011e+000,
       6.4646885657304720e+000, -1.1867720729313094e+000,
       6.9843761754330611e+000, -1.3125040379894151e+000,
       6.5514689634863377e+000, -1.3660851849935607e+000,
       6.7818536346588321e+000, -1.3457272804881595e+000,
       6.4916951098365292e+000, -1.3006114661906776e+000,
       4.7113840745349487e+000, -1.0393884142824825e+000,
       8.3670866511837225e+000, -1.3564232184809824e+000,
       6.4779019396174791e+000, -1.2824619179392329e+000,
       6.6797079259458565e+000, -1.3073670036804297e+000,
       5.8903074978954750e+000, -1.3710313949296193e+000,
       6.6393053195396092e+000, -1.3520011961432505e+000,
       7.2397148413949211e+000, -1.3608986321578260e+000,
       6.7884450184716547e+000, -1.2967204933615879e+000,
       6.6398345187630659e+000, -1.3163073759640627e+000,
       7.0788992155111323e+000, -1.2215155265127817e+000,
       8.0813553678454149e+000, -1.1517221440248988e+000,
       5.9897526403177883e+000, -1.3318390813484207e+000,
       6.0517713566642675e+000, -1.3854046717061050e+000,
       6.1437551902921186e+000, -1.2685814262298294e+000,
       6.9772549000388420e+000, -1.2822479075282638e+000,
       6.6871079638428252e+000, -1.2972037583555946e+000,
       6.9649069864051540e+000, -1.2467054206963919e+000,
       7.1159815898559717e+000, -1.2649855378687576e+000,
       6.7659203311080205e+000, -1.1176403145870046e+000,
       5.6406803427127432e+000, -1.2793363855943078e+000,
       5.5930505013939804e+000, -1.3873022690316192e+000,
       6.0399102988076505e+000, -1.3846768337453954e+000,
       6.7211564585742218e+000, -1.2877570266763798e+000,
       6.2303786282905520e+000, -1.3535589319271828e+000,
       5.8794271558113120e+000, -1.1603049530733993e+000,
       5.7489319509665728e+000, -1.2878778857087303e+000,
       4.7799152335268875e+000, -1.2124877635896394e+000,
       7.3155626946617307e+000, -1.2672808352871074e+000,
       6.5550702871620867e+000, -1.2800898343356355e+000,
       7.6093430896656384e+000, -1.3534245655544239e+000,
       6.2504013468663153e+000, -1.3609777120404918e+000,
       6.7545372487557414e+000, -1.3582408898536367e+000,
       6.1621828841518500e+000, -1.2079540960992339e+000,
       7.7316689841583646e+000, -1.2655983801164274e+000,
       6.5414271463977478e+000, -1.3094473497417674e+000,
       7.0817160757772832e+000, -1.3477641652061518e+000,
       7.3970868885597501e+000, -1.2294552891821116e+000,
       6.2372862094146093e+000, -1.3275670040555625e+000,
       7.1195216040334754e+000, -1.3033485452616851e+000,
       5.6602762345083839e+000, -1.3809750913879268e+000,
       4.7579572714061227e+000, -1.4518151382902345e+000,
       6.5422967130123499e+000, -1.3036957357431120e+000,
       7.0996458889078324e+000, -1.2272447157590565e+000 ]
   output_scale: [ 2.1052631578947367e+000, -1.1052631578947367e+000 ]
   inv_output_scale: [ 4.7499999999999998e-001, 5.2500000000000002e-001 ]
   weights:
      - [ -1.5269394440128975e-001, -2.2136758927890705e-002,
          2.6044858126986832e-003, 2.8902116035021651e-003,
          -2.4023154521750609e-002, 1.3946615182064229e-002,
          1.9083089546361311e-002, -4.2671028837445741e-003,
          -4.9023176718153198e-002, -3.3302760698949788e-002,
          2.9877550613798785e-002, 1.4361886232457469e-002,
          -1.2831055244727380e-002, 3.8674611843483135e-002,
          -3.4896706860302357e-002, 2.4181914034335263e-002,
          -1.2915001572044666e-002, -3.2484026943156878e-002,
          1.8071901015770706e-002, 2.2272294097012649e-002,
          -1.7193410087224215e-001, -4.2534169629319135e-002,
          -2.4554512505210672e-002, -1.7196526463091912e-002,
          6.6844923973767359e-003, 5.0759580121441958e-004,
          -2.3988017746878897e-003, -4.4208579454251315e-002,
          2.8315620459777376e-002, 1.3675209906899025e-002,
          -1.1862926279780479e-001, 1.5648990140109228e-002,
          2.7550844084415493e-002, 7.1877134269233534e-002,
          3.4192603770376549e-002, -5.9327852650655037e-003,
          -2.4679170706938886e-002, -2.6605266312980880e-002,
          -5.1317801088894360e-002, -4.1535969421344014e-002,
          -5.4486388616303345e-002, 5.2441091832334613e-002,
          6.0942587177664626e-002, 7.1661002191081222e-002,
          -6.2173963557061130e-003, 3.4540210709291974e-002,
          -3.7849268790313965e-002, -7.0262040734795903e-002,
          2.5302018336508421e-002, -3.3972333195384868e-002,
          -4.0758013132857852e-002, -1.6306277291737364e-002,
          4.0899194294629293e-002, 3.7779250873588716e-002,
          -2.0487366671187140e-002, -1.9039927427877384e-002,
          -7.3929366397370239e-003, -7.5965046593038571e-002,
          2.4789970958900450e-002, -5.3899521770203879e-003,
          -9.8339394650116624e-002, -1.2165331213777179e-001,
          -7.7276155537180535e-002, 4.4110923472446287e-002,
          9.4498349224747136e-003, -1.8542788812707326e-002,
          -8.8755409573173481e-003, 2.7531629401989097e-002,
          -2.9259137902852457e-002, 1.5591817910614982e-002,
          -3.0923113849614152e-002, 2.2158319179175302e-002,
          -7.5674608763931180e-004, 3.7119307601378628e-003,
          -1.6500476360077228e-003, 3.4183778297923448e-002,
          -3.7986814752628620e-002, -5.4947952966865110e-002,
          3.0669155029413673e-002, -2.1288554274540690e-002,
          9.4037170440235046e-002, 2.0030501934134616e-002,
          -6.9252561762726348e-003, 9.3798998984713652e-004,
          -4.7516612989460132e-002, -2.5487543998261440e-002,
          2.4994004130118215e-002, 6.9794441389768190e-004,
          -2.4328746451085129e-002, 1.1337103817307886e-002,
          -1.7566790184721837e-001, -2.6335642287214551e-003,
          8.4576143413444345e-004, 2.2644156928302617e-002,
          -4.0162418658594001e-003, 1.8101678218662619e-002,
          -6.4423088590506083e-003, -2.2073401741404667e-003,
          -1.4205761601579355e-002, 2.6786438923791671e-002,
          1.0121293829327912e-002, -1.6176681236594576e-002,
          2.7047299348325640e-002, 5.4276980168767218e-002,
          -6.7953621258723965e-002, -6.2299770139973967e-002,
          -3.3451976155324872e-003, -1.6328984488550229e-002,
          -1.1183810919088502e-002, 2.2809051885767425e-002,
          -2.7499999638907213e-002, 5.3121900227708088e-002,
          3.5933561666142734e-002, 1.2910192379215231e-002,
          4.9982028176212452e-003, 2.1182214384659628e-002,
          -1.8754642147481521e-003, -1.9743371896846319e-002,
          1.5260925878999182e-002, -2.8883607233548124e-002,
          -4.0845776181642854e-002, -7.0626307651902066e-003,
          -1.5740829061657510e-002, -6.4743953896820847e-002,
          9.6539165958419819e-003, 1.5877017708914747e-002,
          -1.0526236153665951e-002, 2.8001214815226511e-002,
          1.9280493487759384e-002, 3.3044638496224812e-002,
          -7.2331361230066740e-002, 4.3454141011687646e-002,
          3.6018017612918073e-003, 4.1765385878062868e-003,
          1.3605557393591637e-002, 2.3115991115958211e-002,
          2.5579715328811013e-002, 4.2865760774134926e-002,
          6.3862529417768335e-002, 4.0789402016297181e-002,
          -3.1765916292285201e-002, 2.5164973753735147e-003,
          2.8106896318622846e-002, -5.8888271055059253e-003,
          -3.5041518924995532e-002, -1.2341487349933207e-002,
          2.5162340836646917e-002, -3.1025226489792895e-003,
          3.5354687265732175e-002, 8.6863805279990859e-003,
          -3.6886224657409317e-001, -1.9109306310120071e-002,
          1.4553562221065641e-001, 2.9909380771807642e-001,
          9.3021060699559607e-002, 1.1088704277898927e-001,
          9.8375506851294172e-003, 3.1550866675025532e-002,
          3.6030903415615594e-002, 2.9505775664934075e-002,
          -3.5592518368783110e-001, 1.5015202701281920e-002,
          -7.9002623895551433e-002, 3.0916822495544470e-002,
          5.6918682134968202e-002, 1.5652284150736509e-002,
          2.9724009816757893e-002, 1.4148893404271876e-002,
          -3.9094876532981271e-002, 2.1991657714459319e-002,
          1.1631514410275842e-001, 2.8717251255462737e-002,
          1.6605479386341850e-002, -6.8050699296937365e-003,
          -1.8668609411083802e-002, 6.7707364596831729e-003,
          -9.3785472000188878e-003, -3.1229531575294480e-002,
          -1.1501753942190489e-002, 9.1817708877316839e-003,
          7.3498668727092261e-003, -9.8078479411477515e-003,
          1.4136530601501935e-002, -8.8906290915530678e-003,
          2.3611313450963563e-002, -4.5407558198385635e-002,
          1.4804061527807773e-003, 2.7662711942511905e-002,
          -2.1590074312721010e-002, 2.4625713439472268e-002,
          -3.1544142247990131e-001, -1.0511741278001836e-001,
          -7.7744887291079159e-002, 1.9979355734331010e-002,
          4.0785496993845378e-002, 1.4153839144806788e-002,
          3.6757460204843086e-002, 9.5807050892256301e-002,
          4.4763269769773281e-002, -1.2797333526801962e-002,
          7.6174226845370840e-002, 3.8306492443918053e-002,
          2.7606214552248088e-002, 1.8217434884763048e-003,
          -3.5352121620083179e-002, -1.0848254610503240e-002,
          8.7331560464654432e-003, 8.3385202590654968e-003,
          -1.0562037698845846e-002, 4.0802485753651835e-002,
          -1.0963454420164852e-001, -3.9898221855486091e-003,
          -4.2291328072888358e-002, -7.2972205203378479e-002,
          9.9427837614348685e-003, 1.2397699579908305e-002,
          3.1514461760587344e-002, 3.3466200373304139e-002,
          5.6792926869417455e-003, -4.2767417886182043e-003,
          1.0970818393867168e-001, 4.1834718866590103e-003,
          2.3062266826163486e-002, -2.1087943437027353e-002,
          -2.9578152998221079e-002, -3.1501432148268012e-002,
          3.8654555247742431e-002, -1.7926211216042060e-002,
          5.3922338421067542e-002, 1.8122214632732517e-002,
          1.3443187725176763e-002, 3.3388124158766300e-003,
          1.1813549529940714e-002, 8.9283180790457437e-004,
          8.6292298405462840e-003, -3.4739299699041395e-002,
          1.8382753753049680e-002, 1.4189443003952451e-002,
          -2.6514301190753650e-002, -3.6880495080614438e-002,
          -4.4067204240347879e-001, -1.0450228023984118e-001,
          -1.1456066551602020e-001, 5.4087942021156847e-002,
          -3.8225911413896888e-003, 3.4756556066111471e-002,
          2.1151440416310872e-002, -3.1770018498705706e-002,
          -4.0169449944748060e-002, 2.0510306654228375e-002,
          -1.0322178006591472e-001, 2.2199456011472312e-002,
          -2.2271264828865708e-002, 3.6453363778567956e-002,
          -1.3673358620609692e-002, -7.9787292687484010e-002,
          1.2114845010177898e-002, -2.0856742642654941e-002,
          -1.0101814458753315e-002, 1.0819314562201868e-003,
          -4.0820169236955889e-002, 2.0732546638514763e-002,
          6.8207262147991249e-002, 5.0857630265829755e-002,
          2.7366371988273748e-002, -6.0660434079185966e-003,
          3.5289875037999970e-002, 2.2172790132841850e-002,
          -4.3476189581043719e-002, -2.1384563281120220e-002,
          -5.6003321302409433e-002, 3.1574488954135921e-002,
          -1.8713692001304443e-002, 6.3068618219166497e-003,
          4.7726411457983758e-002, 2.3965937736085925e-002,
          1.7077623896607084e-002, -6.7646604401283117e-002,
          -1.1544411331723072e-002, -2.5304552571387917e-002,
          -2.2724701351295146e-001, 2.8940562006127584e-002,
          2.3893315206042674e-002, 8.2508126468897519e-002,
          1.6851685955208542e-002, -2.8966539784822829e-003,
          -3.5898948938353832e-002, -7.0673274704386784e-003,
          -1.8908318063294537e-002, 2.3847015087313014e-002,
          -2.6397790887553152e-001, 3.4599320206515072e-002,
          8.3837909321244006e-002, 4.7275259788021266e-002,
          2.2312165381929788e-002, 3.1920979534869193e-002,
          2.3419555277108945e-002, -1.4555808771814038e-002,
          1.1266324973444256e-004, 1.4838546621958177e-003,
          6.0696546441644676e-002, 3.5366802196593120e-002,
          3.3272104017732743e-002, -3.5208822421746749e-002,
          -2.1948863647892620e-004, -4.6806990319481073e-002,
          -3.7907021386051509e-002, 1.7149945226617067e-003,
          9.8338742769752529e-003, 7.0114657585073790e-003,
          -1.1727921939369329e-001, 9.1308228730629069e-003,
          8.2455100214237270e-002, -6.2646707378847227e-002,
          -2.9920293308467170e-003, -2.9342597306265213e-002,
          -6.3619924902637640e-003, 1.0720653836090213e-002,
          -4.5997088543695816e-002, 1.6804407021572931e-002,
          -8.6650848089751098e-002, 9.5161751834291569e-002,
          9.1342360026827572e-003, 2.5479358274796558e-002,
          1.1667482011385786e-002, 2.3393544441376607e-004,
          -3.3906688840209488e-003, 3.4435771182441823e-002,
          1.4943995721562619e-002, -1.2553107564314365e-002,
          -1.0096745040067245e-001, -9.3335424576223833e-002,
          -2.4236577717980115e-002, -4.9578869801422100e-002,
          -2.5381537636689537e-002, 1.1098006022498420e-002,
          3.2327499109579154e-002, -1.7352120925154042e-002,
          -2.1259669247967485e-002, -2.2474273754353433e-002,
          -2.1412334043586725e-001, -1.4557096505155258e-002,
          8.1754852502257010e-003, 6.7855894005656073e-002,
          -1.9322245725832009e-003, 5.0739528344141409e-002,
          3.0866875922290031e-002, 3.2922160454048778e-005,
          1.4295103199870629e-002, -2.6927112832222568e-002,
          -1.8642606753617275e-001, 2.6241373733220469e-002,
          -5.1555415644695832e-002, 1.1685109270663116e-002,
          3.9804168438074619e-002, 4.4307004699342067e-002,
          2.3816912704653840e-003, -4.6303420743825492e-002,
          -9.1986595510591372e-003, -2.2699089542184855e-002,
          -2.9055815696172133e-001, -4.8815457129580672e-002,
          -1.4901484726680009e-001, -1.9186972974301345e-002,
          2.0208665588090403e-002, 5.3935098616676613e-002,
          -8.1610700540744492e-003, 1.9216329930316956e-002,
          -7.3137831565150370e-003, 1.0524833290525797e-002,
          -7.6606559230085400e-002, 2.5572934976967943e-002,
          1.3397595249864350e-002, 1.0537880861738713e-001,
          2.3668752557441160e-002, 2.0651955478961006e-002,
          -3.5164019467246781e-002, 1.9803135627015262e-002,
          -2.3186374927962349e-003, 1.7362963153300198e-002,
          -1.1390191335224324e-001, 5.2527447804994725e-003,
          -5.3765672199717778e-002, -7.2942560695100606e-002,
          3.1086764333324669e-002, 1.0884516299539820e-002,
          8.5555562819002468e-003, 3.7251067111124962e-002,
          -2.8113319918980157e-002, -4.0309233322840653e-003,
          -2.5186218137911243e-001, -3.1922941786633324e-002,
          5.7208447671214656e-002, -1.6757326148660029e-001,
          5.9945351454571555e-002, 6.1362421521816507e-002,
          8.6943178162314991e-003, 2.1502401652842583e-002,
          -3.0463154003394742e-003, 3.1807401488793553e-002,
          -1.4174774986943181e-001, -9.3669054067688131e-003,
          4.1227453693489791e-002, -6.8265649782279503e-002,
          3.0203729291792027e-002, 1.6007852577035839e-002,
          1.1036212020011701e-002, -5.9949136000234486e-003,
          1.1020292849524568e-002, -1.6038066664024065e-002,
          -7.2869456014732337e-001, -8.3535667546290798e-002,
          -3.1384506125139833e-001, -1.9663899686963077e-001,
          1.4632008793041282e-001, 1.9469069438748227e-001,
          -1.0691826626100135e-002, 1.5429927400902356e-002,
          1.0587409052514873e-002, 1.5936053760129975e-002,
          -2.4250116923725448e-001, -2.0009801043805231e-002,
          -1.5217848516835809e-002, -2.1345515251083923e-002,
          4.9592891109578058e-003, 1.3322272022250899e-002,
          2.0285578116678582e-002, 2.4067184376062121e-002,
          7.5115392102866477e-003, 5.3321268592762174e-003,
          -3.4661179614832713e-002, -6.6659494034418676e-003,
          -3.0096647537557093e-002, -1.9578170668801437e-002,
          -4.5187326837367297e-003, -3.6548964797525202e-002,
          8.7839046055713708e-004, 5.0325685554421684e-002,
          1.9545237102626123e-002, 4.3935260443083400e-002,
          1.1066791274984747e-001, -2.0052350892214441e-002,
          3.6798357369811623e-002, -2.0739317924606294e-002,
          -6.9283182682224484e-002, -7.9419239462312816e-002,
          3.2989736763186562e-003, 6.0869541144803760e-003,
          -1.3647970627102340e-003, -1.0009165123087648e-002,
          -9.6004415051993683e-002, -6.1640723430629693e-002,
          1.9630920405916272e-002, -7.4552130357610890e-003,
          -4.1664302340687943e-002, 3.1369334330462420e-002,
          -2.7360530405236637e-002, -4.0578748942848394e-002,
          1.4492578264340236e-002, -1.7624056990673025e-002,
          -1.2045538218582766e-001, -3.9006215106346769e-002,
          -3.1614040059805691e-002, -9.1471592108690828e-003,
          -2.0160895070413361e-002, 4.3741169089187938e-002,
          -1.9414339230423738e-002, 1.3055396249905187e-002,
          5.5260107659184987e-002, 3.5856870644732372e-003,
          -1.9629252112937837e-001, 2.5570976877255663e-002,
          -1.0362897081407890e-001, 3.4078128362483931e-002,
          2.0449957517788823e-002, -2.3248486815806123e-002,
          -2.7011454509521235e-002, 3.9725666403791361e-002,
          2.7846356957718119e-002, -2.8406508966385873e-003,
          -2.1613155942767118e-001, 1.8669452750405279e-002,
          -5.6755865841363336e-002, -8.7593486619366584e-002,
          1.3898848074123799e-002, 4.7088024994518689e-002,
          1.9784293069238536e-002, 2.1059414554236204e-002,
          3.4965694727772403e-002, -1.1401187164201774e-002,
          1.3738708195933549e-002, -2.1095795752430795e-002,
          6.6549354252461038e-003, -4.9707609862177135e-002,
          -8.3177610702661591e-003, 1.4565211960445874e-004,
          -2.6037467409081087e-002, -9.3338237951496855e-003,
          -5.7200549819445730e-002, 2.7452213877820989e-002,
          -1.5996145605567605e-001, 5.3530676349687145e-004,
          5.4948131965996592e-002, -7.8776038166814291e-002,
          1.5292648535652785e-002, -1.2717862934356687e-002,
          -2.5672453474527981e-002, 1.4852260719783194e-002,
          -1.8754130304241202e-002, 2.0596204840294483e-002,
          -4.8722619788689159e-001, -1.5870171268364951e-002,
          3.2500077747829439e-002, 8.7594833951005417e-004,
          6.2162732360141075e-002, 8.9177914562295041e-002,
          1.5253059741423716e-003, 5.1312602951875758e-002,
          -1.1211746096216533e-002, 1.0306222496847924e-002,
          -8.9706812780657841e-002, -2.8435892593184657e-003,
          -6.8041278865889426e-002, 4.1923308370095690e-002,
          -1.0339402157303083e-002, 1.3181175481263019e-002,
          2.9453069328318565e-002, 5.6955078126162233e-002,
          3.4283237492170569e-002, 1.9988337397876043e-002,
          5.3347227949469646e-002, -1.4177236010599267e-002,
          9.3288677450259705e-002, -5.0537928110999508e-003,
          -6.3062966068834811e-002, -2.7400095497920291e-002,
          -1.0861970466340626e-002, 2.9684075054737948e-002,
          -1.4557150119280323e-002, -2.6442504461303990e-002,
          -1.1164531586816971e-001, 5.6820552412165642e-003,
          -2.9133588028229886e-002, 5.0731248035508276e-002,
          -7.8516304113060431e-003, 2.7507696825325337e-002,
          -2.8997044298841664e-003, 9.1350201813450646e-003,
          -2.1116244428623324e-002, -3.7880812769779129e-002,
          -8.2630275567124023e-001, -1.0006921833171931e-001,
          -1.0573186231653471e-001, -3.3963380882636424e-002,
          1.1493563506140003e-001, 1.8348560933775696e-001,
          8.6156763131769107e-003, -1.9296094874665829e-002,
          5.0996437331669940e-002, -2.0340629357187574e-002,
          1.5955791497277730e-002, -9.7739751891228160e-002,
          -6.2741180830186444e-003, -6.3255684859110553e-002,
          -1.4314807160399741e-002, -2.5202121812981846e-002,
          -3.3735784091945631e-003, -7.2995890961646340e-002,
          -3.2175068463828706e-002, -3.5750987000793093e-002,
          -2.1309361512988753e-001, -8.1445153902469591e-002,
          -4.8764875615885897e-002, -1.0232974102537899e-001,
          -2.6925280364233717e-003, 2.3923394552966284e-002,
          -1.1343994736589385e-002, -1.7736753710302301e-002,
          -1.4453471583270004e-002, -2.9613451507606661e-002,
          -2.8702643754934830e-002, 3.7333032742870942e-001,
          -9.6641751961129091e-002, 2.5124972718464946e-002,
          -4.9590616425505107e-001, -6.2653130024899151e-001,
          -6.9087179259559768e-003, -1.4779417493995164e-001,
          -4.7060349920244771e-002, -2.9179252303740355e-002 ]
      - [ -1.9794755816375476e-001, 7.4866521057580204e-001,
          -6.5228075265782670e-001, -1.0305265783049125e+000,
          7.6586418131478828e-001, 8.8126711404847524e-001,
          7.5416972061151472e-002, 8.4104451863672913e-001,
          2.6447186336958700e-001, 1.8491548347591699e-001,
          -8.5477883910403640e-001 ]
