%YAML:1.0
my_nn: !!opencv-ml-ann-mlp
   layer_sizes: !!opencv-matrix
      rows: 1
      cols: 3
      dt: i
      data: [ 58, 10, 1 ]
   activation_function: GAUSSIAN
   f_param1: 1.
   f_param2: 1.
   min_val: 5.0000000000000003e-002
   max_val: 1.
   min_val1: 2.0000000000000000e-002
   max_val1: 1.
   training_params:
      train_method: BACKPROP
      dw_scale: 1.0000000000000000e-003
      moment_scale: 1.0000000000000000e-002
      term_criteria: { epsilon:2.2204460492503131e-016, iterations:1000 }
   input_scale: [ 8.6546027369740681e+000, -1.1625676793327353e+000,
       6.0636229536531605e+000, -1.3132243985654324e+000,
       5.7404684920571176e+000, -1.3905930489136398e+000,
       6.5459665816457635e+000, -1.3839339592243398e+000,
       7.2236432069695846e+000, -1.3090466254768678e+000,
       5.2487316966057902e+000, -1.2542256534875342e+000,
       6.5789810376459759e+000, -1.1029000755211122e+000,
       6.9595060549118397e+000, -1.2754972247390846e+000,
       7.1043842833277324e+000, -1.3310614696616407e+000,
       6.9780287309119569e+000, -1.2318131345662011e+000,
       6.4646885657304720e+000, -1.1867720729313094e+000,
       6.9843761754330611e+000, -1.3125040379894151e+000,
       6.5514689634863377e+000, -1.3660851849935607e+000,
       6.7818536346588321e+000, -1.3457272804881595e+000,
       6.4916951098365292e+000, -1.3006114661906776e+000,
       4.7113840745349487e+000, -1.0393884142824825e+000,
       8.3670866511837225e+000, -1.3564232184809824e+000,
       6.4779019396174791e+000, -1.2824619179392329e+000,
       6.6797079259458565e+000, -1.3073670036804297e+000,
       5.8903074978954750e+000, -1.3710313949296193e+000,
       6.6393053195396092e+000, -1.3520011961432505e+000,
       7.2397148413949211e+000, -1.3608986321578260e+000,
       6.7884450184716547e+000, -1.2967204933615879e+000,
       6.6398345187630659e+000, -1.3163073759640627e+000,
       7.0788992155111323e+000, -1.2215155265127817e+000,
       8.0813553678454149e+000, -1.1517221440248988e+000,
       5.9897526403177883e+000, -1.3318390813484207e+000,
       6.0517713566642675e+000, -1.3854046717061050e+000,
       6.1437551902921186e+000, -1.2685814262298294e+000,
       6.9772549000388420e+000, -1.2822479075282638e+000,
       6.6871079638428252e+000, -1.2972037583555946e+000,
       6.9649069864051540e+000, -1.2467054206963919e+000,
       7.1159815898559717e+000, -1.2649855378687576e+000,
       6.7659203311080205e+000, -1.1176403145870046e+000,
       5.6406803427127432e+000, -1.2793363855943078e+000,
       5.5930505013939804e+000, -1.3873022690316192e+000,
       6.0399102988076505e+000, -1.3846768337453954e+000,
       6.7211564585742218e+000, -1.2877570266763798e+000,
       6.2303786282905520e+000, -1.3535589319271828e+000,
       5.8794271558113120e+000, -1.1603049530733993e+000,
       5.7489319509665728e+000, -1.2878778857087303e+000,
       4.7799152335268875e+000, -1.2124877635896394e+000,
       7.3155626946617307e+000, -1.2672808352871074e+000,
       6.5550702871620867e+000, -1.2800898343356355e+000,
       7.6093430896656384e+000, -1.3534245655544239e+000,
       6.2504013468663153e+000, -1.3609777120404918e+000,
       6.7545372487557414e+000, -1.3582408898536367e+000,
       6.1621828841518500e+000, -1.2079540960992339e+000,
       7.7316689841583646e+000, -1.2655983801164274e+000,
       6.5414271463977478e+000, -1.3094473497417674e+000,
       7.0817160757772832e+000, -1.3477641652061518e+000,
       7.3970868885597501e+000, -1.2294552891821116e+000,
       6.2372862094146093e+000, -1.3275670040555625e+000,
       7.1195216040334754e+000, -1.3033485452616851e+000,
       5.6602762345083839e+000, -1.3809750913879268e+000,
       4.7579572714061227e+000, -1.4518151382902345e+000,
       6.5422967130123499e+000, -1.3036957357431120e+000,
       7.0996458889078324e+000, -1.2272447157590565e+000 ]
   output_scale: [ 2.1052631578947367e+000, -1.1052631578947367e+000 ]
   inv_output_scale: [ 4.7499999999999998e-001, 5.2500000000000002e-001 ]
   weights:
      - [ -2.6575104080521167e-001, -3.3089962296155698e-002,
          2.3690779975620611e-002, -4.9085477876874128e-003,
          -3.9713785891272287e-002, 1.8310234040325786e-002,
          3.6436947582771557e-002, -1.7569442390421561e-002,
          -1.0360142027065834e-001, -1.0096370590346163e-001,
          -1.4533825471865500e-001, -5.9048821299058987e-002,
          2.7387269199014748e-002, 1.0948618455214880e-002,
          -7.6599068735444198e-002, -1.3923519228620134e-002,
          -2.2331783860783199e-002, 1.4373262933401848e-002,
          7.1790605381457637e-002, 1.1423082727091234e-001,
          -2.1359722534920939e-001, -9.4975795618025646e-002,
          -3.9597777116936961e-002, -1.6395691595431364e-002,
          -3.6950772181139291e-002, 3.0613711549846753e-002,
          -1.0677131888673588e-001, 9.7739750247877233e-002,
          1.0158373292546363e-001, 1.3803328252023953e-001,
          -2.8017432135156545e-001, -1.7639520544055654e-001,
          -6.9520651007184513e-003, 3.4040688440144927e-002,
          5.6681143888923285e-002, 5.9009540240934431e-002,
          3.8551510300598175e-002, -4.6996886924720933e-002,
          1.4597875458714188e-001, 7.4162363400477674e-002,
          -3.6874360917710444e-002, -6.7597766601136602e-002,
          4.2167199216819745e-002, 7.2271864086712587e-002,
          -8.8986013451675477e-002, 1.2410344706476889e-004,
          2.7280818780928022e-002, -1.0264565676031756e-001,
          -5.2207992828972996e-002, -6.2423235039242041e-002,
          -1.3654079676959474e-001, 8.3592406652494136e-002,
          4.0992331046904576e-003, 4.6937190238934633e-002,
          4.9041397591738593e-003, 2.1341574056080531e-002,
          2.8856712902908734e-002, -1.5612899221939576e-002,
          9.1792042529192222e-002, 2.9359984722255955e-002,
          -2.8856955920974176e-001, -1.3274377173358459e-001,
          -1.9310605321928181e-001, -2.3512372210085276e-002,
          -8.3933677589271269e-002, 2.1277160934487171e-002,
          -7.9244720856913003e-002, 2.1677935284816940e-001,
          -2.4027289017506351e-001, 2.7556175838322755e-001,
          -1.5613971065744300e-002, -2.4575626546954076e-002,
          2.5520306404308048e-002, -6.9844454223135866e-003,
          -1.2087105877181935e-002, -3.4753306034121453e-002,
          -4.9675770151176024e-002, -9.2275081939909270e-002,
          -8.2185835742760741e-002, 5.3938732979323258e-002,
          -2.6513408809523364e-002, 1.1933716711365594e-001,
          -9.0973439388823112e-003, 3.1751902730280189e-002,
          1.6668696952179835e-003, -9.5874127930623637e-002,
          5.5054854604125285e-002, 4.2045238013083172e-002,
          -4.1462601814179156e-002, 3.1465280852973676e-001,
          -3.5801916515573240e-001, -1.0634423173548704e-002,
          1.5314814129731756e-002, -5.0363396137971805e-002,
          -1.7467217515013508e-001, 4.1450507039407336e-002,
          -1.2228045601541979e-001, 1.0628646145175824e-001,
          1.0166400776533345e-002, -4.6060238318387320e-002,
          -1.5827277008593146e-001, -4.7178193034018455e-002,
          8.4727110607373618e-002, 1.5025545254789238e-001,
          -9.4661006216418167e-002, -1.7089237322371553e-002,
          1.0161619531411464e-001, -1.5567379531888012e-001,
          1.7872266951697061e-001, 1.1160625816111050e-001,
          -3.2024416324385643e-002, 1.0647863408517831e-001,
          -6.0604795400699693e-003, 1.0607157260131478e-002,
          2.0620369251824516e-003, -8.4691439591236234e-002,
          -5.1829995609480317e-002, -5.5330771671738499e-002,
          -1.2775838057855363e-001, -7.3393387168128280e-002,
          -1.1089539722643260e-001, 4.1577567107002590e-002,
          -1.0014507941827171e-002, -5.9510302224217035e-002,
          -2.6954166382855648e-002, -1.2211583747610872e-002,
          -1.2217145995858179e-001, 9.7259371831332958e-002,
          -1.2423718976777526e-001, 2.2001863219912457e-001,
          -1.2841764575731957e-001, 2.0315770314635037e-001,
          1.5510138971851673e-002, -2.1444052583007591e-003,
          4.1924662249562164e-002, 2.9939934782137460e-002,
          -2.2478702316690927e-001, -1.4235792378232037e-001,
          5.6662423831420554e-002, 1.2006775173647975e-001,
          -1.4531333701953561e-001, -1.7429728621688226e-001,
          -2.3260763428741716e-002, 7.4114919470165838e-002,
          -9.2743458559201380e-002, 5.1723416202698082e-003,
          -3.7762807021327932e-003, -2.7781317209290696e-002,
          7.6476352390410993e-002, 5.9848170666124299e-003,
          -3.1815931353538018e-001, 1.2269492697095429e-001,
          2.6865092770701971e-002, 2.1400451409340407e-001,
          1.1001573387756246e-001, 4.8205541660685075e-001,
          1.1791601521802444e-001, -2.0158625368708813e-002,
          4.8697582158445732e-002, 3.0259008793427417e-001,
          -2.8978715063133631e-001, 3.3452129228373248e-002,
          -8.3922480476717840e-002, -3.2314696623092880e-002,
          1.2534666692225485e-001, -2.4573540829171053e-002,
          9.2083828733227083e-002, 1.8790514601883121e-001,
          -8.9256217833394103e-002, 3.7432442719257671e-002,
          4.9113191286146704e-002, -3.4104163607359003e-002,
          8.7700587277508690e-003, 1.2953269965161517e-002,
          6.4199822573388771e-002, -6.0166886471551509e-002,
          6.4218021806304287e-002, -1.4579781529033496e-002,
          7.8911047794398784e-003, 2.7522239126868309e-001,
          -1.3351253569167804e-001, -1.0634714907580187e-001,
          2.2133652383211789e-002, 1.7039655958041973e-002,
          -2.7754252748490654e-004, -3.2297608995177092e-002,
          3.7081435466836128e-002, -4.6693806275129361e-002,
          5.4167468703346933e-003, 1.7023964935781633e-001,
          -3.9580850943844165e-001, -3.3696523570992820e-001,
          -1.2630866772783557e-002, -5.0817756457419150e-002,
          -2.7970077036808920e-002, 5.9057630418265436e-002,
          -6.8165091702945352e-002, 1.7200126225912227e-001,
          1.3079582459713612e-001, 7.0833792398790688e-002,
          1.8055782732660026e-002, 1.3854679349253138e-001,
          -7.6077283607630776e-003, 1.0878410881765357e-003,
          9.8548605589759863e-002, -3.1152515967560676e-002,
          2.2938390506625966e-001, 1.2795826857909434e-001,
          -5.5285481834554728e-002, 4.8900266096150325e-003,
          -2.1097102571782542e-001, -5.5062207231907648e-002,
          2.0399394277889013e-003, -7.7454904810700623e-002,
          2.4083888479898782e-002, -4.6474949274628877e-002,
          -3.0446561237563726e-002, -5.8114776842946888e-004,
          2.2381563965230529e-003, -2.2059728967068920e-001,
          -9.8649383689058595e-002, -2.9962624308264244e-002,
          5.3866155254114187e-002, 1.0919742196885206e-002,
          6.7448370906970215e-002, -7.5247845734994392e-002,
          2.1313934148184471e-001, 3.7192451815766220e-002,
          1.1059911175383683e-001, 9.6059841184976222e-002,
          1.5177112444802535e-001, 4.7263419581964353e-002,
          1.1709545839394585e-002, 1.7633442837666592e-002,
          -6.0608415297793997e-002, -6.0347873646978967e-002,
          -1.3631344194324527e-001, -5.8743251205092196e-002,
          2.9481308515333596e-002, 8.2277054402097607e-002,
          -6.5878304259786302e-001, -5.0354087572993556e-001,
          -1.3195039812874643e-001, 2.8018580005785852e-002,
          -2.8352847716922848e-002, 7.7890872876027500e-002,
          5.9484459037695087e-002, 6.6432555478858277e-002,
          -6.8949012146078500e-002, 2.0749088868896043e-001,
          -2.3765088074236373e-001, 2.0400358518245516e-002,
          -5.9170525927387189e-002, 9.8941433411764826e-002,
          -4.6707093457871558e-002, 8.9229984360182108e-003,
          -1.9810108876918271e-002, -2.4109874957047698e-002,
          1.4809178899181755e-001, 1.7404188967634912e-001,
          1.4462811327902866e-001, -1.6314604828663305e-002,
          1.0424246476772276e-002, 1.1923534086301186e-002,
          -6.1657549139324912e-003, 3.2203414379678275e-002,
          9.1181586261309691e-002, 5.9468030830844662e-002,
          -3.4193693117210835e-002, -9.2281361983653484e-002,
          -1.7851510856889127e-001, 7.0858084207382835e-002,
          -2.8096229477914129e-002, -7.3898361309529268e-003,
          1.0709945873786106e-001, 5.0269631381547226e-003,
          2.1441373572866503e-004, -2.0330758212169443e-002,
          4.4809898819169691e-002, 3.1433724976836323e-002,
          -3.7288456492872951e-001, 4.5655625401751550e-003,
          4.2585074724994017e-002, 4.7728786255494059e-002,
          -6.6568677535257872e-002, 8.3039901319256884e-002,
          1.1316062439543538e-001, -2.9598469055357863e-002,
          -1.9038279410228377e-002, -1.6885486859122507e-002,
          -3.6831412352628595e-001, 3.0764765502142827e-001,
          5.5744709950788444e-002, 1.9216748672498011e-002,
          8.9921260787329867e-003, 7.5470878329467500e-002,
          -1.3994645236723355e-001, -3.9934528770223972e-002,
          9.0357647701785990e-002, -4.3033917676890375e-002,
          -2.9978158568187984e-002, 1.4689418941571336e-001,
          9.0927577024598499e-002, -3.6119932499622008e-004,
          6.8668459687833736e-002, -5.2781481780041078e-002,
          1.9874753887202789e-002, -1.1978952588850374e-001,
          4.1770513854032250e-002, 2.3337791292166538e-001,
          -1.7638018910004979e-001, 4.4383821393229897e-002,
          6.1296529723493996e-002, -1.6760752646934510e-002,
          -4.1623800764548524e-002, -4.4080559689089756e-002,
          3.9330690022332929e-002, 8.2140077225844529e-002,
          -1.2845047654108833e-002, 2.2422613556006812e-001,
          -2.6360459993979857e-001, 1.2658767256528333e-001,
          -1.5536315093131608e-004, 3.7067689039609136e-002,
          -1.9543475332536820e-003, 3.1371183912394428e-002,
          -7.1644694800810191e-002, -8.1031288045513211e-002,
          -2.9349056921167183e-002, 1.5272976869620236e-001,
          -3.0931945569948222e-001, -9.6730227223169873e-002,
          8.1855416715344964e-002, -8.1316370873471752e-002,
          -2.9655884666046267e-002, 3.7619713003574536e-002,
          -5.1049588286195047e-002, -3.3228419727521621e-002,
          1.3682628280662371e-001, -3.8115380967866319e-001,
          -3.0007298267702898e-001, 4.6297950920168057e-002,
          -1.1511147306764750e-002, 5.4842703650635601e-002,
          -3.7879758056571067e-002, 9.0234314940625809e-002,
          4.6621753932428291e-003, -3.6486010629232860e-002,
          -1.2797007341166127e-002, -1.9921429418546918e-001,
          -2.6662146839587314e-001, 8.8123206426172898e-002,
          -3.3857218197607286e-002, 1.0204254625517547e-002,
          4.4770792696184433e-002, 1.0022584747593914e-001,
          -1.0062450148554006e-002, -9.9937488473164950e-003,
          3.7360946223553591e-002, -1.2147177394301398e-001,
          -4.7262629484379953e-001, -2.4169809109974993e-001,
          -1.3143757030925232e-001, -7.7933300261266061e-002,
          -5.9658615667241205e-002, 5.6786617958423354e-003,
          -1.2440458657609833e-001, 4.6115729595691095e-002,
          -2.2374009114815116e-001, -1.6392834537538198e-001,
          -1.4735244264162796e-002, 5.0268102169545643e-002,
          -1.4551188282682581e-001, 8.5688065137191752e-002,
          2.2831425537036744e-002, 2.0858472964877797e-001,
          -6.6197200388319957e-002, 4.7606040072096104e-005,
          1.1032645867047024e-001, 6.1378051497117336e-002,
          -1.8792083273575058e-001, -6.7876864840924284e-002,
          -1.8852846489508707e-002, -1.2563673331589442e-001,
          1.5993185626987236e-002, -3.8334854766158888e-002,
          -5.5010326656656349e-003, 5.7512399091575177e-002,
          -1.9971379734883105e-001, -9.1173133397207048e-003,
          -2.8683890665373007e-001, -3.5743805950561057e-002,
          6.5080237199438229e-002, -1.8112334525637383e-001,
          2.6544980412491852e-002, 2.4125450229217412e-002,
          -2.0468695412058213e-001, 1.3372712119057098e-001,
          7.5812705848974968e-002, -1.8424903554793984e-002,
          -1.5003460522516149e-001, 1.2580753492920427e-001,
          1.1760747952986822e-001, -7.0271016056533464e-002,
          -1.1299899543670548e-002, 6.2816916819102217e-002,
          1.8129910629030667e-002, -3.9275704732064751e-002,
          -9.7022556310895194e-002, -8.4588592666516860e-002,
          -9.2448939270873565e-001, -2.6168812913836775e-001,
          -2.4323494278939145e-001, -3.3521589758881049e-001,
          2.5874404086067204e-001, 1.6818195053226025e-002,
          -2.5789666502012937e-001, -2.8343640504765802e-003,
          -3.9627039025524069e-001, -3.3350520529919686e-001,
          -2.1487237090230643e-001, -1.0516425897145162e-001,
          8.7351080857464378e-003, -3.1742183640556934e-002,
          -2.8907141456394069e-002, 5.2158497394722489e-002,
          5.4808262297074951e-002, 4.8376954512578830e-003,
          -1.9764030702831550e-001, 1.7025099809327071e-001,
          -6.5045741399438473e-002, 7.8592724179519013e-002,
          2.8190271034373379e-002, -2.9232634692423621e-003,
          6.3500668334192947e-002, -5.4896545375257143e-002,
          -7.4254509285809372e-002, 4.8061329053793067e-002,
          1.8017274260136884e-001, 1.9967657523100923e-001,
          1.9213178869957548e-001, 4.2093011248073978e-002,
          8.2041531172995563e-002, 3.1957445580159262e-002,
          -5.1849916134137898e-002, -1.8614312602105104e-001,
          1.1539871473158346e-001, 1.7066702704055903e-002,
          1.1196587831633321e-001, -1.7768532582096452e-001,
          -6.4377940960204341e-002, -1.3681282527419159e-001,
          1.1144062315746350e-001, -2.7616397687582155e-002,
          -1.0540838143167043e-001, 1.6859991533949664e-002,
          6.8247830955731378e-002, 1.0276514399064260e-002,
          1.1858379420992191e-002, -1.3307826767012568e-001,
          -1.9374686887684905e-001, -1.7046021401190567e-001,
          -1.0509237805082730e-001, -1.0617973334363920e-003,
          2.3094579807509834e-002, -9.7636054771703031e-003,
          -9.3038535201444630e-002, 3.0224644711625951e-002,
          2.5404094373134029e-002, -8.8394841461241755e-002,
          -4.5510310212962130e-001, 1.2371924977794789e-001,
          -2.0732730095470273e-001, 1.9190823911021122e-002,
          3.1940299881667251e-002, -4.1574769701053921e-002,
          -2.5736228486265639e-001, -2.0301381682673272e-002,
          4.9159993696606549e-002, -5.1857717880707081e-002,
          -2.6369367633922319e-001, 3.8104705386894082e-002,
          -8.1708701640163875e-002, -6.8268804309969122e-002,
          8.5386204158598766e-002, -3.3183665998811306e-002,
          -3.9521447826169315e-002, 2.1393708424365981e-001,
          1.7048666765588369e-001, -1.7729526897608144e-001,
          -1.0672451543306258e-001, -4.9074283144603610e-002,
          3.0883814993944748e-002, -3.5040059305525326e-002,
          -5.5068858730242642e-002, -6.5140977483497176e-002,
          -5.7070645934683285e-002, 5.1590118852985548e-003,
          -1.3845475600726009e-001, 1.0338148986773728e-001,
          -3.6633179206696997e-001, 4.0958048912971584e-002,
          6.4008464836597667e-002, -5.6614200329808240e-002,
          -4.4327640640366020e-003, -5.0808953245219807e-002,
          6.0349454179662615e-002, -4.1457378274362602e-003,
          -2.1562409668327212e-001, -4.6708187894608129e-002,
          -3.7393024701911565e-001, 1.7168871079619330e-001,
          -4.8739280213769054e-002, -1.0960684283553375e-001,
          6.9298967602418007e-002, 2.1570751348461126e-001,
          3.6170634851284962e-003, 6.1460599687095663e-002,
          -3.1198044833972288e-001, -3.3088043536758721e-001,
          -1.8345721478292781e-001, -4.7373213377754068e-002,
          -5.0821878747002218e-002, -1.0199001985358580e-002,
          -7.8539733880075888e-002, 4.3523153617248907e-002,
          -1.1479991624844538e-001, -2.4005815151689749e-003,
          -1.0886189310121230e-001, 9.9658067157224250e-002,
          -4.9808764805210716e-002, -1.5047936045121607e-001,
          7.0471350280567890e-002, 3.7284827649743071e-002,
          -1.1329051915886394e-001, 6.3157944392607229e-003,
          -7.5754193900619870e-003, -1.6896326580279417e-001,
          1.4792530763271321e-002, -2.4634999246813033e-001,
          -3.9547983998688210e-002, 4.7857692934452023e-002,
          -3.2271975337992233e-002, -1.1728214647749860e-002,
          -4.2693898331244103e-002, 3.0530858456320621e-002,
          8.7976730465142948e-003, 8.9474414985377212e-002,
          -1.4137134662823349e-002, -3.7963333854922998e-001,
          -9.2061565472097950e-001, -3.6203545953750538e-001,
          -4.1508865745671183e-002, -1.5895586547400400e-001,
          1.6160706275276862e-001, 2.4983213204420762e-001,
          -1.2554690742984120e-001, 3.0101052170269350e-002,
          5.1148038166943230e-002, -1.4149262761572426e-001,
          -9.4995365442643032e-002, -1.9488536260564882e-001,
          3.3746076661827377e-002, -5.0611465125736860e-002,
          -5.4861855691720904e-002, -1.2436208634680246e-001,
          9.9242860299294813e-002, 1.0822834397673449e-001,
          -4.3435017581682354e-002, -9.7658306986318347e-002,
          -3.9947366611650692e-001, 2.7185880091234429e-002,
          6.9708294059766945e-002, -1.2532733726750153e-001,
          -2.5007279015533523e-002, 4.0099611595530481e-003,
          1.1020558427650880e-001, 8.7777060928579898e-002,
          -1.0963070194353190e-001, -2.6672231703275928e-001,
          -4.2815550712094891e-002, 8.2633447905226542e-001,
          1.4289956555351005e-001, -6.0987112027931722e-002,
          -4.6638426373890840e-001, -1.7634592284811998e+000,
          4.7781677682210499e-001, -3.4196354773588933e-001,
          2.5887240531892269e-001, 3.0630861318445163e-001 ]
      - [ -2.0492213092315904e-002, 5.5748308944769931e-001,
          -1.0908514117065704e+000, -1.4835959943924093e+000,
          8.7861755494682736e-001, 2.3504348926672538e+000,
          6.9161277957481471e-001, 7.6538116060696670e-001,
          5.7146081144009142e-001, 4.2384758301195952e-001,
          3.6889488166211515e-002 ]
